%YAML:1.0
my_nn: !!opencv-ml-ann-mlp
   layer_sizes: !!opencv-matrix
      rows: 1
      cols: 3
      dt: i
      data: [ 48, 180, 34 ]
   activation_function: SIGMOID_SYM
   f_param1: 6.6666666666666663e-01
   f_param2: 1.7159000000000000e+00
   min_val: -9.4999999999999996e-01
   max_val: 9.4999999999999996e-01
   min_val1: -9.7999999999999998e-01
   max_val1: 9.7999999999999998e-01
   training_params:
      train_method: BACKPROP
      dw_scale: 9.9999999999999995e-08
      moment_scale: 9.9999999999999995e-08
      term_criteria: { epsilon:9.9999999999999995e-07, iterations:100000 }
   input_scale: [ 2.4233645651466393e+01, -2.5652273477411520e+00,
       1.1604906507364696e+01, -1.6583749557810066e+00,
       2.5940841765417552e+01, -3.2477309473991678e+00,
       1.3940285658808383e+01, -1.9845806032424864e+00,
       2.2366599818633130e+01, -2.8023806954548434e+00,
       1.8512464267050490e+01, -1.8482394035406284e+00,
       2.0974577648146802e+01, -2.6454911857097789e+00,
       1.6263253320087479e+01, -1.9914552014154971e+00,
       1.9500994158860934e+01, -2.7287103031378228e+00,
       1.9937745451486197e+01, -2.0447470268496502e+00,
       2.2095018928473070e+01, -2.8519969077148803e+00,
       1.7121274058143293e+01, -1.8916806653462457e+00,
       2.3188876210684239e+01, -3.2496373762771218e+00,
       1.1830041486714387e+01, -1.5349621148610373e+00,
       2.3848032352878594e+01, -2.5847370532780660e+00,
       9.8946802613809819e+00, -1.4807427598421665e+00,
       1.5395250163554685e+01, -2.0750261567483523e+00,
       1.3215173732821242e+01, -1.9081622569950902e+00,
       1.5491262563343112e+01, -2.4253120667536461e+00,
       1.6822399302301410e+01, -1.6080531508877818e+00,
       1.4940749147940497e+01, -1.9748945909853581e+00,
       1.7301717201000542e+01, -1.5894273424656302e+00,
       1.6724053995799327e+01, -1.9469750163383723e+00,
       1.6736876177407765e+01, -1.7449670227136009e+00,
       1.4267833953106827e+01, -1.7850151337973337e+00,
       1.4616170952880255e+01, -1.3780469906933264e+00,
       1.4655806511416163e+01, -1.5115826417201752e+00,
       1.4341169075833585e+01, -1.4224415110488129e+00,
       1.5042848660589838e+01, -1.7152829399992298e+00,
       1.4151366583420293e+01, -1.7739237477161813e+00,
       1.4736335625817667e+01, -2.1461825839219340e+00,
       1.4616160570808468e+01, -1.4196160909285036e+00,
       1.5368801722226381e+01, -1.6164272836580285e+00,
       1.4420023998237932e+01, -1.5193531044169994e+00,
       1.3845736687701653e+01, -1.7317595884188819e+00,
       1.3262437817634327e+01, -1.4065595428979558e+00,
       1.7091846999225755e+01, -1.8688527157035992e+00,
       1.5569066444613993e+01, -1.4108871179716829e+00,
       1.3398730589723732e+01, -1.3810702152901708e+00,
       1.2675067729795396e+01, -1.5135223812911172e+00,
       1.9379055570019812e+01, -2.1125564505775025e+00,
       1.7223288135955286e+01, -2.0194204063031931e+00,
       1.5917167774674398e+01, -1.7640997066239361e+00,
       1.3803570299504113e+01, -1.6977498302653304e+00,
       1.9041337514629415e+01, -1.5008718287107441e+00,
       1.4053301950525251e+01, -2.0406799754405278e+00,
       1.2695798807005234e+01, -1.8863492535389825e+00,
       1.3917691821837282e+01, -1.4851323326890338e+00 ]
   output_scale: [ 5.2631578947368425e+03, 5000., 5.2631578947368425e+03,
       5000., 5.2631578947368425e+03, 5000., 5.2631578947368425e+03,
       5000., 5.2631578947368425e+03, 5000., 5.2631578947368425e+03,
       5000., 5.2631578947368425e+03, 5000., 5.2631578947368425e+03,
       5000., 5.2631578947368425e+03, 5000., 5.2631578947368425e+03,
       5000., 5.2631578947368425e+03, 5000., 5.2631578947368425e+03,
       5000., 5.2631578947368425e+03, 5000., 5.2631578947368425e+03,
       5000., 5.2631578947368425e+03, 5000., 5.2631578947368425e+03,
       5000., 5.2631578947368425e+03, 5000., 5.2631578947368425e+03,
       5000., 5.2631578947368425e+03, 5000., 5.2631578947368425e+03,
       5000., 5.2631578947368425e+03, 5000., 5.2631578947368425e+03,
       5000., 5.2631578947368425e+03, 5000., 5.2631578947368425e+03,
       5000., 5.2631578947368425e+03, 5000., 5.2631578947368425e+03,
       5000., 5.2631578947368425e+03, 5000., 5.2631578947368425e+03,
       5000., 5.2631578947368425e+03, 5000., 5.2631578947368425e+03,
       5000., 5.2631578947368425e+03, 5000., 5.2631578947368425e+03,
       5000., 5.2631578947368425e+03, 5000., 5.2631578947368425e+03,
       5000. ]
   inv_output_scale: [ 1.8999999999999998e-04, -9.4999999999999996e-01,
       1.8999999999999998e-04, -9.4999999999999996e-01,
       1.8999999999999998e-04, -9.4999999999999996e-01,
       1.8999999999999998e-04, -9.4999999999999996e-01,
       1.8999999999999998e-04, -9.4999999999999996e-01,
       1.8999999999999998e-04, -9.4999999999999996e-01,
       1.8999999999999998e-04, -9.4999999999999996e-01,
       1.8999999999999998e-04, -9.4999999999999996e-01,
       1.8999999999999998e-04, -9.4999999999999996e-01,
       1.8999999999999998e-04, -9.4999999999999996e-01,
       1.8999999999999998e-04, -9.4999999999999996e-01,
       1.8999999999999998e-04, -9.4999999999999996e-01,
       1.8999999999999998e-04, -9.4999999999999996e-01,
       1.8999999999999998e-04, -9.4999999999999996e-01,
       1.8999999999999998e-04, -9.4999999999999996e-01,
       1.8999999999999998e-04, -9.4999999999999996e-01,
       1.8999999999999998e-04, -9.4999999999999996e-01,
       1.8999999999999998e-04, -9.4999999999999996e-01,
       1.8999999999999998e-04, -9.4999999999999996e-01,
       1.8999999999999998e-04, -9.4999999999999996e-01,
       1.8999999999999998e-04, -9.4999999999999996e-01,
       1.8999999999999998e-04, -9.4999999999999996e-01,
       1.8999999999999998e-04, -9.4999999999999996e-01,
       1.8999999999999998e-04, -9.4999999999999996e-01,
       1.8999999999999998e-04, -9.4999999999999996e-01,
       1.8999999999999998e-04, -9.4999999999999996e-01,
       1.8999999999999998e-04, -9.4999999999999996e-01,
       1.8999999999999998e-04, -9.4999999999999996e-01,
       1.8999999999999998e-04, -9.4999999999999996e-01,
       1.8999999999999998e-04, -9.4999999999999996e-01,
       1.8999999999999998e-04, -9.4999999999999996e-01,
       1.8999999999999998e-04, -9.4999999999999996e-01,
       1.8999999999999998e-04, -9.4999999999999996e-01,
       1.8999999999999998e-04, -9.4999999999999996e-01 ]
   weights:
      - [ -5.0420026912530759e-02, -1.7463342272235997e-02,
          -4.9602151676094832e-03, 2.8710035523754628e-02,
          2.1809412195366459e-02, 1.9072291781402725e-02,
          1.2737508835665465e-02, 2.9642498025180857e-02,
          2.1927058869242448e-02, 1.4712395591028470e-03,
          -2.4951592678392285e-02, 2.8304799482356074e-02,
          -1.9959334161750868e-02, 1.1774758019379447e-02,
          -1.6399194011064881e-02, -3.2790934006642528e-02,
          3.0885334857574984e-02, -1.6475824985533110e-02,
          -2.9550509095251452e-02, 4.0816932300921571e-03,
          2.6464149840802635e-02, -3.0582194976814775e-02,
          3.4596026914433947e-02, -3.7256865811751312e-02,
          -3.0780231641537474e-02, -5.8701340723530553e-02,
          4.6921663323006936e-02, -1.5309016365324517e-02,
          -6.2681559190367026e-02, 3.8472646442272891e-02,
          7.7605377367324360e-03, -2.6233164798598534e-02,
          -3.5548547557391057e-02, 1.9673562732589597e-03,
          -1.5934343405638162e-02, -8.1442585853651293e-03,
          -3.1521975723845783e-02, 3.8171194135382322e-02,
          -8.0828261899369147e-03, 1.4042860337745927e-02,
          -1.1187512591619533e-02, -1.9182904800535753e-02,
          -6.9595953457899668e-03, 4.5719113234292869e-02,
          -3.0565250804606956e-02, 2.5008172163998039e-02,
          -1.9284133803708064e-02, 1.8374086229061208e-03,
          -1.2239578809152650e-02, 6.4985374489006514e-03,
          5.1207719368538886e-02, -1.7153637920744366e-02,
          1.2670933692933524e-02, -1.1207039009064326e-02,
          -1.2116291629910736e-02, -8.0149899203016944e-03,
          1.3311722776518708e-02, 4.3532712314032780e-02,
          7.9228076730675709e-03, -7.3041453987829335e-03,
          1.6215352282334217e-02, 1.6865961198248701e-02,
          -2.6481817311668585e-02, 2.9498094448302214e-02,
          1.9749254792255328e-02, -6.9434649971149261e-03,
          5.0818661080115979e-03, -5.4622054352945010e-02,
          1.7654075665511477e-02, 9.6365285964455042e-03,
          -1.5931253819548297e-02, -6.1301403655195366e-03,
          -6.9180322160001320e-03, 3.1721390247645163e-02,
          -4.1330689729404294e-04, -2.9461342787790678e-02,
          -1.4813674717384165e-03, -2.3239009190568160e-02,
          -1.8669188943521958e-02, 2.3384572642652569e-02,
          1.0226362767476586e-03, 1.4962577667921851e-02,
          6.6940516322063137e-03, 3.1631770394411222e-02,
          4.3793967540687644e-02, 1.6073763264069705e-02,
          3.7974867402809545e-02, 3.0914178293239645e-03,
          4.1387793635583897e-02, -3.6161690159761922e-02,
          1.9542667405209775e-03, -1.9733690231197924e-02,
          9.3208035942326760e-03, -5.3715930679879051e-02,
          5.2072004385078176e-02, 2.6818400786328796e-02,
          -3.7184427751362437e-02, -2.1459593376865042e-02,
          -8.2495490376488893e-03, 3.6513953764524251e-02,
          5.1727457134901005e-02, -3.7714978675248124e-02,
          -1.1724558917679154e-02, -1.8520456438736697e-02,
          -6.3873334269052692e-03, 2.1018800612084641e-03,
          2.0385843736244830e-02, 1.0134846032555697e-02,
          -6.8473522395601913e-03, 4.1609345183959798e-02,
          -2.7089791845996657e-02, -3.7236528534036334e-02,
          2.8147109899139554e-02, 1.2532473957263727e-02,
          2.9015515919306685e-02, 8.9993847797820922e-03,
          -1.8835627785571584e-02, 2.6302409817054076e-02,
          -7.4067078383067064e-03, -7.3683006884994262e-03,
          1.9982614012948773e-02, 1.1849859511044926e-02,
          -1.3608462821712882e-02, 1.8000251684834264e-02,
          -3.6368528717573264e-03, -4.3787095987197003e-02,
          3.5707565270386522e-02, 3.7971570616908333e-02,
          -1.0509505249308916e-02, -3.2493270815348210e-02,
          1.4940618660082346e-02, -9.8824674549949434e-03,
          1.7335176105623788e-02, 1.5148207190212763e-02,
          2.1124048137379312e-02, 2.5667259145542441e-02,
          1.0760479865149625e-02, -4.4512545888546827e-02,
          1.0958471185436582e-02, 1.3265545914906040e-02,
          -2.6245572428377207e-02, -4.4558471097761176e-02,
          4.0398538680623597e-02, 9.1362260994620297e-03,
          1.9035613959291757e-02, -1.1764306315296512e-02,
          -1.0506440975746257e-02, -9.5065139406143601e-03,
          -3.0662582588133411e-02, -1.6640463525797212e-02,
          -9.4930258989001509e-03, -5.0472388504546321e-02,
          -1.0253771952194910e-02, -2.1572126729115144e-02,
          -2.5125410511506196e-02, -2.6024316320498789e-02,
          -3.3165101682098380e-02, 3.3767909653806868e-02,
          1.7588366791413994e-02, 3.2017469851599124e-05,
          -1.5955508610510018e-02, -8.4818922623517701e-03,
          1.3197944245238848e-02, 2.1818948433541097e-02,
          1.4013757953650945e-02, -1.5655940293610626e-02,
          -1.9942446412582436e-02, 2.9910873682104062e-02,
          -1.4066848501285411e-02, 3.3145857670905006e-02,
          -1.0585488675330634e-02, 1.6789224359748920e-02,
          -3.7301642731654559e-02, 3.8918509658349754e-03,
          1.8721346641320274e-02, 1.9012560361037961e-02,
          -1.4747496668165374e-02, 5.3255768065951281e-02,
          -2.3899080438821472e-02, -3.1888826895708995e-02,
          -4.6101319182597408e-04, -2.2574502527207892e-02,
          -1.4253839732837243e-03, -9.4322968334088330e-03,
          1.3589930085044005e-02, -8.5260296175407452e-03,
          1.9101604898958808e-02, 4.8639634550237794e-02,
          -4.7207678853875071e-03, -1.7038061161387206e-02,
          4.9872202814929155e-03, 3.8441292261699768e-02,
          3.7661778462503319e-03, -4.2022507568593671e-03,
          2.1951846197279828e-02, -2.6722587586991708e-02,
          -7.5533625756746851e-03, -5.3027950790185043e-03,
          -1.4141521075731167e-02, 1.5228435330859016e-04,
          -5.7118914475924668e-03, 1.4420864858611328e-02,
          1.5652385808329915e-02, -1.7277050982712306e-02,
          -3.8263691443898275e-02, 5.7097673018478214e-02,
          1.2964083386717725e-02, -3.3012309684629842e-02,
          -4.7646456186903460e-03, -3.7588576406001904e-02,
          1.6273315960729597e-02, -3.3535978810084336e-03,
          3.0698460534291618e-02, 6.9145520512763981e-03,
          -3.2405207143033125e-02, 1.4529014681183144e-02,
          -2.1818375646369181e-02, 2.0958404178303733e-02,
          -1.7534011669527162e-02, -2.5326810530943339e-04,
          3.3026666221372951e-02, 7.5600475983433647e-03,
          -3.3947497823104716e-02, -1.3814014562157884e-02,
          1.1283441026033333e-02, -1.4963978733574419e-02,
          -3.0319801469789083e-02, 5.9087905000742826e-02,
          3.6400272875164091e-02, 2.4527193431254715e-02,
          1.5690400574038317e-02, -3.0395297314960931e-02,
          -2.6617655934439464e-02, -3.7338597401228295e-02,
          -4.0647042453821856e-02, 1.3139108502268080e-02,
          -2.2247442660256724e-02, 3.7674978695123332e-02,
          -3.9577566525520053e-03, 2.6676351294433836e-02,
          -2.3191832287809799e-02, -3.5047343764249186e-02,
          2.7575365937996921e-02, 3.7464271685414809e-02,
          -2.4280680762810893e-02, 4.7289312078108686e-02,
          -4.9632956454913266e-02, -3.7133992232367283e-02,
          -3.2563077378677897e-02, 2.8280020677687425e-03,
          8.3680078980947325e-03, -1.2430258125591903e-02,
          7.5919173119614030e-03, 3.0294455823104482e-02,
          5.9833490156103383e-03, -1.0487969849491522e-02,
          -2.9933229357065685e-02, 2.3472217727673158e-02,
          1.4848212590204267e-02, -2.2729954927532024e-02,
          -3.0888972016721795e-02, -3.1543360034518554e-02,
          -2.7552111222121110e-02, 3.9035855658267588e-02,
          3.9933093071004462e-02, 3.4666907295655074e-02,
          -8.0104628437739217e-03, -1.7963615310032304e-02,
          -1.6909830347630946e-03, -1.4891038496706829e-02,
          1.8232239864303751e-02, 8.6539750100062471e-03,
          1.2792452545708582e-02, -1.5760149495238560e-02,
          7.1014065305886201e-03, 2.0090922653017589e-02,
          -4.1647812653865475e-02, 3.3958542507003558e-02,
          -3.1987002830768448e-02, -4.0167555902821360e-02,
          1.8718522854814915e-02, 1.1019709804354296e-02,
          -3.4253958416307156e-02, -1.2683987029289700e-02,
          4.2028273350501820e-02, 8.3520255879806857e-03,
          -1.1637138294698750e-02, -3.5474404990532018e-03,
          2.4511942094486490e-02, 3.4038170328183681e-02,
          -4.6937247037485884e-02, -2.0102320581053316e-03,
          -4.4494871963969770e-03, 3.4456457035260735e-02,
          1.4625178761608220e-02, -1.8668265155764564e-02,
          -2.3654054176564448e-02, -1.8238660916874306e-02,
          1.5733399876009604e-02, 4.1086764397955000e-02,
          -2.9578728182589512e-02, 1.6167741055405367e-03,
          1.1346174568299136e-02, -1.3147052509687595e-02,
          -3.4669027243840217e-02, -3.6850179981022760e-02,
          -1.4140771921934223e-02, -5.0105813850492658e-04,
          -1.3341170447491012e-02, 4.7412759816688882e-02,
          1.5095074131583446e-02, 2.1459594404264710e-02,
          -2.9493535701480424e-02, -1.2931667753300210e-02,
          2.9452532650494859e-02, 8.3452066627990142e-04,
          -3.8666193601175998e-03, -2.2154327400739009e-02,
          1.2065285749699966e-04, -3.4109747242311909e-02,
          2.1079692944147637e-03, 1.2626586675888757e-03,
          -1.9649208172623400e-02, -2.3540261196660889e-02,
          -2.7271033110674782e-02, -3.4558127402753928e-02,
          1.9165797768002262e-03, -2.3184336500355122e-02,
          5.0336290500611135e-02, -1.7430145741703776e-02,
          1.6199735449542722e-02, -4.5246139503080401e-02,
          -2.6481629020002988e-02, 1.1715003967649395e-02,
          2.7123673797343560e-02, -7.2381855956110920e-03,
          -1.2850625470625368e-03, 2.6676033205629123e-02,
          2.9564898178074929e-02, 3.0768624865921065e-02,
          1.4342144581249473e-02, 3.2249486603008540e-02,
          -3.0794565302314156e-02, 3.8586340923213745e-02,
          -1.1856452918526411e-02, 2.6580884488193970e-02,
          1.6236173034670506e-02, -2.2953780151437251e-03,
          -7.0812852229923430e-03, 1.9191163096491474e-04,
          9.2424646592353926e-03, 3.7704223624003941e-02,
          1.3258869309247410e-02, 1.8528051449170267e-02,
          -2.7602335161500131e-02, -2.3172839435405632e-02,
          -1.7598865576121468e-02, 3.1990940817484950e-02,
          -3.9333503712445485e-03, 3.5459087985319021e-02,
          2.2255581113073349e-02, -1.7499865068938265e-02,
          -3.2265292475397438e-02, 1.9201044188025120e-02,
          -1.6746571518609064e-02, 1.6133906684806115e-02,
          5.3015469896927549e-02, 2.7797915565693720e-02,
          5.4323756801360219e-03, 3.6821036105160770e-02,
          -2.4178650369307037e-03, 3.1164613778750652e-02,
          -1.9587114860987503e-02, 4.2591897800018590e-02,
          -9.3784113137983845e-03, 2.6755952692433679e-02,
          -1.6999389314089997e-02, -4.4675118568284241e-05,
          5.9242284138443435e-03, 4.5883691145792715e-02,
          -2.9263825834752151e-03, 1.6791820821514626e-02,
          2.4104854731333700e-02, 2.6906012651610283e-02,
          -2.4352262367523532e-02, 3.9297878613515878e-02,
          -5.9096788678562627e-02, -6.4738520793483443e-03,
          -1.9793027871328642e-03, -1.3849384269503188e-02,
          -8.1293493586962143e-03, 1.6803871729865881e-02,
          2.7789775979893287e-02, 2.5915794658113076e-03,
          -5.0180209564593778e-02, -5.1673714673783663e-02,
          -2.5025441488824962e-02, 6.3102754363692851e-03,
          -1.2289576199800837e-02, -2.4266579648780109e-02,
          -1.8144003813985104e-02, 2.7946658266341899e-02,
          -3.5188436309820173e-02, 8.3188224533177080e-03,
          2.5403061329713334e-02, -4.7394851207685339e-03,
          -2.5221291704866991e-02, -4.4224988983066045e-02,
          -3.3809570747245776e-02, 1.1037114522978611e-02,
          -5.4120543040054809e-03, 3.3910601506072904e-02,
          2.2189920013797677e-02, -8.6260015949873360e-04,
          -2.7176185605016782e-02, 4.3767392654997954e-02,
          -2.1651662388542683e-02, 6.9286587467485596e-03,
          1.9041647967624233e-02, 1.8194267996960410e-02,
          1.6617087804403453e-02, 2.1836619678096636e-02,
          1.6368315291978030e-02, -2.0014574492801303e-02,
          1.1441711137276551e-02, -2.3908340064739523e-02,
          -2.0776104265742137e-02, -1.2900013544121009e-02,
          7.1783679597401126e-03, 3.3296384155661024e-02,
          -5.8484740304419825e-03, 9.9121682100220491e-03,
          2.8301596641673123e-02, -7.8206349225302466e-03,
          5.3742154559548042e-04, 7.6478789453334178e-03,
          4.7329701903107264e-02, 2.5607535411740330e-02,
          5.1175396945149091e-03, -1.5632883547431808e-02,
          1.4140154406978910e-03, -2.2574446962012440e-02,
          -3.8262252360995716e-02, 1.6454714024639751e-02,
          -4.4787471502575017e-03, 2.1511999195169246e-02,
          -2.7420141364643390e-02, -3.0818167741416238e-02,
          2.6540878744692104e-02, 9.2222383427255986e-03,
          -2.8700651240856120e-02, -2.5633414152382111e-02,
          3.9455303851336681e-03, -9.8318107323131839e-03,
          -1.4103511604801855e-02, -1.1632855479947992e-02,
          1.5071139537190407e-02, 2.9344107430069408e-02,
          -2.7395927769998604e-02, -2.3782813387145652e-02,
          -3.6771431428996255e-02, 8.9269398551278904e-03,
          7.6502897191010133e-03, 1.1904069495707492e-02,
          1.3254595574518668e-02, -3.2504928390282035e-03,
          4.3968827035243248e-02, 1.3947332623711799e-02,
          3.0150037821367322e-02, 4.9226929301715355e-03,
          1.2770820161466641e-02, 3.0017114117782011e-02,
          4.7981206741654582e-03, -3.1011942021581310e-02,
          2.4009061313388189e-02, -2.7303383909179371e-02,
          1.6698425064178848e-03, -3.4674391089725053e-02,
          2.1079792881879368e-02, -1.7327749326682143e-02,
          -1.9714892688144539e-02, 3.0100710455426477e-02,
          -1.7597342272127111e-02, -7.2228633085863105e-03,
          -8.7362259671193883e-03, 1.0645501559273190e-02,
          3.2528838389425781e-02, -2.1436004683658957e-02,
          2.7303138108323636e-02, 3.0333956154948265e-02,
          -2.7679610935807970e-02, 3.5652313464180581e-02,
          -3.5109280180646435e-02, 3.7997713713556841e-02,
          -4.3152284131233445e-03, -3.9735109905805789e-02,
          3.2369965399353565e-02, 2.5031054099188672e-02,
          3.9732195196517127e-02, 3.6931461216826153e-02,
          4.8077736084029946e-02, -1.1684838527205475e-02,
          2.3484702187896125e-02, 1.0683429972287380e-02,
          1.3796221988506573e-02, -2.6964861757178309e-02,
          9.4561162663357456e-03, -5.0106097914846227e-03,
          -1.0732772286226861e-02, -1.9840898983651867e-02,
          1.4733088421519814e-02, 3.7346080900580156e-02,
          5.0277809740569331e-03, -5.0560758087578889e-03,
          1.6948731770663038e-02, 3.6944476717970594e-03,
          -3.2515089055692219e-02, -1.6799717681078994e-02,
          -2.0018944241516012e-02, 1.2886044804582216e-02,
          3.7561651897067062e-03, -1.4903758092073406e-02,
          8.2527513779713617e-03, -2.7636266806733225e-02,
          3.0765465572928145e-02, 3.2378944020694557e-03,
          1.6089983122782904e-03, -3.0229403462572732e-02,
          2.8390902654172840e-02, -7.3305981911041740e-03,
          2.8858700667870878e-02, -1.3806903626939390e-02,
          -6.1150185911420969e-03, 4.0224830779049335e-02,
          2.8474521712145333e-03, -1.8453203467632989e-02,
          2.8525070386514077e-02, -1.2122771768086772e-02,
          -1.8644261944763638e-02, -5.4960423421280387e-02,
          -1.4200259581831309e-02, 1.7968959439873249e-02,
          2.9875466580645819e-02, -3.6689913629174890e-02,
          -2.7653526068773440e-02, 8.4302997152029529e-03,
          2.7239524962306940e-02, -1.0237941841285620e-02,
          1.2051689040459317e-02, 1.3710700310322710e-03,
          -6.2645764549285644e-03, -2.8671149507157205e-02,
          1.5617725633405868e-02, 6.3975119954950435e-02,
          9.4582893200516292e-03, 1.8395046022143236e-03,
          2.3857909664342640e-02, -4.6592601712156382e-03,
          -4.7790364690751090e-02, -3.4650152125915248e-03,
          -6.2190539816970470e-03, -1.6037525107359823e-02,
          3.2395573999367315e-02, -2.4716818234132555e-02,
          2.9552876500058552e-02, 3.7213284352004858e-03,
          -2.8579559783680552e-02, 5.4577114990789238e-02,
          3.3796208336296395e-02, 3.3259201764423278e-03,
          -3.9671825774535353e-02, 4.0375648138191562e-02,
          -2.5932835812931248e-03, -5.0859755488935961e-02,
          2.0501881737182232e-02, -3.0245375809336141e-02,
          -2.4165415043520072e-02, 4.0749911753644195e-02,
          -2.1321371430319130e-02, -3.7104174644133486e-02,
          -2.3067140698091411e-02, 8.5048699159681422e-04,
          -2.5625958338072592e-02, -4.0302697090993794e-03,
          -5.4925187138223287e-02, 8.0912765045392729e-03,
          2.5799728098835479e-02, -6.2118380605536636e-02,
          -3.5330607666158559e-02, 5.5372567910528933e-03,
          -8.6135239827021934e-04, -2.4144947165318679e-02,
          -4.0152209747511880e-02, -3.2510463665515230e-02,
          1.3180510024647544e-02, 3.4908260056499087e-02,
          1.3532253405695447e-02, -8.4871704110062972e-03,
          2.8098646287048356e-03, -2.7670672481517240e-02,
          -1.6112516136443530e-03, 2.3467744873101416e-02,
          -4.8824133882897046e-03, -2.9752343145409227e-02,
          1.3211448418621436e-03, 3.0374509637339953e-02,
          5.3744129319433145e-03, -1.2130622128054864e-02,
          1.6769479052340917e-02, 1.3243012418994575e-02,
          -1.3318906305047172e-02, -1.3039586034430025e-02,
          4.3794509010877107e-02, 3.1567801323552788e-02,
          1.9565593052965954e-02, 1.1559611063291749e-02,
          1.7832687833811024e-02, -2.1408387878373132e-02,
          9.4138347850869029e-03, 2.9305925191672223e-03,
          2.4007068375265783e-02, -2.2306989607942789e-02,
          -3.5608840715076967e-03, -3.6207362786630291e-03,
          3.8716772115044273e-03, -1.0206572127891410e-02,
          -3.2644086141263309e-02, 8.2936320784394689e-03,
          -1.7325028066660832e-02, 3.3707881661261124e-02,
          2.4990795526092995e-02, -2.1190011825829424e-02,
          -5.0882956069004837e-02, -5.0090418342826496e-03,
          1.0857560986147319e-02, -1.9049288886639246e-02,
          -1.3690052461506168e-02, -3.6651606074827099e-02,
          -7.8842048524410159e-03, -4.0666372355927988e-02,
          3.0517195731541144e-02, -4.7852362905570879e-03,
          2.9785323166739583e-02, -2.7798007166859914e-02,
          -4.4249644113759493e-02, 4.3877304325640583e-02,
          1.6015937055960904e-02, 5.1241674485224098e-02,
          -4.0994583204502728e-02, 3.3246680879064731e-02,
          -3.9250043353854201e-02, 6.4835908372686633e-03,
          1.0962082842757835e-02, 4.6366138123681280e-03,
          -4.0915910449212299e-02, 1.1728492471064866e-03,
          -1.2779179254950066e-02, 6.8818813238247425e-03,
          -4.3295953827337724e-02, -9.3083220932894690e-05,
          1.1539102940317656e-02, -2.2822759506247171e-02,
          1.2741450616758684e-02, 1.1013810835036306e-02,
          3.4095026690283796e-02, -1.9805088239360200e-02,
          1.2259122209982829e-02, -1.2410411481885233e-02,
          -7.9147614445294594e-03, 2.4752457423094960e-03,
          -1.2219517749844663e-02, 4.2156050963119931e-02,
          6.3276196256692148e-03, -8.1104862754801197e-03,
          -1.1349571005392321e-02, 2.4231051921277707e-02,
          2.3480211538891411e-02, 5.3479010158752172e-02,
          2.9352620296466101e-02, 5.9932442317986723e-02,
          -1.2730373337491146e-02, 4.8413081276779069e-02,
          4.2543548883773666e-02, 3.8497593113172900e-03,
          -3.5495411735275338e-02, 1.9452859396637320e-02,
          -5.7660008489064532e-03, 3.7249305875762327e-02,
          -1.0566698395336208e-02, 2.0143726607468253e-02,
          9.3579253538460961e-03, 2.2363544753124527e-02,
          -3.7314486979240079e-02, 5.8434113717849788e-04,
          2.7687955085297134e-02, 2.4775096316532682e-02,
          -2.5048920547604283e-03, -9.1055306378350753e-03,
          -3.3013518847593862e-02, 3.4312920742064920e-02,
          -5.3774043916687858e-02, -3.1373098775690091e-02,
          1.0637344359222796e-02, -1.9270796807487684e-02,
          2.6761593214951747e-03, -4.0420237075307258e-02,
          4.5876984542762803e-02, -2.7830482151772792e-02,
          1.9538670522911160e-02, 6.5074707273159891e-03,
          -9.0487494280656229e-03, -4.8959228415450889e-02,
          -4.2560022436538116e-03, 2.1216199767875678e-02,
          5.4473985030779305e-02, 8.8509967873845810e-03,
          5.0111335696131812e-02, 6.2264723028132712e-03,
          -2.5253207726138056e-02, 2.2338571227595520e-02,
          -1.0920571801545226e-02, -3.7152966229513161e-02,
          3.7106562689649888e-03, -2.7975635858534440e-02,
          -1.8258066624283326e-02, 7.1879750983608489e-04,
          1.8501550897690733e-02, 4.1228533271248272e-02,
          2.5827845375140310e-02, 8.8360093166858934e-03,
          3.2567672650528810e-02, -3.7686831231770394e-03,
          -4.3661204990523381e-02, -8.1144134558964395e-03,
          -7.0060463087943435e-03, 2.2754794172533777e-02,
          5.6698972954085797e-03, -3.8123016322326828e-02,
          -1.5835187156027720e-03, -2.7006411043710030e-02,
          -1.7774551487843897e-02, -3.7932337076703515e-02,
          3.2553723616493974e-02, -2.4003991112714583e-03,
          3.0207084190766013e-02, 5.6178472727898424e-03,
          -1.1132670935934190e-02, 1.8544959203941558e-02,
          3.4137524014894081e-02, -4.4791743678521991e-02,
          -6.7151922040951757e-03, -2.1378909301606023e-02,
          1.6157258742429025e-02, -5.8910224603623525e-05,
          -2.7865760040046213e-02, -6.7797920629297168e-03,
          3.3336151154894175e-02, -1.9338919606738312e-02,
          -1.7175848440638720e-02, -5.5855959106950737e-03,
          8.4128112752291490e-04, 1.6952841175782954e-02,
          -3.2024866068005475e-02, -2.0155011821159346e-02,
          1.8590464715670728e-03, 6.4432200507147427e-03,
          2.3398521189575992e-02, -2.5942181767809960e-02,
          -3.1817067742616723e-02, 3.2123528324992791e-03,
          4.1382771119389115e-02, 1.7167376614767811e-02,
          -1.7434731619066696e-02, -7.6911383276570388e-03,
          -1.2273082950307056e-02, 1.4453495774639599e-02,
          -1.2990636978334870e-02, 2.7309392047807045e-02,
          -3.2558644584697290e-03, -1.2254772694461591e-02,
          3.8775181528210418e-04, -4.4551209517359018e-02,
          1.0160162174568083e-02, 1.0257852435297175e-02,
          1.5278854263354460e-03, 1.4835452623596451e-02,
          3.9885801878854724e-02, 2.3620468858845885e-02,
          -1.6776433273065078e-02, -2.5909540691188324e-02,
          7.7944703365111765e-04, 2.5037654423965407e-03,
          1.9596529373921395e-02, -2.0157966007857832e-02,
          5.8325009634277300e-03, 2.9482102568520545e-03,
          9.5652598199581218e-03, -6.4039430265602423e-02,
          1.3402926381304369e-02, 1.2439919601206146e-02,
          1.0488102048334809e-02, -4.2080699313712083e-02,
          1.4908738319266422e-02, -5.0433268313138782e-02,
          1.5939745239439460e-02, 2.2710388112721002e-03,
          -2.9948139192080080e-02, 4.3628733570122667e-02,
          -1.1453995623998181e-02, 3.0328227125580006e-03,
          -1.4077045339036210e-03, 1.7419187510873237e-03,
          2.3037173398569699e-02, -1.4422289762087993e-02,
          -1.5896040763933087e-02, -5.5518132668633648e-04,
          -1.6623994169592236e-02, -1.4895939122081749e-03,
          2.0674181112591561e-02, -1.2871845744618689e-02,
          -3.1550433254603417e-02, -4.9525058485084478e-03,
          1.0640044814999857e-02, -7.3265211558851658e-03,
          -2.0660254348492790e-02, 4.1835157510898571e-02,
          -1.5005456630820722e-02, 7.5451872034147790e-04,
          -3.5742191950413425e-03, -2.0031023063749185e-02,
          -1.6552408607463005e-02, 1.8975914930035719e-02,
          7.6442985137544894e-03, 3.4457459804753544e-02,
          1.0451122491876306e-02, -1.4412922141032727e-02,
          2.4002680834388473e-02, 3.4875768741713456e-02,
          -8.0901304165840165e-03, -2.6654956043717470e-03,
          -2.4304873461320257e-03, -3.1470467870678878e-02,
          5.3121680590156130e-02, 6.3791326062097526e-03,
          -2.4983534121249429e-02, -1.2939468200738481e-02,
          3.0516522564704676e-02, 2.7964012150729484e-02,
          2.0844990435179383e-02, -1.6960619854189510e-02,
          1.7243473505832049e-02, 2.8070999023002908e-02,
          -3.5896841437190900e-02, -1.6252862892059041e-02,
          -6.1416458717019382e-02, -3.6170765808504486e-02,
          -1.7145425571652464e-02, 2.6142475018814147e-02,
          -1.1344502486832855e-02, 2.3836418883897915e-02,
          -5.1535175930429089e-03, -6.1976923997170912e-02,
          3.4795925262756468e-02, 2.3018749707700840e-02,
          -5.6193889205746840e-02, -7.4737305443224634e-03,
          1.2930445074797424e-02, 1.4358567993448028e-02,
          1.8991065623517978e-02, -3.1119705520100974e-02,
          1.3566533858866865e-02, 3.0183607102257880e-02,
          6.9233162831932801e-02, 1.2500637511472642e-02,
          -1.8701590922073422e-02, 3.0202906891796479e-02,
          -2.3532797284571565e-02, 3.6452062259372787e-02,
          -3.5763058593507785e-02, -2.9458350318349237e-02,
          4.2070326163510641e-02, 7.7766283861553593e-03,
          4.0576721721031606e-02, -3.8261594818701866e-02,
          -8.7313491656734535e-03, 3.5477090197334381e-02,
          9.9414943156171613e-03, 2.9577101729832449e-02,
          -2.2042264039976802e-02, 1.6951575812516433e-02,
          -1.7502443466131619e-02, 2.1885388475143919e-02,
          3.0245390487159854e-03, -4.2997164225179331e-02,
          -2.1658515296542332e-02, 2.5108826211317953e-02,
          -6.1025652923117485e-03, 3.0732090831430171e-02,
          4.0243909525347225e-02, -5.9152808001312146e-02,
          2.1940557747626602e-02, 1.3222210337145390e-02,
          -1.8003511082471887e-02, 1.2098963486652316e-02,
          1.5648085349680176e-02, 2.1700214484602902e-02,
          8.3845134253320442e-04, -3.1026732599583471e-02,
          -5.9160052905427344e-04, 2.9886813123846359e-03,
          -2.9518365067002495e-02, 2.9656924458199101e-02,
          -4.6063400958735595e-02, 2.4225742569558593e-02,
          -3.1771181398484276e-02, 2.0253805508976031e-02,
          1.0903320434451627e-02, 1.9223771109055588e-02,
          -2.6679731608942818e-02, 6.1153482558216924e-03,
          3.8282511874519705e-02, 2.7665801015456140e-02,
          -6.8126446649572651e-03, 4.1246693825062734e-02,
          2.8685868378096443e-02, 1.7192383541593047e-02,
          -1.3441478413092215e-02, 5.2767277621709401e-02,
          5.6527122848247090e-02, -3.0387881146564807e-02,
          2.0903817334600033e-02, -2.9872465717135980e-02,
          8.1773008633152320e-03, -2.1160812940786205e-03,
          -6.9486433586416632e-03, 2.4810999307280548e-02,
          4.2860998741236646e-02, 2.5638216989283268e-02,
          -2.5815136758035352e-02, 4.9087629609028342e-02,
          -4.1684648435258926e-03, 2.7293912252841609e-02,
          -2.6606169661721212e-02, 3.0258698769715833e-02,
          5.8076091465896059e-03, -8.0975777323117574e-04,
          -1.3095536439669245e-02, 1.9464019511275441e-03,
          -3.8326974767394793e-02, 1.2862811026727129e-02,
          -1.1502783966699024e-02, -1.2771343394683584e-02,
          1.7366073063583596e-02, -4.9901531079059973e-03,
          6.5892849291312502e-03, -7.3975318565822146e-03,
          -4.5929956146094617e-02, -2.6834552078065867e-02,
          -2.8622205120047650e-02, 2.2370383550543663e-02,
          -9.6027646976261649e-03, 1.1583812544155074e-02,
          -1.7462990288714074e-03, 2.9223938879946315e-02,
          -8.5404847667639866e-03, -3.1201201547230824e-02,
          6.7866909121863253e-03, 3.5530907676068285e-02,
          1.1328039663958100e-02, -2.8247441524226868e-02,
          5.0437014429294019e-02, -1.3040982701180836e-03,
          -3.1348041473860840e-02, -2.9493955011151481e-02,
          -2.2911512119027167e-03, 9.2858139257830201e-03,
          5.0215291766072805e-02, -6.8924294863872051e-03,
          2.9384236835721469e-02, 2.0564319722282131e-02,
          2.9228953596187063e-02, 3.8445654031865568e-02,
          -3.6528703050137806e-02, -1.7153786974568922e-03,
          2.8339952022322201e-02, 2.2115578595679097e-02,
          -2.6430804903174950e-02, 1.2927852515894275e-02,
          -3.4528332782194679e-02, 2.6663694384903576e-02,
          -1.7251321123920405e-02, 6.0871155585328889e-03,
          -4.6210984204472984e-02, 2.1089446414118536e-02,
          7.0817349242206845e-03, -2.1089128603592323e-03,
          1.1612815415785115e-02, -5.3921790360501917e-02,
          -2.3799102643057960e-02, 2.1410440820680058e-02,
          -3.8218766234619166e-02, -4.3438244875051414e-02,
          -9.8296682212125931e-03, 1.8624490911896864e-02,
          2.7250398635872735e-02, 8.6208197107852814e-03,
          3.0592932696815102e-02, -9.4000189271414222e-03,
          -1.4291373898701397e-03, -8.3853182176016842e-03,
          1.6618474178258936e-03, 3.7029543119959693e-02,
          2.0051385261857291e-02, 2.3591717683166109e-02,
          1.6054400126866552e-02, 1.2958404770198065e-02,
          -2.9389261829143847e-02, 3.6261627636277396e-02,
          6.6324979748042011e-03, 1.8071276018296521e-02,
          -2.2896348794951941e-02, 4.2054499722528442e-02,
          -1.4751237746957403e-02, 1.1044008261326056e-02,
          -6.3046738523552795e-03, 1.3414348407185270e-03,
          -3.9852421648817270e-02, -1.4484392928548459e-02,
          -1.4752697282188573e-02, -5.4901311717572843e-02,
          3.2106526004841630e-02, -6.7511908501860706e-03,
          1.1463634900657825e-02, -2.7093174942966130e-02,
          -2.4606511113073718e-02, -5.9078835801174854e-03,
          -1.2258808877078109e-02, -1.4618858672231180e-03,
          3.1637375215397168e-02, -2.0224076214819541e-02,
          1.3943535353740608e-02, -1.8761813845847488e-03,
          4.6020644803198424e-02, 9.1070262570156803e-03,
          -1.1445150381380213e-02, 3.6624917741437120e-02,
          -7.2038903637261814e-02, 4.0953755209234791e-02,
          -2.3303987829677388e-03, 4.2822430421927266e-02,
          2.2629341343999784e-02, 2.3839294297803376e-02,
          -3.8299663978019372e-02, -7.1916558742560529e-03,
          -2.4974897417035704e-02, -1.1210942942812269e-02,
          1.8597445476562745e-02, 2.3314073792728703e-02,
          -3.2757946423614091e-02, -1.1140497314450671e-02,
          -3.6866955523761916e-02, -1.6130091693577431e-02,
          -5.1255673613486326e-02, -7.8213644181520802e-04,
          -1.1697228273767882e-02, 1.3593854851941626e-02,
          2.0282042478481106e-02, 1.8424013072585229e-02,
          -1.2309731698668001e-02, 3.3953192987591703e-02,
          -1.9022407530382004e-02, 4.6605155221321644e-03,
          -2.9636352967137417e-02, 1.4576766199760978e-02,
          5.0172317915617048e-02, 1.8610380450706100e-02,
          -1.5645728696901284e-02, 3.1225643484208660e-02,
          3.7390066292708315e-02, -2.7053077929404042e-02,
          1.9641868690251137e-02, -7.4924629593153278e-03,
          1.2041850221648255e-03, -4.1229103909541820e-02,
          -5.0257332364616776e-03, 4.1476129997077255e-02,
          -8.3361536515658349e-03, 1.1645965292437109e-02,
          -4.3277485074441346e-03, 2.7525452122340369e-02,
          -6.7412639991977885e-02, 1.3464665135360513e-02,
          1.4323496740081475e-02, -3.1177516397305882e-02,
          -2.8796187584623476e-03, -2.4203046066547478e-02,
          -8.6207606225332523e-03, -4.1124856794514407e-02,
          -1.1208157001985939e-02, -1.2284545570068328e-02,
          2.5801579186494473e-03, -3.7049098161339937e-02,
          -2.6284739733485635e-02, 8.4203912776157838e-03,
          -5.2343707394940459e-02, 1.9621296725057988e-03,
          3.2447516738552834e-03, 1.6420813267743282e-02,
          -4.9385485915697637e-03, -1.4315110622613028e-02,
          -1.0564745014383916e-02, 2.6175208558761522e-02,
          -5.5608927035710166e-02, -3.0750445119156046e-04,
          -2.5487634998890745e-03, 5.0800934291280055e-02,
          -1.7419690771101448e-02, -2.6814440132958837e-02,
          1.3048143360176210e-02, -8.5234688313737417e-03,
          3.1054098962273177e-02, 1.7068325916148883e-03,
          -2.1180236684956482e-02, 5.4929262549904901e-03,
          1.6193374517763183e-02, 3.3517638403429938e-02,
          5.0005075634122022e-02, 4.7232497296969156e-02,
          -8.1046420692228501e-03, -1.4256430122251416e-02,
          -4.3349819687525708e-02, 3.3833552122824746e-02,
          -1.6521503911797519e-02, -1.2126712510873376e-02,
          -3.0266121228129047e-02, -4.9325871385360312e-03,
          4.7601685130602891e-03, 9.3518932388205987e-03,
          3.6183344177771776e-02, 1.9571442723031740e-03,
          3.0006161553437084e-02, -1.6172712335830470e-02,
          1.9205323291120738e-02, -2.9659816055360024e-02,
          1.2169354225017444e-02, 3.1070314728598034e-02,
          2.0449309234468457e-02, 1.7373572849037216e-02,
          3.1661191011685519e-02, -4.3986123660530264e-02,
          -1.0282817783686998e-03, -1.7665086390810429e-02,
          -1.4750513617582721e-02, 2.5527840028417410e-02,
          1.6516571316771856e-03, -3.5091953128649767e-02,
          -3.6296156370501362e-02, 2.7757314824800067e-02,
          4.4497054754796969e-02, -3.0442221199131352e-02,
          2.8727445867438261e-02, 1.2716662355252673e-02,
          -5.1810521779508692e-02, -2.2470806669190733e-02,
          -3.8098520281132052e-02, -1.4153061868899988e-02,
          -6.5262637310927957e-03, -1.3829900335982241e-02,
          -3.3431628262410036e-02, 1.3265833781305150e-02,
          9.9905312142643983e-04, 2.5558901936648219e-02,
          -2.1304246112917834e-02, 2.2236054670639341e-02,
          1.7056815358998327e-02, -8.9638428052252351e-03,
          9.2038263972864659e-03, -4.9253401670460066e-03,
          -9.4208145206390453e-03, 3.4823087632829368e-02,
          -1.6931325867022312e-02, -3.5720527231925575e-03,
          -5.3734100118866701e-02, -1.2433899134739529e-02,
          2.7755224912729713e-02, 7.1196540774263800e-03,
          -1.0114639405412944e-02, 8.9781606172699077e-03,
          5.1085286507261567e-02, -5.3043565181240902e-03,
          1.3765853223163340e-02, 1.7642882981408099e-02,
          4.2112440364126660e-02, 3.7036694828369521e-02,
          -6.4556600326916951e-03, -4.7706218528694153e-02,
          1.7883975212834531e-02, -1.7063337871710913e-02,
          -1.9856790135718252e-02, -3.2615553763035481e-02,
          -2.6829055051250293e-02, 5.9747986267701860e-03,
          -2.2403882540989028e-02, 3.1981291323845466e-02,
          -4.1518343751115273e-02, -6.0633484421309884e-02,
          7.4246296806265589e-03, -1.7826913796231036e-02,
          1.1889938956566317e-03, -1.5726529591762725e-02,
          6.3151643947166420e-03, 1.9075117008690072e-02,
          1.8350251497064443e-02, 1.2618909500541838e-04,
          -2.5891598848613841e-02, 2.9964580323209897e-03,
          -3.7913227016464941e-02, -6.4882046761313809e-03,
          7.9682062388619773e-03, 2.1270851540043843e-02,
          2.9012597363882051e-02, -1.4207082005316415e-02,
          -1.9091905401972249e-03, -5.8554350492549482e-03,
          -4.2140964762025111e-03, -2.7667728204707254e-02,
          -7.3143586654872642e-03, 5.3932317241606402e-02,
          2.2961925808747785e-02, -1.2235523677347553e-02,
          -2.5484940236912727e-02, -2.1228424860239285e-02,
          3.2322656528691193e-02, 3.8455803250782482e-02,
          -2.8866078118507030e-02, -4.6614423376435801e-02,
          3.3013576548613373e-02, 1.3395817047096144e-02,
          2.5986284963650273e-02, -9.0369815259801235e-03,
          -3.4465451390519618e-02, -1.8400544409375927e-02,
          4.9040822598747195e-02, -3.4754462419744228e-03,
          -6.3655254233672123e-03, -5.7250311092949223e-03,
          -1.0552541435594589e-02, 5.3006602739276154e-03,
          2.1525228416566792e-02, 1.1411804218572357e-02,
          2.5138128628405837e-02, 2.9057573246175319e-02,
          2.9291904292677060e-02, -6.2366814695101252e-03,
          -4.1620632346435878e-02, 2.3601690044208645e-02,
          2.1195038371854796e-02, -5.3109729316611325e-03,
          -5.5636810108541414e-03, 1.2216323542330055e-02,
          2.8706740231827180e-02, -1.0901488604364785e-02,
          -3.1988650221508624e-02, -9.1609791667554633e-03,
          -4.3472707210556044e-02, 1.6663642119968593e-02,
          -1.9777015180560572e-02, 2.6103250232301586e-02,
          -3.7470653604367410e-02, -4.2109226213792407e-02,
          -7.2674693408871279e-03, 2.9259040822316066e-02,
          2.8831692019437548e-02, -2.5556751789236262e-02,
          -3.5773946205651545e-02, -2.2129125150989280e-02,
          1.9796699132375320e-02, 2.9851562129217346e-03,
          -2.6263224668368813e-02, -7.4898322691350902e-03,
          -3.4876181816442572e-02, 1.3932978186960052e-02,
          -2.7241929982330527e-02, 1.1690334407663171e-02,
          -3.2615755872465235e-02, 6.9957018864524236e-03,
          -1.7576695381843383e-02, 8.5149891093136316e-03,
          -3.3321101381287942e-04, 1.3797946921011033e-02,
          7.1467366615916069e-03, -1.1198268584847328e-02,
          3.5876688724003888e-02, 8.1442213040872381e-03,
          -2.6886087281910331e-02, -2.6846856671643302e-02,
          2.4573743897589557e-02, -7.9551180428638207e-03,
          -5.5682250006367784e-02, -6.1188507336531431e-02,
          4.7483781397404279e-02, -3.9062463463168919e-02,
          -3.0256532690053167e-02, 2.0164256860290965e-02,
          2.5075885634658054e-02, -6.9386854633324956e-03,
          3.6111156171853153e-03, 3.7888138347113394e-04,
          -4.3218158566149419e-03, 1.2633664091209274e-02,
          -1.8497487032875806e-02, 4.5588579361826075e-03,
          -1.6412483200284474e-03, 7.9524509809617127e-03,
          -1.1329192359990003e-02, -3.3676685002002821e-03,
          -2.4967996176876183e-02, 4.7681990500384420e-03,
          4.4787491885729003e-02, -7.7920010749658146e-03,
          5.0610014563573467e-02, -1.5857951397773150e-02,
          1.1309393411850109e-02, 4.3820518528476786e-02,
          1.9539153296029867e-02, 2.6070944763432535e-02,
          -3.8661551791284034e-02, -3.3954037920128867e-03,
          -2.2443883379705890e-02, -6.7052104335975750e-03,
          -2.1894539484814363e-02, -1.6031970470568750e-02,
          2.8756879619602490e-02, 2.2054883442924302e-02,
          -2.7229962974943490e-02, -6.8470096764446688e-03,
          1.1479775689407945e-02, -1.0324746238203574e-02,
          -2.8273568117696095e-03, -1.3088285639057279e-02,
          -3.6702519358831572e-02, 5.7175266685470507e-03,
          -6.4033191087052412e-03, -3.9321290261071305e-02,
          4.0883249772016399e-02, 2.0027449980173050e-02,
          3.3093709678609001e-02, 5.8753874230970931e-03,
          3.0164503209825669e-03, -1.5290882222144930e-02,
          2.5403442305531865e-02, -4.1229841367341577e-02,
          2.4561441568768952e-02, -1.5887202194406948e-02,
          -1.3422541598135411e-02, 3.1301973085896481e-02,
          3.3078942141441130e-02, 3.6016545836183807e-02,
          1.9819241964829450e-02, 8.5877056571247307e-03,
          -6.2103001384165579e-02, 1.1384483226739895e-02,
          5.7950449763841316e-03, -3.6964885918667152e-02,
          -4.2600682435584118e-02, 5.1780628262608132e-02,
          -1.9615926533041495e-02, 3.8066250481671171e-02,
          4.0164056062419851e-02, -2.2411377576755171e-02,
          -3.1917067730031307e-02, 3.1833246903376411e-02,
          -3.2908936286022719e-02, -3.8662363914968641e-02,
          -4.1698301665253883e-03, -2.5811675133215344e-02,
          -2.2280855878862906e-05, -3.9025707975609711e-02,
          -3.4640148819196859e-02, 1.6491257507081226e-02,
          3.0213562035379497e-02, -3.9812393534271177e-02,
          -9.0421709386904452e-03, 2.8598525431279841e-02,
          3.2499836667159400e-03, -3.2949785990391896e-02,
          -5.0192928152070476e-03, -9.7356124351536157e-03,
          -1.4574828795426988e-02, 1.4200433557561084e-02,
          1.1788683161038259e-02, 1.3515498818817263e-02,
          -5.2043265273765571e-02, 1.9557570816394233e-03,
          -2.6916165388910437e-02, -1.1117861377585693e-02,
          3.5154040826127796e-02, -3.3906215830408357e-02,
          -4.2000168178553503e-02, 3.5885378220539652e-02,
          1.6291449802105801e-02, 1.9338513140730949e-02,
          -5.0373937501244958e-03, -4.8466537809198013e-03,
          1.1682137361056564e-03, -2.0315470938323772e-02,
          1.4370485285925971e-02, -5.5170138097314088e-02,
          1.6839518004790638e-02, 3.1126436090915935e-02,
          -4.1895084703459005e-02, 1.3769066806550644e-02,
          3.8261664085425195e-02, -3.3247895241203543e-02,
          3.4391787112217936e-02, 3.4176842995531212e-02,
          2.5683453859461754e-02, 1.8109790419513917e-02,
          -2.2722461492318432e-02, 1.8602810582005049e-02,
          -2.5860381828068018e-04, -2.1277309557198375e-02,
          7.1329238707709911e-03, -9.7031704085399090e-03,
          -2.5968966316352812e-02, -1.1112645972215507e-02,
          1.4645576912261329e-02, 3.0266537599335099e-02,
          -3.6017666239935811e-02, -3.3985127202773927e-02,
          1.2202450992634655e-02, -2.3201577994241624e-02,
          4.9510427319769755e-02, -6.0962836853338809e-03,
          3.2094642870487064e-02, -3.6156893149959610e-02,
          2.4819478617707967e-02, 2.1096910362614602e-02,
          2.0890404727670682e-02, -1.6617619255967456e-02,
          1.5338993943938310e-02, -4.5934359488938668e-02,
          -9.8470066447087744e-03, 1.9631491367069397e-02,
          -3.4838007071217703e-02, -2.7178118230509425e-02,
          2.5364243574738470e-02, -8.6252159126045960e-02,
          -4.9599368053646203e-02, 2.3562051487344887e-02,
          -4.6962461377790116e-02, 2.1324134408651628e-02,
          6.6281761475963114e-03, 4.2724831779314291e-02,
          5.3656837588726908e-03, 1.8618966742436637e-02,
          -1.8203381612282549e-02, 3.6128677213236003e-02,
          3.5038456380252533e-02, -3.8079917041829621e-02,
          5.0373106577721760e-02, -2.5422088693771321e-02,
          -3.0058373082034987e-03, -1.7051731268375534e-02,
          -5.5258952525484581e-03, -1.0752506449982650e-02,
          2.2384687587529303e-02, -9.7100869934364526e-03,
          -1.1456923136564193e-02, 4.1446839813473586e-02,
          2.8452363995102207e-02, 2.7634259323689202e-02,
          4.5003018547031363e-02, 3.3750244439971301e-02,
          2.8092284171238824e-02, 3.1039415239042727e-02,
          -1.2365761781667109e-02, 1.9885204200117677e-03,
          -9.0356788320699842e-03, 1.9516728789676099e-02,
          -3.4703459881510537e-02, -8.5691619375128820e-03,
          3.9057293841687594e-02, 4.6734316648011233e-02,
          2.9580371219526252e-02, 2.0206851221231765e-03,
          -8.3256469722000910e-04, -3.5311449786458622e-02,
          8.0831115949220947e-03, 2.5448145245026383e-02,
          -2.7942799801147465e-02, 4.5070369149942308e-02,
          -1.1788696692056127e-02, 1.9372986249816825e-02,
          -2.3678845629210882e-02, 2.7561723484604998e-02,
          -9.8491891374595780e-03, -7.8266151522971613e-03,
          1.2181099871798077e-03, -2.5448383759887660e-03,
          4.9036960256444287e-02, 2.3703876240374840e-02,
          1.6415860648630862e-02, 3.0455912812285019e-02,
          -2.5365833238893538e-02, 3.2705875338922108e-02,
          3.3593909957076194e-02, 5.8461153506575575e-02,
          -3.3916969210478473e-02, 3.2609996765430105e-03,
          -1.4228175724850651e-02, -1.0706403639274130e-02,
          5.8696257265707151e-04, -2.6415046994332086e-02,
          -5.1977564129938265e-02, 2.9640399453533185e-02,
          2.0933737729543631e-02, 4.1002353605679623e-02,
          9.6764517765190357e-03, -1.9933831726690436e-02,
          -1.5047676304609339e-02, -1.2622466344611260e-02,
          -3.5759180087925078e-02, 1.1905732383003882e-03,
          2.5076524216358694e-02, -3.0095601982552136e-03,
          2.0373036643759137e-02, 1.2264185891606619e-02,
          -2.0163518783134961e-02, -7.0310277290411647e-03,
          -1.4830184899336518e-03, 2.2514141206555344e-02,
          7.8252958108101563e-03, 5.9541774181927597e-03,
          2.1051767738288207e-02, 3.4012179991007363e-02,
          -4.8018077574075314e-02, 4.3869451793676191e-02,
          -3.9156129923280998e-02, -3.1021542842203063e-03,
          -2.5029290144316402e-02, -1.4422122071901486e-02,
          2.1941185323933951e-02, -3.1188453045686102e-02,
          -5.8414717105824639e-02, 2.3798097412169907e-02,
          6.5892727459806628e-03, -2.6322549476703060e-03,
          -7.1671982498146235e-03, -3.5258696438869633e-03,
          -1.3323463934955069e-02, 2.9602649773391831e-02,
          -7.8131039927396614e-03, 2.9484999939603487e-02,
          5.7490533361017632e-03, -3.2002362534482041e-02,
          -5.1746455979884642e-02, -1.1415931979369895e-02,
          2.2726387850834844e-02, -1.7416514092433468e-03,
          1.2753391292178160e-03, 1.5286472573435161e-02,
          5.5591900045836558e-03, 6.9264903747970619e-03,
          4.0493517198664973e-02, -6.1564434389737850e-04,
          -3.8388025895145672e-02, -4.3476004073771557e-02,
          -1.4371587095416006e-03, -1.5447295551001650e-02,
          2.7397337531487150e-02, 1.9038669736167017e-02,
          4.5312681479596238e-02, 1.7299427669720882e-02,
          -8.2772550214897100e-03, 2.7364195555351089e-02,
          2.2071682370428607e-02, 4.6267120441717477e-02,
          1.6072433861983756e-02, 1.0916905046015515e-02,
          -5.6372111234006990e-03, 3.4770610515991805e-02,
          2.2201271021947109e-02, 1.2806406018662156e-02,
          2.2584889867389157e-02, -1.6125325804515346e-03,
          5.1682079578568192e-03, 2.2414099199071932e-02,
          -7.5617410284412280e-03, 3.6170510020887996e-02,
          2.0076667040230405e-02, -8.5562653555275679e-03,
          -2.1094588345365567e-02, 1.5265324359324111e-02,
          -5.2159681756585932e-03, 3.2713522430062134e-02,
          2.0113626981196266e-02, 4.2180837852230230e-02,
          -5.9922000207280526e-03, -2.2861885762278752e-02,
          -2.2025548160435303e-02, 1.1219174256242210e-03,
          -9.4498929486120931e-03, 4.1449795653624799e-03,
          6.2634911066052849e-03, -1.0683483956006530e-02,
          -3.5777431666195554e-03, -1.1620548869604772e-02,
          1.0989252651768757e-02, -4.0729692221399896e-02,
          -1.0963094675951213e-02, 1.1147585590341930e-02,
          -2.2421630713575540e-02, 3.7041594985214511e-02,
          -1.4856240656734594e-03, 3.3495281630903886e-02,
          -1.3784059722145135e-02, -4.2246990383001823e-02,
          -2.5014475948835414e-02, 1.5339722180560180e-02,
          3.7480784511944837e-02, 2.6846746165954144e-02,
          1.2105966873431524e-02, 1.5489259393552586e-02,
          1.5802574077690867e-02, 1.8131524406716323e-02,
          1.4856243633500054e-02, 2.7136181449479730e-02,
          -1.9744255193274159e-02, 1.3260162006728209e-02,
          -1.2572709108224675e-02, -6.2270857896451412e-03,
          5.0672832408074693e-02, -2.1953363380621165e-03,
          -4.0853640651025286e-02, -1.5495220946754118e-02,
          3.6420424426234797e-02, 1.8721810458643861e-02,
          1.6692104263102706e-02, 1.4137885755853558e-02,
          -3.3927065128636240e-02, 2.6267426805926263e-02,
          1.0988291207334607e-02, -1.5821794383108769e-04,
          -2.4382243579675880e-03, -6.1924848246854734e-03,
          -1.7647414060234221e-03, -2.5774433492625645e-02,
          -5.9604498651271341e-02, 3.1243088713369199e-02,
          5.4001212894683242e-03, 2.6279090562047545e-02,
          -1.4529074713282009e-03, -2.1098803541650397e-02,
          1.9394099620229685e-02, 4.4132973231734769e-02,
          1.2745201372932646e-02, 2.0656834527269328e-02,
          2.3036643028579904e-03, 1.9114930405622595e-03,
          2.8214479794132406e-02, -8.2526337211459369e-03,
          1.8196793656869085e-03, -1.5231669644494156e-03,
          3.4185632522984359e-03, 1.7875124052055113e-02,
          -2.2777131577271306e-02, -3.7075944942766260e-02,
          -7.4048309628357576e-03, 1.7871515137150983e-02,
          -1.3680341628627345e-02, -2.5936843630444604e-02,
          -1.3373331280259729e-02, -3.7100262208185721e-02,
          1.2503461154356237e-02, -5.6603114182904035e-03,
          -1.8296418121094861e-03, -9.0335796784309433e-03,
          -3.1490593217998655e-03, 2.0646496700424215e-02,
          -1.5139984285253358e-02, -2.3922342028838844e-02,
          2.8281340541135461e-02, -2.7657516835651819e-02,
          1.5481760656837512e-02, 3.9746469101006390e-02,
          3.4011670193278221e-02, 1.9028167033450615e-03,
          1.9990393896585863e-02, -1.4848342211866134e-02,
          3.3602768962414799e-02, -4.0829472059449749e-02,
          -1.4511844428031533e-02, -8.6974599225269917e-03,
          -4.0525999750834457e-02, -2.0414033521127545e-03,
          -3.3521524156955682e-02, -2.7024661226630681e-02,
          1.4416966760116912e-02, -2.9408766298308256e-02,
          -3.6894554086190558e-02, -4.1460100949640484e-02,
          5.0283719776236913e-02, -7.1719012488240140e-03,
          -3.0181185375480046e-02, 1.5422868794588330e-04,
          -4.2112503426202735e-02, 5.0871612595691585e-03,
          4.8389980075598700e-03, -3.3846812536914316e-02,
          -3.5920102940297793e-02, 2.5064831900900850e-02,
          -6.1893484128930738e-03, -4.3699669794282699e-02,
          1.5266900602655868e-02, 2.7004015454086084e-02,
          -3.3942885301255679e-02, 3.1564783019779413e-02,
          7.7548209850245402e-03, 1.1691323072562761e-02,
          -8.6981670663751297e-04, 3.1842080039892397e-02,
          -5.0437822740850855e-03, -7.4134078878909425e-03,
          -3.7487354871223403e-03, 2.3234325816549892e-03,
          3.6989799062847055e-03, 1.1259393649616943e-02,
          4.4568961373875740e-02, 4.7796150273994434e-02,
          3.2630841901952500e-02, 5.9458518259702681e-03,
          -4.2985324427338774e-02, -4.5916977363477364e-02,
          -2.9332412564533568e-02, -1.2882634730840514e-02,
          -1.5743155600139121e-02, -2.7537500672491375e-02,
          -1.9830707177674888e-02, 6.0336499559792891e-03,
          -9.4378008490676180e-03, 1.6613535686394971e-02,
          -3.2490300128118627e-03, 1.3503166792888970e-02,
          -1.3395049456712408e-02, -4.4683072286022689e-02,
          9.2286403444926399e-04, 2.1799537811933157e-02,
          -2.4050222409675460e-02, -1.3878246479144041e-02,
          -2.4599903074329032e-02, -1.2705423754662515e-02,
          2.1549224036212757e-02, 6.8479641354551287e-03,
          1.7598947103588052e-02, 8.9440133253000029e-03,
          -4.5944704024761867e-03, 5.6179790334135562e-03,
          1.8597579451407699e-02, -2.6718375918458246e-02,
          2.0105845712031351e-02, -1.5331527591264776e-02,
          6.2069910990246177e-03, -3.1474299202146386e-03,
          1.1217407015458996e-02, 9.1459843456713410e-04,
          -1.1922009494288635e-02, 1.4304910044156582e-02,
          1.4969712788697423e-02, -2.6110178618151406e-02,
          1.6556335438943611e-03, -5.2476605850465255e-03,
          1.1612814450418197e-03, 4.3134446639775991e-03,
          -3.8952692436978712e-03, 8.0932375587299717e-03,
          3.2211423252765312e-02, -5.3827432012915257e-03,
          3.9872477464657871e-02, 2.8198069894894998e-02,
          4.3529131983569926e-02, -1.3065860044942116e-02,
          -3.6913599628641755e-02, -1.3106482010851848e-02,
          -2.9430766294488171e-03, 2.1709463728561151e-02,
          -2.6369937348817329e-02, -2.6515168694856046e-02,
          -3.2095532206032659e-02, 3.3112586775408875e-02,
          -2.9726227328129358e-02, -2.5353046159394873e-03,
          -4.3227290597064594e-02, 2.5349046505893300e-03,
          -1.1260036976951498e-02, -1.3139333848904859e-02,
          -2.7576928759674808e-03, -5.7847942382585078e-03,
          -3.5047108388980751e-02, 1.4451103950030603e-02,
          7.4344814515504235e-04, 9.7082285516930291e-03,
          1.8245177760407488e-02, -1.1827138889110687e-02,
          1.5325706198567723e-03, 1.9300595324420789e-02,
          3.4104214160393165e-02, -4.9111887465398303e-02,
          1.5719925580128510e-02, 3.7159235214182943e-03,
          2.8976420558421701e-02, 3.2410087984209593e-02,
          3.5901223689486540e-03, -2.9301342075296659e-02,
          1.6827465880605472e-03, -2.7833337695292650e-02,
          2.6716901252973862e-02, 5.2356593917918606e-04,
          -2.3386756756844342e-02, 5.5392633717017423e-03,
          -5.7171812505140193e-03, 1.5968678139453348e-02,
          1.2036021290488553e-02, -4.6770180327818682e-03,
          -1.7432560198987493e-02, -3.6672129160273237e-02,
          2.1339058494322757e-02, 6.4696720158292952e-04,
          6.5319978777087580e-04, -1.7577655899094335e-02,
          1.0948508469192545e-02, -4.7861656893204090e-02,
          -2.2485776783951538e-02, -1.3438604399998277e-02,
          -1.7936958927869902e-02, -4.1459397423706072e-02,
          -6.1835752557873559e-03, -3.5127522735422419e-02,
          5.7351254629096583e-03, -3.1389282471576428e-02,
          2.5354740924158615e-02, -4.3234348046876730e-02,
          -3.4472111673342166e-02, -4.6646682903377446e-03,
          -1.8831191507119018e-02, 3.9708313264628925e-02,
          -2.7270212279769872e-02, 3.2537846426812858e-02,
          6.5842601808470825e-04, 8.6270410809100098e-03,
          3.9926454737912537e-02, 9.9292752883223274e-03,
          -4.6032544280890417e-02, -2.6553413019722552e-03,
          -2.1897890664221629e-02, -2.5039184137676616e-02,
          4.3408838887554563e-02, -1.9439563671456949e-02,
          5.8951203558899124e-03, -2.0754557674580187e-02,
          -1.0598617821616330e-02, -1.0893345104268261e-02,
          -3.7085630097304659e-02, 7.3435000527388179e-03,
          3.1254828470269967e-02, -7.6721624128324251e-03,
          -3.7173064195214336e-02, -4.3109625443586992e-02,
          -1.1136992847806781e-02, 3.9278908171920701e-02,
          1.4684608152604322e-02, 3.8846085428536903e-02,
          -4.0468791583718591e-02, 3.5973234112314477e-02,
          -3.5655506042684235e-02, 8.1010219211398518e-03,
          -4.2312666835674423e-03, -1.6773096446585246e-02,
          1.7009576681418486e-02, 1.1466674559652539e-02,
          -3.4323491696212620e-02, -3.0669289391479254e-02,
          4.2216034748672450e-02, 9.6428714289751548e-03,
          -1.3213896662083305e-03, 4.4509398722790043e-03,
          -1.5185736548596434e-02, 2.1584406464804775e-02,
          1.8135046351943955e-02, -2.6741388346788117e-03,
          -3.7631623773356979e-02, 2.3784095569380221e-04,
          -1.8924833925397594e-02, -1.6523275515381609e-02,
          -3.3175369926602754e-03, -2.1457729796633745e-03,
          -1.6529644646156923e-02, -1.0023529557173652e-03,
          -1.5930319740726305e-02, -6.3266445162134454e-03,
          7.5476980903836652e-03, -5.1174317394810489e-03,
          -2.1192031038141417e-02, 2.5845249584232503e-02,
          -1.0277353054477705e-02, 5.8909100733488089e-03,
          -1.8276278636605425e-02, 1.0741591302327051e-02,
          -7.1136707162750990e-03, 2.4394500789745005e-02,
          -4.3052875949621705e-02, -2.4500705529112536e-03,
          -6.8943700656489771e-03, -5.8677597068407805e-03,
          -3.0918568530203337e-02, -2.8079698518998848e-02,
          -4.6822193522595694e-02, -1.9687541551680034e-02,
          6.5511810088160066e-03, -3.3948000703095539e-02,
          -1.9279591688949722e-02, -1.7262254446469387e-02,
          1.0357730461877884e-02, -1.8800803475138152e-02,
          1.0845475246213035e-02, 1.5561219350584153e-02,
          -4.1248751345057552e-02, -1.1669081735569721e-03,
          2.1146116078899668e-02, -3.0443199320492238e-02,
          -2.8498200376633220e-03, -3.0450885649998618e-02,
          2.6497996751462582e-02, 4.6537559227923894e-02,
          -3.5101118595473435e-02, 1.4588022878152295e-02,
          -1.0361444414823933e-02, 4.2499533394347901e-02,
          8.2719679239004924e-03, 3.7618172780886867e-02,
          1.4455860907819329e-02, 1.0123381954483878e-02,
          7.2815415581991430e-03, 2.2058869873499840e-02,
          -3.1361465607700721e-02, 3.6469280447738180e-02,
          4.0924075821419055e-02, 1.9186960935664455e-03,
          -3.0739493631609119e-02, 1.8995076983549918e-02,
          -8.6307222469559249e-03, -6.2295571636124078e-02,
          4.9627008875792692e-03, -5.0741282744706434e-02,
          1.0463070145377009e-02, 4.2030602807555627e-02,
          2.5257156948025609e-02, -1.9932957756177577e-02,
          1.3816041734237576e-02, 1.5153450667496765e-02,
          -1.8243546036048365e-02, -2.0464656589421690e-03,
          1.7225816068327293e-02, -1.5488318174207169e-03,
          -5.4405182650243543e-04, 2.0731754752915412e-02,
          4.5943178790016385e-03, 2.3573672003956499e-02,
          1.9997144726608400e-02, -1.2051007330489067e-02,
          2.7204493619996443e-02, 2.3609793553131666e-02,
          -1.2069051147822430e-02, 3.3412022631830823e-02,
          2.1634635380955197e-02, 4.6992329013445397e-02,
          -5.6334516791912512e-03, 4.6661794608277088e-02,
          4.4970062226851779e-02, -7.2119216585254126e-03,
          -2.0214155922159843e-02, -1.3912891058917907e-02,
          -7.2903778283725301e-03, 1.9013053520910372e-02,
          7.6367388521395392e-03, 1.2323501918737339e-02,
          1.2142900666804063e-02, 3.6926550049574139e-02,
          -3.2602749753451371e-02, -1.5461887754205201e-02,
          -8.8825643810182091e-03, -4.4581901755966123e-02,
          3.8500949923033854e-03, -4.1132573182223027e-02,
          2.1567054848268284e-02, -2.8789503509868312e-02,
          4.5968273529927668e-02, -3.8821512601713501e-03,
          -6.1437207744501508e-03, -3.6562681269566646e-02,
          -4.9115373401513097e-02, -1.4541470741752041e-04,
          1.4792612201265943e-02, -3.8772336972984602e-03,
          3.9396538910773479e-02, 3.4218367613603730e-02,
          -6.1342466178980325e-03, 1.0789232399940108e-02,
          3.0546227661145771e-03, 4.8432391245532731e-03,
          -5.4864081535459137e-03, -3.6887399557355434e-02,
          2.9947077949184022e-02, -2.9865767301471686e-02,
          2.5608089981277494e-02, -9.7341624629564086e-03,
          9.6727971558828677e-03, 1.4494839655282435e-02,
          2.9289473924126681e-02, -1.5764895426452095e-03,
          6.0053956121612923e-03, -3.7109140371298338e-02,
          -1.2724383526480467e-02, -1.7941192585264106e-02,
          -3.7563940227944848e-02, -3.6578244425592002e-02,
          2.0401939186080607e-02, 1.8498242182698521e-02,
          -1.1948999946967936e-02, 3.3360606698632944e-02,
          -1.5792216308995140e-02, -4.6082822392836426e-02,
          7.1635261671115953e-03, -1.3945249751963696e-02,
          4.2485655743533024e-02, 2.7716739115018828e-03,
          -5.1630234678638970e-03, -1.8672440727314408e-03,
          -7.3822485440429471e-03, 1.8542946984503247e-02,
          -4.5227935914145942e-03, 6.5329024436569967e-03,
          -4.6373939375630495e-02, 3.6683613873173247e-03,
          -2.3803953833278445e-02, -1.0693796305630597e-02,
          -2.1010607628128043e-02, -4.6747089984573116e-02,
          -7.8718874267190830e-03, -9.1358303432022617e-04,
          3.9464567857601843e-02, 3.3436362172337919e-02,
          -2.7783427542649865e-02, 2.4983583049944476e-02,
          -1.8326248243827854e-02, 1.7328622483201765e-02,
          -1.5059605688493070e-02, 1.1056549919080264e-02,
          5.4206784696218598e-02, 5.5629155033960036e-03,
          -4.9255786731627008e-03, 2.2822788592630677e-02,
          -7.7056263590469364e-03, 2.2438897336367791e-02,
          3.7008160016013558e-03, 7.2664438098782556e-03,
          1.2988227031858791e-03, 4.0326444980871179e-02,
          2.0074939009648823e-02, -2.1249193604350562e-02,
          -3.6715484774534686e-02, -4.0115180758125847e-02,
          -3.2633355413343529e-02, 5.2879742960824608e-02,
          1.0991851995918496e-02, 2.4978143814575433e-02,
          -3.1238106486687917e-03, 1.5778704255185152e-02,
          2.0900758514476189e-02, 1.7075071827030996e-02,
          -1.1942065162754749e-04, 8.2296132643845856e-03,
          -3.6958334620162260e-03, 1.3400869782823770e-02,
          -5.0009328662563887e-04, -2.9283431954676583e-02,
          -3.7433517851169752e-02, -3.0463344479218387e-02,
          3.6668130523108848e-02, -1.1701296872513617e-02,
          2.8447454338131686e-02, 2.6406529356276798e-02,
          -1.2038606495612612e-02, 3.1481686422281295e-02,
          -1.5542655567503647e-02, -3.2974639222160991e-02,
          -7.4609862118114722e-03, -2.2080701045928915e-02,
          9.3751475276405549e-03, -6.9530257314839286e-04,
          3.1809254854086838e-02, -2.7409628974566211e-02,
          1.3060096789776519e-02, -1.5768050085141112e-02,
          -2.5537137959541729e-02, 3.0892251260445865e-02,
          2.3469272504462318e-02, 1.4095435922853112e-02,
          1.6351031526097279e-02, 3.4931841188274561e-02,
          3.3962459970968820e-02, -2.5905250675525293e-02,
          -3.7479812920074157e-02, 1.2426401809060100e-02,
          1.3129230648191647e-02, -3.3882134219683821e-02,
          -1.8292667800651436e-02, -1.3438233661976549e-03,
          -1.8892158662785378e-02, 2.1052339857356935e-02,
          -2.0220944597718105e-02, -4.6614212665231108e-02,
          5.8298479209033206e-03, 2.4194145773501142e-02,
          2.3758837187231825e-02, -3.3152446329349494e-02,
          5.4342174044433355e-03, 2.8600040273848899e-02,
          9.7756878291349793e-03, -1.4819649428480259e-02,
          3.8195095332427806e-02, 4.0881116646912810e-02,
          -3.0318876548850685e-02, 1.0170616543210716e-02,
          -4.5653757050557589e-02, -4.1534252792349768e-03,
          -2.3699188069653803e-02, -3.9568979195782152e-02,
          -2.3999023521898331e-02, -6.7403755907577160e-03,
          -1.5481799657347035e-02, -1.4081506720154581e-02,
          -3.2140013990554224e-02, -1.1732030450137491e-02,
          -1.3131175218670452e-02, -1.5128255204255885e-02,
          3.0518766404666806e-02, -1.0700444063042158e-03,
          1.4071409956484485e-02, 1.0101726330051190e-03,
          2.2589145088528641e-02, 1.3936376760735647e-02,
          1.5783059581557166e-02, 3.3324056767892275e-02,
          -5.3406011207017656e-02, -2.1998737443035613e-02,
          1.5511714053492741e-02, -1.9451045368459212e-04,
          4.8250030117506148e-03, 8.2721468358097940e-03,
          4.1631136982806162e-02, -1.2783688796687660e-02,
          4.3547117511775479e-02, -1.5633351295477618e-02,
          -3.2035294279468066e-02, -4.0059414986926410e-02,
          1.8317804189230142e-02, 4.7133970783587775e-02,
          -1.0235095600828312e-03, -2.3124816192137753e-02,
          -2.5661234653177455e-02, 2.4718535957878898e-02,
          -1.2436087577476175e-02, -1.5467991837686193e-02,
          -4.9565682345286292e-02, -2.2109996545948942e-02,
          -2.6160274770256956e-02, -1.4024534538110377e-02,
          -1.5223995653251027e-02, 2.9019827262927293e-02,
          -3.8061060547872742e-03, 1.3306039692356391e-02,
          1.2823210506246210e-02, -1.6594902985859292e-02,
          1.7315551742085326e-02, 1.9616990342801639e-02,
          -2.0370723423611636e-02, 1.0641837838884425e-02,
          2.1116084546389702e-03, 8.7229633652751888e-03,
          -7.1961646005055252e-03, -1.8315892803401292e-03,
          -1.3628755361028316e-02, 8.1792531156423421e-03,
          8.9771335933810977e-03, 4.9482028833767091e-03,
          -8.7798167736713000e-03, -3.1914981218001286e-02,
          -4.0817424955905566e-03, -1.9875394761850441e-02,
          5.1897808772331765e-02, -8.6400246600980921e-03,
          1.1100159655998870e-02, -2.2597797576474721e-02,
          -2.7758320258580854e-02, -2.9743612637835298e-02,
          -3.0115963236817127e-02, -5.0114188826335747e-02,
          -1.0583568202301941e-02, 2.0692183926111964e-02,
          -6.3782558388081256e-03, -2.1644844762495504e-02,
          -4.0361242868639867e-02, 2.3042638351791069e-02,
          -4.3368913262249863e-02, 4.4576453055287013e-02,
          -4.4166925349291696e-02, -4.0719553026978494e-02,
          -2.6379605182253758e-03, -4.0161641651416412e-02,
          -2.8380756279769363e-03, 4.2341881106789818e-02,
          -1.6938230011226747e-02, 4.3879732622283084e-02,
          5.4722404737886782e-03, -2.5847029585302966e-02,
          2.3019816552868372e-03, -2.9143384588689186e-02,
          1.9013286501211820e-03, -5.6085449142982292e-03,
          4.7137295673998526e-03, 4.6251746389450149e-02,
          9.1332351658810311e-03, 2.0077436371348772e-02,
          -1.0178451146933928e-02, -1.7316906069122805e-02,
          2.2882083782332342e-02, -1.8231553548207140e-02,
          1.0952075206289633e-02, -4.4870028061583748e-03,
          -1.1481415389149536e-02, -1.8320770575327511e-02,
          8.1061779026616668e-02, -2.8618846093538063e-02,
          3.2373654702301385e-02, -3.1876643002784845e-02,
          1.6874433658448536e-02, -3.0882834597817758e-03,
          2.4994023858779203e-04, -2.3238656261535259e-02,
          -1.1427682888853905e-02, -9.0627812888334647e-03,
          1.6991583846636162e-02, -2.6556505320460472e-02,
          -5.4533387687772127e-02, 8.6539500709893139e-03,
          2.5361155684065766e-02, -2.6452728258545902e-02,
          -2.4244392511489324e-03, 3.4252097957098659e-02,
          -5.6854177621758137e-03, -6.4645941849632831e-03,
          -1.6178190583720525e-02, 3.8003341012580245e-02,
          1.5363227890699936e-02, -1.6765560339649332e-02,
          2.3274876842594499e-03, -2.3925456556320963e-02,
          -2.9911151202763643e-02, 6.7039698293216163e-03,
          -1.7156039811025078e-02, 2.3298301463592106e-02,
          2.5177909155935912e-03, -1.9363296860177587e-02,
          -3.4560320251450789e-02, -6.5725255710373477e-03,
          -2.3539355707832693e-02, 3.5648053169509392e-02,
          3.7981556608942930e-02, 3.5357111611103900e-02,
          -2.5436281875722444e-02, -1.7438965347256982e-03,
          -2.1253945969320447e-02, -2.5520022473256215e-02,
          1.9048866580065063e-02, -1.4171102616034670e-03,
          -1.2788892608462448e-02, 3.9210680756618481e-02,
          1.8423145824294395e-02, -1.4942342725896597e-02,
          1.9595425915536615e-02, -1.5967016060158719e-02,
          7.1322737419548298e-03, -3.0420075536511680e-02,
          -7.0071333350025210e-03, -2.0586968570445594e-02,
          3.9609839237978416e-02, 3.1673647647274430e-03,
          -2.1818539072114534e-02, 1.2389947151208431e-02,
          -7.1771371456355220e-03, -4.3255356657395494e-02,
          -4.2384041570666622e-02, 1.9238721373441323e-02,
          -8.6039778549543804e-03, -6.6521984883765204e-03,
          1.6845930347006492e-02, -1.9376109476206193e-03,
          2.3156742107830037e-03, -1.8466578101498845e-02,
          4.4495912734342707e-04, -3.9658963204741732e-03,
          -1.3335942792779894e-02, 1.0635710219332647e-02,
          8.7501075975424912e-03, -1.5127426266302849e-03,
          -1.1925831717449592e-02, -1.1174145328974167e-02,
          1.4863354949412676e-02, 2.1145342257632041e-03,
          1.6647796243180923e-02, -3.6092800441788711e-02,
          -4.3754154150828395e-02, 2.6782624899937855e-02,
          4.0195665445674392e-02, 3.0687815979607937e-02,
          1.0941543003971410e-02, -6.3661261619453778e-03,
          4.9241703665836535e-03, 2.0510814533695545e-02,
          7.7923323294121338e-03, -6.6761069305708534e-02,
          -1.7295003412231048e-02, -2.4402092963432417e-02,
          2.2522442709531854e-02, -9.9854666641066760e-03,
          -2.2430100018124058e-03, -4.1512360919009658e-02,
          -4.3276488549717919e-02, -2.2665408080195008e-02,
          3.7986391678364442e-02, -3.2471715708095497e-02,
          -1.7990883704393154e-02, -1.2071240260569410e-02,
          -2.9062501707663183e-02, -8.2024305494319740e-03,
          -3.1625024574892066e-02, 4.6749182338289919e-03,
          2.8146410503636097e-03, -3.4699351355357316e-02,
          -2.5975914606634638e-02, 9.1637504078918523e-03,
          -1.2407668841350819e-03, -3.0477793266246913e-02,
          3.6421211143567944e-02, 9.1942311350579377e-03,
          -1.0095672868836671e-02, 5.1700326679680747e-02,
          -4.8293933514794704e-02, -1.2961296651009865e-02,
          -9.5504854334319527e-03, -2.0459337085200632e-02,
          -3.5647372748790568e-02, -8.5085258044045060e-03,
          -7.7258270832706718e-03, -1.5900245883245245e-02,
          -3.1378891771623930e-02, 4.1057443871906303e-02,
          4.9784675688027566e-02, -5.1757037957872697e-03,
          2.2180711674429032e-02, 4.4978478384605704e-02,
          5.2241779762739672e-02, -4.2832773559777937e-02,
          -1.9069442732931874e-02, 6.2566027161349829e-03,
          2.0416660382297253e-02, 3.2696334090599764e-02,
          3.9556643970297879e-02, 2.9554232714530171e-02,
          -2.5863904134582331e-02, -5.5114084737403472e-02,
          -4.1483794315735893e-02, -1.6403255155535104e-02,
          9.5833697290111080e-03, 5.7895027680581685e-03,
          -1.2726250277456264e-03, -3.1776476250608074e-02,
          2.6391998802852066e-02, -3.6802049422321362e-02,
          -7.5148405503551556e-03, -3.2916454622682605e-02,
          -1.2652526894233749e-02, 4.0619730467232489e-02,
          1.1354933797047289e-02, -1.2871324444434592e-02,
          3.5102696361827654e-02, -3.4822770314250386e-03,
          -1.6889454312637421e-02, -1.8328826826663338e-02,
          2.3864679148851750e-02, 6.5182507223504743e-03,
          -1.8363618072534591e-02, -2.3859712684917607e-02,
          -2.7309848541041740e-02, -1.6548019569320299e-03,
          -1.2811080441867967e-02, 2.4619040905601450e-02,
          -2.3763369744447854e-02, 3.3032047718410805e-02,
          7.7364753805825590e-03, -2.6134550183149457e-02,
          1.3545503437243986e-02, 1.5551569197530327e-02,
          4.5143791456734583e-02, -2.0394273886339076e-02,
          2.5803814659226621e-03, -3.5212249386393626e-02,
          -1.0309188255353981e-02, 2.0552210268852001e-02,
          -4.6249984865849150e-02, 1.6598048700496949e-02,
          -1.8265015054878025e-02, 2.7154942593004838e-02,
          3.9541266336772685e-02, -4.6248932021982813e-03,
          -4.3844147763491721e-02, 7.5906583652738226e-03,
          8.7219889503030862e-03, 3.0281330681485894e-02,
          -1.4938748860684281e-02, -1.4442810297264960e-03,
          4.0273985183998350e-03, -1.7177072289602129e-02,
          -3.3868969589605120e-03, -4.8000685747820293e-02,
          -2.3761419719675034e-02, 5.5637335547746381e-03,
          2.7551373251997340e-02, 4.7148349448640936e-02,
          8.7852062299801897e-03, -4.4085688759997075e-03,
          6.5977343182037369e-03, 1.9196626678820192e-02,
          -2.5334266714010741e-02, -4.0377235675933078e-02,
          1.7071135499380358e-02, -8.7155846844885667e-03,
          -1.2441706537283803e-02, -6.3771030694230693e-02,
          -5.0390014095606478e-02, -2.9239280844512043e-02,
          9.2059427210199624e-03, -3.5888747342658893e-02,
          -2.8561675300695106e-02, 3.0154872288924474e-02,
          2.6688309719978910e-02, -9.3287795176907919e-03,
          3.3774952630952218e-02, 1.4556359828282921e-02,
          1.0158362151362845e-02, -3.7882732656290323e-02,
          -5.3518529883241968e-02, 2.1840847137024343e-02,
          2.6507302543002778e-02, 8.8770003291457587e-03,
          -5.0740750781592979e-02, -2.9407962654746118e-02,
          7.4665026811620979e-03, -2.3482508368389117e-02,
          -1.9779573062039646e-02, 1.9638506251603749e-03,
          -9.7283783419377032e-03, -3.1655062336304621e-02,
          7.6703017424893253e-03, 1.4435051393004471e-03,
          2.3457257375369456e-02, -4.0064479575665094e-03,
          -9.4675547243969656e-03, 2.1544241906390496e-02,
          -2.9657897087737046e-02, 6.4431846935192614e-03,
          4.2701207470693860e-03, -1.2852949954679532e-02,
          -2.0823188788601767e-02, 3.4382752799026875e-02,
          1.4121419974558404e-02, -2.9709390937317687e-02,
          -1.6996859117110285e-03, -6.6987850182938496e-03,
          6.6828342326184769e-03, 1.8927120396776183e-02,
          -2.1473615764659105e-02, 3.1705054637598068e-02,
          8.8191149715897196e-03, -5.1280734820030923e-03,
          1.7230606821347114e-02, 1.1319297256595921e-02,
          2.2346932872765728e-02, 4.3651536347635864e-03,
          -1.2523329945562156e-02, 3.7503716913565502e-04,
          -1.6969041176618450e-02, -4.0915719446615588e-02,
          -3.8520606053524475e-02, -5.2678337025350757e-03,
          -2.5840008024638629e-02, 1.3356628505691573e-02,
          -3.6819373750097362e-02, -9.8609066883749551e-03,
          -2.3192917471276824e-02, 4.1036735209428486e-02,
          5.2923066905538038e-02, -1.3344352001649485e-02,
          -4.4086271745405289e-02, -1.9825360482334794e-02,
          -2.7490360722055133e-02, -5.7013927148124068e-02,
          -7.4613874917956406e-03, 3.9146135610709815e-02,
          -1.4313056739447824e-02, 2.9354618382471390e-02,
          -5.5015318430520332e-03, -4.8343082711736415e-02,
          -2.3866590648459056e-04, 7.7444566184540937e-03,
          -1.9752030013451896e-02, -1.1102822191220144e-02,
          3.8671030589533827e-02, 4.4536379673171776e-03,
          2.8855281336777127e-02, 1.5282492653413580e-02,
          1.1125594695096275e-02, -1.9638137922014416e-02,
          -2.4629388403484904e-02, 1.4054971134701853e-02,
          3.4822716780044623e-02, 3.6953065899145978e-03,
          -7.4384534768467325e-03, -1.1623859013931665e-02,
          9.8409506485346802e-03, 2.8099325426094144e-02,
          -3.4203165143910585e-02, -3.0511475216814167e-02,
          7.9275503467509060e-03, -2.0606870873150572e-02,
          -3.2291571716947617e-02, -4.8415435379189874e-02,
          1.3833396229333746e-02, -4.6790843280668949e-03,
          -1.5413924241040917e-02, -3.5241740300942813e-02,
          2.1946061998896566e-02, 1.8171834807639876e-02,
          7.3447842891568738e-03, -3.1861485599088427e-02,
          4.2471034885969955e-02, -1.7858261885988949e-02,
          -7.0595325110511609e-03, -7.1206495561809413e-03,
          2.0209541181668209e-02, 2.2888188821013251e-02,
          -6.2011075584553566e-03, 2.6243149738802384e-02,
          -2.7378508939510812e-02, 1.4892982714759793e-03,
          -1.1024431048745115e-02, 3.8175213246591989e-02,
          -1.1447465441025836e-02, 5.0257659963057075e-02,
          1.5502806565410924e-02, -2.2890016469325394e-02,
          2.4049665789963280e-02, 3.2786742781378629e-02,
          1.2056876130435669e-02, -1.3999586439081748e-02,
          -1.4846140398549104e-02, -2.6892013395373789e-02,
          -1.7729317858194853e-02, -4.6560036213520943e-02,
          1.9300251635952840e-02, 3.5349741769700078e-02,
          -1.2271694641522066e-02, -7.7033083400989463e-03,
          -8.7723658993839673e-03, 1.2214838550958876e-02,
          8.2201420197244891e-03, 3.4310997436222362e-03,
          -1.1392845067807203e-02, -1.6848266110445917e-02,
          1.8528780511908184e-02, -1.5462884073432185e-02,
          7.0269411516046733e-03, -1.2140961729024853e-02,
          5.2306044747204208e-03, -4.0035021785997049e-02,
          2.4642109530636650e-03, -3.2769815053819221e-02,
          -1.5426818629581143e-02, -5.9803629431164186e-03,
          -3.1907648493303582e-02, 2.6509774893789972e-02,
          -1.7217916408564519e-02, -3.2778319989302932e-03,
          -2.3970361597684953e-02, -6.9218766749004471e-05,
          -2.2011275420219356e-02, 1.4564077532919627e-02,
          4.2378929807063937e-03, 5.6652642782581281e-03,
          2.6539952603705889e-02, 1.9604092937623815e-02,
          -4.8062227394074598e-02, 7.2709468881799137e-03,
          -4.0277783153626512e-02, -2.3598356693984513e-02,
          -3.4350002348040018e-02, 1.3875534891349807e-02,
          -2.3269067465218778e-02, -3.6990368132574218e-02,
          9.4195083164329459e-03, 2.5760421290283362e-02,
          2.1038882728473741e-02, -3.7314365118802470e-02,
          8.5851395471358161e-03, 4.3557226436862204e-02,
          9.0776437126735435e-04, -4.9864153905841070e-02,
          -4.0423584077012215e-02, -1.8212500532795523e-02,
          -2.2304940693607275e-02, 3.4900464907443043e-03,
          -1.7147002565587169e-02, 4.4972481897224718e-03,
          2.6847161248150425e-02, 4.0993500769672966e-02,
          -2.8081684473896435e-02, 3.3924471845531573e-02,
          -4.5501709073511891e-03, 1.6531638794910528e-02,
          3.0355495083296314e-02, 3.4322667445083374e-02,
          -4.0350493060636559e-03, 9.2999097348471713e-03,
          7.3897569819770820e-03, -1.3187356785339694e-03,
          2.6710594742567890e-02, 1.0965830021608178e-02,
          9.5815356801197075e-03, 4.1787342293538032e-02,
          -1.5215674145289194e-02, 3.2071382417569204e-02,
          -1.4433070189480670e-02, -2.4516549737732967e-02,
          -5.1854639689863802e-03, 3.7533049330829849e-02,
          -8.6140234911283361e-03, -3.1737602483635149e-02,
          7.4633062202807731e-03, -1.5772111637702719e-02,
          -2.2944107770308062e-02, -7.1712029698981338e-03,
          1.9805294358342111e-02, 2.6198555113152590e-02,
          -1.2934631196260584e-02, -1.8946087203909147e-02,
          -1.7647751136441837e-02, -1.2305858294103297e-02,
          1.4874867285895408e-02, -3.7076901195801752e-02,
          7.9277486271576731e-03, -1.6828884468750274e-02,
          -1.7323834891365967e-02, 2.6366512106397476e-02,
          -3.6409236169177107e-02, -6.1436600774181834e-03,
          -2.4061236917839010e-03, 3.5758818853176229e-02,
          2.1939071308355079e-03, 8.2962528177263541e-03,
          2.2214396646718548e-02, -2.2789459881960402e-02,
          5.1990192930464620e-02, -2.1256803219791440e-02,
          4.5336349089903378e-03, -1.6619580007399395e-02,
          -2.9556589045087078e-02, 1.5795893671594917e-02,
          2.7898194583854959e-02, 3.8750566452220206e-02,
          -2.1573117187158968e-02, -1.1599676765391202e-02,
          -5.2560676437904776e-02, 3.4964960047004466e-02,
          1.5569999972244602e-02, -1.7819872310859197e-02,
          1.6096434398719953e-02, 2.3729732793445944e-02,
          -2.7017361002462489e-02, -8.4940405483821639e-03,
          -8.7294007965638409e-03, 2.0448581750823973e-02,
          2.7276080556938302e-02, 2.9086627451618476e-02,
          2.3389704020750201e-02, -2.6990869584201686e-03,
          2.4403199450369647e-03, -5.1938513676455196e-02,
          -1.4135446317202302e-02, 5.9175362463896666e-02,
          -1.9187093502131006e-02, -3.0399236277069544e-02,
          -2.4304662656966500e-02, 3.2513798151925684e-02,
          -3.9980018901036397e-02, -5.0604489709147084e-02,
          2.9779064864529914e-02, -4.6744354044604787e-02,
          1.7714844651333432e-02, 5.3697243996776146e-02,
          2.4731995874758193e-02, -3.9638494869959386e-02,
          2.9314615950014351e-02, -1.2374325562861249e-02,
          -5.5627626559663010e-02, 4.4052316142047009e-03,
          2.2092513338915317e-02, 1.5455969347601926e-03,
          -9.6290891821447667e-03, 2.5230866004154716e-02,
          1.6221394561933236e-02, 3.4285924033470331e-03,
          3.9413187036159626e-02, -1.4823528610723068e-02,
          -3.1369825744385578e-02, 2.8771162873644583e-02,
          7.2622379850072075e-04, -7.5345397099306540e-03,
          9.8961020511900769e-03, -2.9377563933704533e-02,
          -8.6417002453199696e-03, -5.3467476810622073e-03,
          -7.0722413134514184e-03, -2.7676330457965189e-02,
          -4.9090996828923114e-03, -1.1398042417598120e-02,
          -5.3727369514682204e-02, 1.1155373059892733e-02,
          -4.9788106720217155e-05, -2.2663489227445037e-02,
          3.1758790046280780e-02, -2.1110606796094621e-02,
          -2.7213808576271110e-02, -4.8163654734699010e-02,
          -1.4914402457407635e-02, -2.7433297509553742e-02,
          2.5986404059371908e-02, 1.6806265936202495e-02,
          2.7484850163521788e-02, -3.1123509515628818e-02,
          -2.9661037644839391e-02, 2.5653539635088166e-02,
          1.5914183140855284e-02, -1.1585937592191679e-02,
          2.6807302735430989e-02, -2.7302501215611679e-03,
          -4.0940782390716406e-02, -4.0597917905867024e-02,
          1.9772908806036802e-02, -2.1995479191768796e-03,
          2.7406219178950399e-02, 4.0287923654897709e-02,
          2.1554074232999296e-02, 4.4015411367929108e-04,
          -1.7384436419577359e-02, 3.6188210502051059e-02,
          -7.4897011669442471e-03, -1.8799905806147377e-02,
          -3.2451520266433241e-02, -1.2298235323768350e-02,
          2.5688475682363592e-02, 1.1005434402511942e-02,
          -2.6414990984473564e-02, 4.7360753259878777e-02,
          -3.4265548931747269e-02, -1.6687006812333569e-02,
          -9.7063454019566051e-03, -2.9037580230635754e-02,
          8.1996454063024008e-04, 2.9199320618183960e-02,
          2.9628133354548027e-02, 3.4574252299720262e-02,
          5.1329478208028398e-02, 3.7637740358640238e-02,
          -1.5250649616110099e-02, 9.3887788564750853e-04,
          3.2189796744374478e-02, -2.6575842357623044e-03,
          2.7870869466080285e-02, 2.0984631195883660e-02,
          -3.1422697508184813e-02, 4.5750337348660138e-02,
          -1.3908418948446239e-02, 1.5863072322128632e-02,
          2.6897103863827813e-03, 8.4242485031622988e-03,
          -4.0188648693272502e-02, 1.7622660145539693e-02,
          -1.7127608572625196e-02, 1.6046375121815924e-02,
          5.6587209154230697e-03, -1.5816374075474815e-02,
          4.4005310149339786e-03, -1.7699431401782751e-02,
          2.5352623437710456e-02, -2.0905143096400226e-02,
          -6.3050659528014899e-03, -3.0926454282330380e-02,
          2.8801666903087407e-02, 1.6547185284366484e-02,
          2.2279596449015027e-03, -3.1215554282400970e-02,
          -3.0793224507549854e-04, -3.7643950092004066e-02,
          -1.1384291423696350e-02, 2.4530420475283133e-02,
          -2.1941766556838330e-02, 1.6419963946667945e-02,
          -1.6661684734068562e-02, 3.6101755328808424e-02,
          -3.8436033262797646e-02, 1.7725269310464253e-02,
          2.2751232933427085e-02, -1.5631341838641209e-02,
          -1.5427764924918358e-03, -4.7156257897161630e-02,
          2.2906635236826747e-02, 4.9884741444469732e-03,
          -3.3059499005383193e-02, 1.8233955695743664e-02,
          2.8212193525724287e-02, 4.5003274617774223e-02,
          -1.4341988621359169e-02, 4.3409510287120484e-03,
          -1.8414812005330253e-02, -7.8985158379735725e-03,
          -3.0563621929274112e-02, 1.3921379767163903e-02,
          -4.0904439194795257e-02, 5.3805434118103068e-02,
          1.0322245180615346e-02, 9.4011302150056181e-03,
          4.2789374954749972e-02, 1.2534922799963055e-02,
          3.5893057153216265e-02, -1.7263253133432532e-02,
          -2.9125245664196359e-02, -1.3264791507493106e-02,
          1.5200314190722148e-02, -1.9125471957279511e-02,
          3.7696836771850400e-03, -3.3558671159815995e-03,
          4.8761083861805422e-02, -4.0315942871969421e-02,
          2.6718931860740300e-02, 1.8070641875448296e-02,
          1.0151866666637787e-02, -2.5960728240518705e-02,
          -1.7827445388851216e-02, 1.1229901053039922e-02,
          2.2696873357363114e-02, -6.2698741153342976e-03,
          -1.3273288594343881e-02, 1.0765351720668583e-02,
          -1.4814008819208998e-02, -3.4783465956006891e-02,
          4.6752118030890341e-02, -5.4568772334935090e-03,
          2.3311000774162115e-02, -1.7141107707900040e-02,
          5.4430015350872205e-03, -3.4253050757140878e-02,
          -2.2094708882153199e-02, 1.4903901467596651e-02,
          -1.6937243538804193e-02, 2.4182678342926540e-02,
          6.8088327911419499e-02, -1.3909503951928687e-02,
          2.3159364490650345e-02, 1.5079758533777061e-02,
          1.6474004606868549e-02, 1.8370087374750512e-02,
          -1.2677662169517009e-02, 2.7636495466167168e-02,
          5.1011212999550387e-02, -2.4146990100123663e-02,
          -2.2179807903939187e-02, -1.2773659335450167e-02,
          3.4461007750459453e-02, 6.1404123100279172e-02,
          -3.0043849815223383e-02, -1.5585401746796521e-02,
          2.0460074654689894e-02, -2.1598014042980684e-02,
          5.1012164188309943e-02, 4.4680305619436613e-03,
          3.0582463320259500e-02, -2.2525697600863256e-02,
          1.3658007937362044e-02, 1.3852409690147957e-02,
          1.3652080730173691e-02, 2.0095374599996857e-02,
          -4.5311601136636563e-02, -3.9081775988525469e-02,
          1.9175481849513339e-02, 2.6650934773530765e-02,
          1.3358809642606944e-02, -2.4944365986305526e-02,
          -6.6805295202239596e-03, -1.2097736849305806e-02,
          -5.9338863449904376e-02, -1.7209533109089650e-02,
          1.2249913017499791e-02, -3.2631114023178934e-02,
          2.7476907723236688e-02, -1.8503582435234266e-02,
          -1.0298183307235200e-02, 2.5071363940135833e-02,
          -7.8604248553030658e-03, -4.4608680801283780e-02,
          -9.7933413539596538e-03, -3.3355223957238257e-03,
          1.0819415587970132e-02, -1.1485397870806147e-02,
          3.4596146680145212e-02, 1.4734844091001812e-02,
          1.9727498007962242e-02, -3.0157882224154147e-02,
          -3.9888055768530474e-02, 2.5060284833889505e-02,
          1.8780046814284985e-02, -2.0277422325483085e-02,
          -9.7610756465424733e-03, -2.6894546592366887e-02,
          -2.3271048247114387e-02, 1.9923530125273061e-02,
          -3.2037944354027376e-03, 1.0186231581387256e-02,
          3.1417216948206844e-02, -6.4288705062838991e-03,
          -2.9914322615200262e-02, 4.7201480751692280e-03,
          3.1059515027191845e-02, 2.3821756881726056e-02,
          -2.2168868385116603e-02, 2.9685389859141539e-04,
          1.3919326349990277e-02, 2.0840472775790250e-02,
          -1.3555506711818001e-02, -2.1782917783644738e-02,
          3.5791435006542839e-02, 1.8850272080969403e-02,
          2.5074741420105479e-02, -2.8357972958918880e-02,
          -2.9912708275368016e-02, -8.0084339006650709e-03,
          -3.7687722234377573e-02, 1.8005062090274829e-03,
          2.3621176687090704e-02, 1.2333958046322077e-02,
          -2.6122946606259991e-02, 2.7219997635207691e-02,
          1.9876374735891530e-02, 1.5445352786764019e-02,
          5.7624547652541033e-03, -7.9196213669943108e-04,
          -8.7722606828928486e-03, 1.3399676744254038e-02,
          -5.3209596600452685e-02, -2.5565929161899738e-02,
          -4.6462984189920044e-02, 6.0793378193462711e-03,
          -1.4929804347689035e-02, 1.0080189458219280e-02,
          1.1928344543675548e-02, 8.5412043773818759e-03,
          -4.2866160717892780e-02, 3.0742975567139858e-02,
          -2.5275005339529595e-02, 3.3451555434863715e-02,
          -2.7462014183047945e-02, 3.5973285518472710e-02,
          -1.5624204989164630e-02, -7.1839742974790302e-04,
          6.0294881905160663e-02, 9.4003227158501752e-03,
          3.2455313816954462e-02, 2.6191511252126182e-02,
          -1.6250411314936611e-02, 3.5451562272794369e-02,
          5.0585317664446953e-02, -2.2231959029343041e-02,
          -4.6456572922874813e-02, -7.9815629781689323e-03,
          3.8252463503327602e-02, 2.6100885147435804e-02,
          -4.2762223087532535e-03, 3.7456754031177500e-02,
          9.7245911567774238e-03, -1.0654937313109934e-02,
          -1.2632326761829810e-02, -7.5218926350475160e-03,
          6.5903489491369932e-03, 1.6812259853157659e-02,
          -4.0659434318253279e-02, -2.7150366763649778e-02,
          -4.8283421418308221e-02, -2.2152917831557296e-02,
          -2.3709837065359913e-02, 1.1592992518446730e-02,
          -3.0589825937359347e-02, 6.0297603362412973e-03,
          -1.1219032325689580e-02, -2.9288888090862192e-02,
          -2.9940861808944803e-02, -2.6230182141728422e-02,
          -2.3593165321852058e-02, 4.0062993996688688e-02,
          -5.3470836576123094e-02, -1.6742544766403373e-02,
          3.9323826505441938e-02, 4.6799188554264945e-02,
          2.9723667078247152e-03, -3.8997889704979069e-02,
          9.0842079604469828e-03, 1.1003147876125758e-02,
          -1.2870088637740583e-02, 1.5408750459560021e-02,
          -3.4280952584119131e-02, 1.9106610112458376e-02,
          3.1877277193519521e-03, 2.8095477633899881e-02,
          3.4703940332745917e-02, -3.2908295655076067e-02,
          8.0404743881710126e-04, 3.8758033612622603e-02,
          -1.5291930149419083e-02, 1.7259145159871044e-02,
          -1.4960103845677955e-03, 1.0156530479927988e-02,
          1.6230675112022100e-02, -1.2120003524570700e-02,
          2.1274091374305693e-02, 4.1617963430133685e-04,
          -2.9117465517778253e-02, 4.2351903269911777e-02,
          2.3910750319787884e-03, -2.1526829614885192e-02,
          -5.9155912413457343e-02, 4.1349767705703838e-03,
          -1.5787979017672805e-02, 2.9601937918333925e-02,
          -9.3610039994386513e-03, -3.9796176810202290e-02,
          9.8983054026124360e-03, 2.6176890878686524e-02,
          2.3438322787020433e-03, 8.2944433657595028e-03,
          1.9087878046830143e-02, -2.2757980494279826e-02,
          -1.2949360268466914e-02, -1.4279320814856711e-02,
          2.3108353772195410e-02, 1.3673151440497907e-02,
          -4.3409746417080057e-02, 2.6874550956633471e-02,
          8.1716393820289168e-03, -1.4812506180420095e-04,
          -2.2241912791388922e-02, 1.5144967619645342e-02,
          -3.4946920800509845e-02, 1.7986514957425471e-02,
          -1.2217955490144879e-02, -1.3802171008124114e-02,
          7.2160452587592946e-02, -1.6210492735556102e-02,
          1.0967003143627788e-02, -3.9740911972387098e-02,
          4.2607094984098487e-03, 6.0404105501347411e-03,
          1.5630889646632111e-02, -1.2390473627790850e-02,
          -2.5035248163922143e-02, 2.1145432462001863e-02,
          -4.5983827690299961e-02, -4.3859495052330719e-04,
          -1.8224464803635362e-02, 1.1218400745032353e-02,
          -2.0640389059187352e-02, -3.3567995552727908e-02,
          -1.3539607504512170e-02, 3.8206291541741086e-02,
          2.5930499895555830e-02, 1.2385287440416443e-02,
          -4.2897811973698942e-03, -2.7199204609025382e-03,
          2.9665503205129593e-02, 4.4628941795607391e-02,
          4.8912881810333928e-03, 6.4085651903067259e-03,
          -1.5461376246736184e-02, -1.1394585515525101e-02,
          -1.8085629758898006e-02, 4.5596131141381439e-03,
          9.4517660801648959e-03, 1.9650630041143768e-02,
          -1.0373134242400828e-02, -4.9084578277794576e-02,
          3.7899352664390651e-02, -1.8596618649095616e-02,
          -1.9710282101516232e-02, -1.2119668445980951e-03,
          -2.8394152410099835e-02, 1.1680112128366341e-02,
          -1.5152297859617489e-02, -2.5480433764975764e-02,
          4.7215308556533319e-03, 1.9872757007170335e-02,
          4.1246326664855200e-03, 1.9078087543573114e-02,
          1.5717540613757231e-02, 4.2891158508321800e-02,
          -6.5396186191951419e-03, 3.1386493574299908e-02,
          7.3819733851351243e-03, 2.2675923593211678e-02,
          -1.5481682500510557e-02, -2.0006900130825331e-02,
          -2.1025352218798522e-02, -1.8996635072191060e-02,
          2.6675508886799424e-03, -1.9613285626780805e-02,
          -1.6124542063148325e-02, 3.0768267848351138e-02,
          2.1987212974792794e-02, -2.4146290046648675e-02,
          2.8537003182900669e-02, -2.0799843059549510e-03,
          1.7350543702440168e-03, 9.9150249809515922e-03,
          4.2369803372916223e-02, 1.1325667671034642e-02,
          -6.8479724742627982e-03, -1.3701097807141637e-02,
          -2.0395084553417844e-02, -8.3787374460193870e-03,
          3.4232978638622187e-05, -1.0948164021736248e-02,
          6.5359123716176498e-02, 1.7357702487006839e-03,
          -2.3508455926279686e-02, 5.1908839566979087e-02,
          4.3091993700486407e-02, -2.0186822835747967e-02,
          3.0715771841071264e-02, -4.7595980090173441e-02,
          1.6778307397268915e-02, -2.0596756937134985e-02,
          1.6502208913057443e-02, 5.2848438351007941e-03,
