%YAML:1.0
my_nn: !!opencv-ml-ann-mlp
   layer_sizes: !!opencv-matrix
      rows: 1
      cols: 4
      dt: i
      data: [ 48, 30, 30, 34 ]
   activation_function: SIGMOID_SYM
   f_param1: 6.6666666666666663e-01
   f_param2: 1.7159000000000000e+00
   min_val: -9.4999999999999996e-01
   max_val: 9.4999999999999996e-01
   min_val1: -9.7999999999999998e-01
   max_val1: 9.7999999999999998e-01
   training_params:
      train_method: BACKPROP
      dw_scale: 9.9999999999999995e-07
      moment_scale: 9.9999999999999995e-07
      term_criteria: { epsilon:1.0000000000000001e-05, iterations:100000 }
   input_scale: [ 2.4233645651466393e+01, -2.5652273477411520e+00,
       1.1604906507364696e+01, -1.6583749557810066e+00,
       2.5940841765417552e+01, -3.2477309473991678e+00,
       1.3940285658808383e+01, -1.9845806032424864e+00,
       2.2366599818633130e+01, -2.8023806954548434e+00,
       1.8512464267050490e+01, -1.8482394035406284e+00,
       2.0974577648146802e+01, -2.6454911857097789e+00,
       1.6263253320087479e+01, -1.9914552014154971e+00,
       1.9500994158860934e+01, -2.7287103031378228e+00,
       1.9937745451486197e+01, -2.0447470268496502e+00,
       2.2095018928473070e+01, -2.8519969077148803e+00,
       1.7121274058143293e+01, -1.8916806653462457e+00,
       2.3188876210684239e+01, -3.2496373762771218e+00,
       1.1830041486714387e+01, -1.5349621148610373e+00,
       2.3848032352878594e+01, -2.5847370532780660e+00,
       9.8946802613809819e+00, -1.4807427598421665e+00,
       1.5395250163554685e+01, -2.0750261567483523e+00,
       1.3215173732821242e+01, -1.9081622569950902e+00,
       1.5491262563343112e+01, -2.4253120667536461e+00,
       1.6822399302301410e+01, -1.6080531508877818e+00,
       1.4940749147940497e+01, -1.9748945909853581e+00,
       1.7301717201000542e+01, -1.5894273424656302e+00,
       1.6724053995799327e+01, -1.9469750163383723e+00,
       1.6736876177407765e+01, -1.7449670227136009e+00,
       1.4267833953106827e+01, -1.7850151337973337e+00,
       1.4616170952880255e+01, -1.3780469906933264e+00,
       1.4655806511416163e+01, -1.5115826417201752e+00,
       1.4341169075833585e+01, -1.4224415110488129e+00,
       1.5042848660589838e+01, -1.7152829399992298e+00,
       1.4151366583420293e+01, -1.7739237477161813e+00,
       1.4736335625817667e+01, -2.1461825839219340e+00,
       1.4616160570808468e+01, -1.4196160909285036e+00,
       1.5368801722226381e+01, -1.6164272836580285e+00,
       1.4420023998237932e+01, -1.5193531044169994e+00,
       1.3845736687701653e+01, -1.7317595884188819e+00,
       1.3262437817634327e+01, -1.4065595428979558e+00,
       1.7091846999225755e+01, -1.8688527157035992e+00,
       1.5569066444613993e+01, -1.4108871179716829e+00,
       1.3398730589723732e+01, -1.3810702152901708e+00,
       1.2675067729795396e+01, -1.5135223812911172e+00,
       1.9379055570019812e+01, -2.1125564505775025e+00,
       1.7223288135955286e+01, -2.0194204063031931e+00,
       1.5917167774674398e+01, -1.7640997066239361e+00,
       1.3803570299504113e+01, -1.6977498302653304e+00,
       1.9041337514629415e+01, -1.5008718287107441e+00,
       1.4053301950525251e+01, -2.0406799754405278e+00,
       1.2695798807005234e+01, -1.8863492535389825e+00,
       1.3917691821837282e+01, -1.4851323326890338e+00 ]
   output_scale: [ 5.2631578947368425e+03, 5000., 5.2631578947368425e+03,
       5000., 5.2631578947368425e+03, 5000., 5.2631578947368425e+03,
       5000., 5.2631578947368425e+03, 5000., 5.2631578947368425e+03,
       5000., 5.2631578947368425e+03, 5000., 5.2631578947368425e+03,
       5000., 5.2631578947368425e+03, 5000., 5.2631578947368425e+03,
       5000., 5.2631578947368425e+03, 5000., 5.2631578947368425e+03,
       5000., 5.2631578947368425e+03, 5000., 5.2631578947368425e+03,
       5000., 5.2631578947368425e+03, 5000., 5.2631578947368425e+03,
       5000., 5.2631578947368425e+03, 5000., 5.2631578947368425e+03,
       5000., 5.2631578947368425e+03, 5000., 5.2631578947368425e+03,
       5000., 5.2631578947368425e+03, 5000., 5.2631578947368425e+03,
       5000., 5.2631578947368425e+03, 5000., 5.2631578947368425e+03,
       5000., 5.2631578947368425e+03, 5000., 5.2631578947368425e+03,
       5000., 5.2631578947368425e+03, 5000., 5.2631578947368425e+03,
       5000., 5.2631578947368425e+03, 5000., 5.2631578947368425e+03,
       5000., 5.2631578947368425e+03, 5000., 5.2631578947368425e+03,
       5000., 5.2631578947368425e+03, 5000., 5.2631578947368425e+03,
       5000. ]
   inv_output_scale: [ 1.8999999999999998e-04, -9.4999999999999996e-01,
       1.8999999999999998e-04, -9.4999999999999996e-01,
       1.8999999999999998e-04, -9.4999999999999996e-01,
       1.8999999999999998e-04, -9.4999999999999996e-01,
       1.8999999999999998e-04, -9.4999999999999996e-01,
       1.8999999999999998e-04, -9.4999999999999996e-01,
       1.8999999999999998e-04, -9.4999999999999996e-01,
       1.8999999999999998e-04, -9.4999999999999996e-01,
       1.8999999999999998e-04, -9.4999999999999996e-01,
       1.8999999999999998e-04, -9.4999999999999996e-01,
       1.8999999999999998e-04, -9.4999999999999996e-01,
       1.8999999999999998e-04, -9.4999999999999996e-01,
       1.8999999999999998e-04, -9.4999999999999996e-01,
       1.8999999999999998e-04, -9.4999999999999996e-01,
       1.8999999999999998e-04, -9.4999999999999996e-01,
       1.8999999999999998e-04, -9.4999999999999996e-01,
       1.8999999999999998e-04, -9.4999999999999996e-01,
       1.8999999999999998e-04, -9.4999999999999996e-01,
       1.8999999999999998e-04, -9.4999999999999996e-01,
       1.8999999999999998e-04, -9.4999999999999996e-01,
       1.8999999999999998e-04, -9.4999999999999996e-01,
       1.8999999999999998e-04, -9.4999999999999996e-01,
       1.8999999999999998e-04, -9.4999999999999996e-01,
       1.8999999999999998e-04, -9.4999999999999996e-01,
       1.8999999999999998e-04, -9.4999999999999996e-01,
       1.8999999999999998e-04, -9.4999999999999996e-01,
       1.8999999999999998e-04, -9.4999999999999996e-01,
       1.8999999999999998e-04, -9.4999999999999996e-01,
       1.8999999999999998e-04, -9.4999999999999996e-01,
       1.8999999999999998e-04, -9.4999999999999996e-01,
       1.8999999999999998e-04, -9.4999999999999996e-01,
       1.8999999999999998e-04, -9.4999999999999996e-01,
       1.8999999999999998e-04, -9.4999999999999996e-01,
       1.8999999999999998e-04, -9.4999999999999996e-01 ]
   weights:
      - [ -8.5477860944834866e-02, -1.0408255630734535e-01,
          -1.1012208968614266e-01, 5.2068596636519804e-02,
          -1.1417253452094493e-01, 4.4391876912234951e-02,
          -1.5083501856361917e-01, 1.8404537013175046e-01,
          -2.6903388043197043e-02, 9.0403301026070623e-02,
          -1.0757079117887636e-01, -1.3799009410973730e-02,
          3.8758295042460145e-02, 8.2525768149931414e-02,
          -1.5904183613807718e-01, 1.9209012051466132e-01,
          -3.3415320203779776e-02, -8.5320747492381027e-02,
          2.4618434189516716e-02, 1.1764817010637309e-02,
          5.7800423053697973e-02, -4.1176775104272041e-02,
          1.4742981944687311e-01, -2.1998895194041362e-01,
          -8.9996036548754280e-02, -5.8354512136743905e-02,
          1.6840162094394426e-01, -2.2951014849591175e-01,
          -9.5397736654158766e-02, -5.8270193808352081e-03,
          -9.8973934705555108e-04, 8.9694566810382056e-02,
          2.0716714121997057e-01, 7.1175512900410506e-02,
          9.5565705618869574e-03, -1.1264949763478652e-01,
          -1.7417392849680383e-01, -2.6067399597107504e-03,
          -2.3555081227933333e-01, -9.1993061945925200e-03,
          1.2680483952897278e-01, 1.5353181394045920e-01,
          -7.7779549957474381e-02, 1.0786572934133834e-01,
          -7.9726851668255633e-02, -8.0848621982375093e-02,
          1.2130393981917993e-02, 1.4249423657077839e-01,
          7.8523716975845426e-02, -1.8107634556346250e-01,
          3.0568505101159504e-02, -2.0253409091823271e-01,
          8.4454337347174863e-02, -1.7327766441042181e-01,
          -4.8577791055782596e-02, 1.3102285951706510e-01,
          -6.4396836822536899e-02, -8.2234090392324904e-02,
          -1.1684118419334347e-01, -1.5170125916429206e-01,
          1.0373208343997527e-01, 1.3826301482318853e-01,
          -1.0360596887856981e-01, 7.5661473697803225e-02,
          4.3769700270503802e-02, 1.4904408831882338e-02,
          2.5160463052212184e-01, -2.1473708772242189e-01,
          3.6578678223808718e-02, 5.7008236570855360e-02,
          1.5219405805213203e-02, -1.1116566513013930e-01,
          -9.5285551428875723e-02, 1.1382427455610116e-02,
          1.4363019247253378e-01, -4.7325308457582739e-02,
          -1.7115096316235895e-01, -1.1221091261519442e-01,
          3.5041045978024876e-02, 7.6898777392337882e-03,
          -2.1172209242478962e-01, -1.8692781081870743e-01,
          -1.1302740966988332e-01, 1.6837052425027901e-01,
          -1.3237881615636704e-01, -1.2082038146769587e-01,
          -8.4841798778562977e-03, -3.2181119291578429e-02,
          -9.2056109494966828e-02, -9.0888724804349175e-02,
          3.2029048865259169e-01, -7.9775036896784404e-02,
          1.5636361408920649e-01, -2.5222047554616306e-01,
          1.3489026577763371e-02, 5.1268689315473973e-02,
          7.1470045810798855e-02, 7.1211322763370805e-02,
          1.6037094437869751e-01, -6.4264711709731276e-03,
          -8.1574117956324133e-02, -2.1083415436545747e-01,
          1.3497866354037172e-01, 4.1943980499503229e-02,
          1.5316040419661872e-01, -4.9979895188803102e-02,
          5.5802239618133499e-02, -5.3543171553307517e-03,
          -2.0634495707355826e-02, 1.6271980539029796e-01,
          2.9912262316820065e-02, -1.3583653250236932e-01,
          -1.1326859911914450e-01, -5.7355881721807299e-02,
          1.3867983969744110e-01, 1.4217713778808558e-01,
          -2.8358810482760406e-02, 1.7792585780217934e-01,
          9.8846709677362407e-02, -4.7955724998268993e-02,
          2.5194243443142839e-01, -9.4660776294528307e-02,
          -8.7114532865668726e-02, -2.6396598689311407e-01,
          -5.8641268307183692e-02, 2.4075547421100976e-02,
          6.3321506696780536e-02, 8.0767290885218446e-02,
          1.9076258141373881e-01, 1.7307760516607366e-02,
          4.0736137263540517e-01, 3.4938033389333700e-01,
          -9.7915984444809714e-02, -6.0473552142129766e-02,
          -6.3349945109482247e-02, -5.8366921728658254e-02,
          -1.4146742539546689e-02, 3.2966784565103588e-02,
          -3.0287021854830364e-02, -8.8228412060269851e-02,
          -2.8054157497991195e-01, 1.2616851045914204e-01,
          1.3291807842649833e-01, 2.3716457144171043e-02,
          2.7339249822737216e-01, -4.2652989748164796e-02,
          -1.8287715348857411e-02, -5.1205934923490751e-02,
          7.8587088445234987e-02, -1.4636079820193604e-01,
          1.3039396899929401e-01, -8.6128263745733083e-02,
          -1.4013779574890958e-01, 2.1671927116980145e-02,
          7.0234565976925678e-02, 1.0212953570176429e-01,
          6.7421537923941136e-02, -2.3595278876369289e-04,
          -2.5393284835230151e-02, 6.1544889613120719e-02,
          7.6702229428767393e-02, 8.6380002549899026e-02,
          -5.9531248651699772e-02, 2.5555355815736203e-01,
          -2.6187794883124976e-02, 2.4465329189105450e-01,
          1.8717907369857539e-01, -1.7414303168961715e-02,
          1.1011501317277539e-01, 1.8079387205330211e-01,
          -6.4125733131972965e-02, 1.1276078460914900e-02,
          3.5495750875280743e-03, 1.7961532191235621e-01,
          3.0071616524747630e-02, 7.4701047955217995e-02,
          2.3176326635508171e-02, 9.2485903367646297e-02,
          -1.2304834263936897e-01, 6.4855802071387331e-02,
          8.7688430703270079e-02, 2.6274922792208466e-01,
          -2.1175796583395110e-02, 1.9367931587546050e-01,
          -7.7476523303389236e-02, 1.6625677020322530e-01,
          -2.0186592578601309e-02, 1.9627865696397614e-01,
          6.8779956709347390e-02, 5.7530631581167765e-02,
          -7.5658326162737363e-02, 1.6048159286866487e-01,
          1.4528300181388504e-01, 1.4244414699848618e-01,
          -2.0548801536280872e-02, -2.0268292060005169e-01,
          1.0245088616496567e-01, 9.4267916313427416e-02,
          -2.7828774511414592e-02, -8.0019502920958080e-02,
          2.0563362014256706e-01, -1.2477809952689987e-02,
          -1.2282181269640426e-01, 2.2379179124649273e-02,
          -4.4045413861215243e-02, 4.3966944448181916e-02,
          1.7243023913416047e-01, 2.0237014861419642e-02,
          2.1157248864754921e-01, -4.6156002905865155e-02,
          6.8664251066343329e-02, 9.5402291039376318e-03,
          -1.5072136620024304e-01, -1.3241327490629459e-01,
          1.0826561737341850e-01, -4.9488282343944590e-02,
          -1.2822233954737289e-01, 1.5440182450606528e-02,
          -4.7488864129160500e-02, -2.6185160496166993e-01,
          -8.6428487532707356e-03, 1.8741515272267020e-01,
          -9.7722135913871383e-02, 5.7916032326860781e-03,
          -1.8693630515043785e-01, 1.8257674530003867e-01,
          -1.7086877579358639e-01, -1.9326910355706575e-02,
          -7.7023616637384371e-02, -7.5230688651397482e-02,
          -1.3554542535661188e-01, 2.6778456428985291e-02,
          -1.3102541096796649e-01, 3.8863480812999313e-01,
          -3.4065210212701585e-01, 9.1518490823435834e-03,
          -1.1941015824409320e-02, -3.1118764658672114e-02,
          -9.6524044445835344e-02, 1.1795488936943993e-01,
          -1.5057030829921980e-01, -2.5653800185852275e-02,
          -1.5002741187490831e-01, 2.1871709290392800e-02,
          2.0099309859154691e-02, -2.3888603448430323e-01,
          -4.4706973831761740e-03, -7.7204326272456797e-02,
          -1.0645881801129009e-03, -3.4370304445600929e-02,
          -1.7735098526971546e-01, -1.0077308968756936e-01,
          -1.7128263975280941e-01, 1.0853692517959250e-02,
          1.4094957453351295e-01, 2.0490565747695941e-01,
          -1.3327804758387476e-01, 1.6070898640842904e-01,
          -3.3838291784529517e-02, -4.4677330074758895e-02,
          1.0804632836364599e-01, -1.1850137629314798e-01,
          1.7074125681257299e-01, 6.0066716049769861e-02,
          -6.3023643245605165e-02, 5.6416379251408875e-02,
          -1.4493741850360994e-01, 1.6726425940839995e-01,
          -5.7968281418753244e-02, 1.1380248576426477e-01,
          -5.0581847865980988e-02, 1.3318273254352503e-01,
          9.2006856876519300e-02, 2.7850990880112236e-01,
          5.9504313219642231e-02, -5.4085125011479135e-02,
          1.5153754408273976e-02, -1.6969306154192290e-01,
          2.7182903049005884e-02, 8.9631071024663847e-02,
          -2.9077138267506169e-03, -5.1309234928173630e-02,
          3.8990371239869703e-02, 1.7407422983554903e-02,
          -4.8979852907397675e-02, -1.6052054240218785e-02,
          9.3904450021437380e-02, 1.3425593018673926e-01,
          -3.1330007780253799e-02, 1.7263201060883024e-01,
          -4.5597007215427185e-02, 1.9067248127786440e-01,
          -1.5159457758621220e-01, -4.0307009712491288e-03,
          1.5121892700804770e-01, 1.5758067670625198e-01,
          1.9358051233894250e-01, -7.4787331454676184e-02,
          -1.2936984334757576e-01, 3.3646738701042421e-02,
          -1.1004286971281384e-01, 1.0413424327887182e-01,
          2.1784994139422606e-01, -1.9286216134821949e-01,
          9.2016573564047924e-02, 3.2941346040846919e-01,
          -1.6216675595950603e-01, -1.4796235053429971e-01,
          -1.6835944960172326e-02, 1.2205746631867279e-01,
          -1.8405351652059271e-01, -8.1610134622846844e-03,
          9.0085463097530349e-02, -4.0382626507561824e-02,
          -4.9979255655575101e-02, -4.1357658321345636e-02,
          1.0687953894865970e-01, -6.5831067369088558e-02,
          3.6939026734899405e-02, 3.6114386012406609e-02,
          -1.1871412075765111e-02, 1.5838988131246051e-01,
          -1.7498523596271322e-02, 9.2815550958260190e-02,
          -3.4669628752775225e-02, 8.5972189953929620e-02,
          -2.5007223994802871e-02, 6.5987557190086990e-02,
          -9.8143662078280028e-02, -1.2292147113580456e-02,
          -2.2954787942842372e-01, -4.5590492918768211e-02,
          -2.1619075807781160e-01, 1.4656347293533450e-01,
          -1.1061706056982100e-01, 6.2796640449314281e-02,
          8.4342701720406865e-02, 1.6093386028404025e-01,
          9.8640128962842244e-02, -9.8994478824252052e-02,
          -2.3849138208818153e-02, -1.5856782713371065e-01,
          1.8839383568353807e-01, -1.7572818964117681e-01,
          -1.1960869517757319e-03, -7.5224951314723605e-04,
          1.1970530766891507e-01, 1.3826503672903770e-01,
          -1.1302273672910951e-01, -5.0394439318899475e-02,
          -2.8747583075077043e-01, -1.4647443072744049e-01,
          9.3617522900253158e-02, -1.9539041541830525e-02,
          -4.2986899174852253e-02, 1.3742064895736919e-01,
          1.1847103342519875e-01, -3.9731429067672358e-03,
          3.6636819699539299e-03, -7.6881643678467851e-02,
          -1.5036934897757889e-01, -3.0452224621310087e-01,
          1.8722912581205206e-01, 6.2994766861546370e-02,
          -1.3914416064378396e-01, -1.2116003711045295e-01,
          9.3280256862532357e-02, 1.2246143150770825e-01,
          -8.5927015313376320e-02, -1.1561859251045024e-01,
          9.3828412134213487e-02, -6.8760427264010479e-02,
          -2.5502809425655245e-02, 6.0337771625752261e-02,
          -2.1549873710774811e-01, -7.7181115700531003e-02,
          2.4525621006471762e-02, -3.2547696643345433e-02,
          -1.3670881198197599e-01, 5.3348176265436024e-02,
          1.1809462355070885e-01, 6.4521154417610402e-02,
          -1.2018857974080754e-01, -8.3646948155357434e-02,
          1.1241163464828285e-01, -6.4795829003645708e-02,
          -9.7887038277658003e-02, 3.4620951966545487e-03,
          -6.2208898281345688e-02, 5.9341134360820967e-02,
          -2.3573832742771345e-01, -8.8882903157502718e-02,
          -8.5744712626321426e-02, 9.4796855158486321e-02,
          -1.6900051654400455e-01, -1.0267556201381726e-01,
          -1.3846364855296023e-01, -1.1279641261438873e-01,
          -6.5950850328433896e-02, 1.6782078011053211e-01,
          -5.7844770510247771e-02, -9.7549344561194164e-03,
          -2.4627962628848376e-02, -1.1267419732890273e-01,
          8.7702200514420417e-02, -2.3779560486065848e-01,
          -1.2009074116352621e-01, 5.1958237800216918e-02,
          -6.7107983851147204e-02, 1.6899525232328787e-02,
          -1.8123710777102661e-02, 1.3947974301554408e-01,
          -6.5730940397599372e-02, -3.6768940661551446e-02,
          -1.7904241125635174e-02, -6.7274320453299771e-02,
          -2.7020596571299965e-01, 6.9678195603041532e-02,
          2.5133104457081507e-01, -1.5655178852498852e-02,
          1.0756844710531305e-01, -1.0123593606529556e-01,
          9.4079981046914160e-02, -2.6909033901173805e-02,
          1.4868666973122630e-01, -1.7523158441008199e-01,
          9.5570677839670187e-02, -1.7400516896094714e-01,
          -1.3778939246639416e-01, -1.0653208122257092e-01,
          -2.9797698771131653e-02, -6.6892873887253040e-02,
          6.9531256389419482e-02, -2.2917641735424141e-01,
          1.1584786276574470e-01, -6.2959112189004771e-03,
          1.3673346017751309e-01, -1.1685983166067189e-01,
          1.0604538186529733e-01, 1.0826643736615517e-01,
          3.1001460879508780e-02, -6.9661677135219799e-02,
          -6.0229240919923342e-02, -1.5503530636360424e-01,
          -1.1209506908205624e-01, 2.2566488132076765e-03,
          -4.8738708117933537e-02, -2.3522872999802137e-02,
          6.4936276282547556e-02, 1.0799256288661706e-01,
          6.5650995538859974e-02, 4.7484376095849677e-02,
          3.4904581586169214e-02, -1.1041939494583997e-01,
          3.9828807599930488e-02, 1.3862006051978734e-01,
          2.1371630624153592e-01, 4.8243509036361695e-02,
          5.5131881524506973e-02, 1.4069720226342858e-03,
          -9.5027028183023082e-02, -2.1700921184664535e-02,
          -3.6595133072023930e-02, -5.3309513465679075e-02,
          7.9963458315560534e-03, -2.1501270300585344e-02,
          3.2965572324123740e-02, -2.7881181843870906e-01,
          -2.1465578972091375e-02, -5.7527132448518412e-02,
          2.3485127986627954e-01, 1.0052242066323859e-01,
          1.9194138750767498e-01, -1.2487865385861553e-01,
          4.2247350790111160e-02, -2.8689970440266421e-01,
          9.5693827296130254e-02, -3.2236873506145104e-02,
          5.9959548253992884e-02, 9.9451898327417965e-02,
          6.9494689230802598e-02, -6.7491113223437219e-02,
          -7.2817181430237049e-02, -5.5336201498398456e-02,
          1.0361529831756588e-01, -4.0732271122535864e-02,
          3.5755232869521714e-01, -6.8516969345051457e-02,
          1.8551021055461989e-01, -6.2464863278322028e-02,
          1.6679616284328935e-01, 1.1660926563424662e-01,
          1.4805545916362053e-01, 1.6815435530208700e-01,
          1.8298175692811794e-02, -2.4303508615116050e-02,
          2.2385151910016274e-01, 8.2954721409516638e-02,
          -1.7413711989481474e-02, -2.7648429939629549e-01,
          7.1138910417023443e-02, -3.9040746176615619e-02,
          4.0445474281598703e-03, -1.0695872238537825e-01,
          -9.6742343527944294e-02, 1.3095129887054397e-02,
          5.2825300604334192e-02, 8.4719957493842327e-02,
          2.1962897386917829e-01, 2.1731081735151780e-01,
          1.1648793802188102e-01, 1.1326573693021888e-01,
          1.1286944234205383e-01, -1.9163849842982605e-01,
          2.1069814432803263e-01, -6.0794778296191426e-02,
          6.3131715422835494e-02, 9.4820958690087512e-02,
          1.0553413915819676e-02, -2.1541170850525021e-01,
          -9.8056896045869021e-02, 1.0723853784767620e-01,
          3.2253324564311223e-02, -1.2459991392948086e-01,
          -5.4871890624867650e-02, -2.9787880012273678e-02,
          -2.4663679551906945e-02, 7.4383514104791257e-02,
          -1.7037935885464728e-01, 2.2223558087659923e-01,
          9.8186958741007316e-02, -6.5843589046172254e-02,
          -2.8477927340565538e-02, -4.9372744886619732e-02,
          2.5654492400489631e-01, 4.1988026089086208e-02,
          -2.0490392845376118e-01, -8.6678489519437601e-02,
          -2.5895423728143635e-01, -1.7393712385155627e-01,
          2.0122060884081594e-01, 1.0141567966925746e-01,
          1.9037686392755299e-01, 1.1336074506911198e-01,
          -1.2411484625765293e-01, 1.9568463921330867e-01,
          -6.4257185534500244e-02, -1.3978431112168307e-01,
          -5.8869045829835591e-02, 1.5504943596732880e-02,
          -3.0742978313123382e-02, -8.6341069746404125e-02,
          -1.8834430939923258e-01, -7.5692688404345801e-02,
          -2.1347221303284619e-02, 3.1980539098398215e-02,
          -7.1932923091810166e-02, 2.6590379737670145e-01,
          -7.5351248318120401e-02, 9.6590196321002367e-02,
          -1.8936485312576057e-01, 4.6711862068533703e-03,
          -3.2939197854951308e-02, 4.9279131180798685e-02,
          -4.9080934464525328e-02, 1.2530303339286769e-01,
          -1.3459659978795946e-01, -2.9942979714859261e-04,
          -1.8173176457534257e-01, -8.2311978887894183e-02,
          -1.4630403090631547e-03, -1.3081385319303954e-01,
          2.1246695023509854e-01, 2.7236400882360007e-01,
          -1.0696313672741195e-01, -3.4396580951074368e-02,
          5.9691051130417332e-02, -3.1381979349403843e-01,
          7.6019429691533469e-02, -7.8504949953067636e-03,
          1.1402830386079182e-01, -2.6184096140732860e-01,
          1.5333561201512780e-01, 1.1437603819677418e-01,
          1.7489257056821409e-03, -4.5898711169628723e-02,
          -9.3057985003598298e-02, -8.1905917213451057e-02,
          -3.8624052670467569e-02, -1.4607224132222821e-01,
          -1.0622630897602384e-01, -9.6693693010189239e-03,
          -1.1480880282389309e-01, -8.1782123104708324e-02,
          -1.2132822889187184e-01, 1.3650193277394240e-01,
          1.8537870885527138e-01, 5.3804881904766948e-02,
          1.0997061593113902e-01, 1.6261902298263720e-01,
          1.1156663262710332e-02, -1.9670504605968442e-01,
          1.1820131608134930e-01, -2.1594787213221191e-03,
          1.9280830263837877e-02, 7.8820241298210483e-02,
          -1.7579078176077287e-01, 2.1603465626928861e-01,
          9.1897890769501792e-02, 1.4987631680489027e-01,
          -1.5160561717974336e-01, -3.4281180262502514e-02,
          7.0249284466352882e-02, 2.3478332350879241e-01,
          1.4037631013416027e-02, 1.1676104324381624e-01,
          -1.6259276223969232e-01, -7.6040567526849595e-02,
          -1.2525076342100117e-01, -9.6331279634740835e-03,
          6.4530581099641646e-02, -1.0097885519669947e-01,
          -1.1090721725001391e-01, -1.1573018690074725e-01,
          -1.2234431454366673e-01, -1.6385790184707576e-02,
          -1.4172090176102020e-01, -2.3171966050426196e-01,
          1.4350243531692211e-01, 2.3588631481387454e-01,
          -3.3052182030027931e-02, -1.8737990239009770e-02,
          1.1664972978479425e-01, -5.6240194587567896e-03,
          9.0338984565642919e-02, -5.6873189697131928e-03,
          2.2282973771390886e-02, -6.2399831180579818e-02,
          -2.3897037868756063e-02, 1.3392702509888738e-01,
          -9.4600675338081669e-02, -1.2710169332843702e-01,
          -8.1383632683632606e-02, 2.8586177877312109e-02,
          8.9048057688893650e-02, 8.7164123323403703e-02,
          -1.9381441565668256e-01, -7.1361963520040109e-02,
          7.1716267860178567e-02, 1.6009563542298641e-01,
          -2.6775887724779783e-02, -2.4902447324397514e-01,
          4.3434469890774895e-02, 2.3459883997343979e-02,
          -2.7178194797704735e-02, 6.3698515092924651e-02,
          4.6501957944713405e-03, -1.8304577247355039e-01,
          -2.7795107632747490e-01, -8.0241286661373534e-02,
          3.4289723596685578e-01, -1.1295589928956709e-01,
          -3.1156950297674690e-01, -8.6463885329671517e-02,
          -1.0089445596853060e-01, 2.3469145934007277e-01,
          2.0429128782967022e-02, 7.6941818208532417e-03,
          -1.6824122168809022e-01, 3.0336190990154867e-02,
          -1.5732060260966411e-03, 6.4186834691946040e-02,
          1.0269205706529666e-01, -1.1199022435590085e-01,
          -1.1613674458482695e-01, 5.4238259291929580e-03,
          -1.2383395611413779e-01, -4.1780639949804840e-02,
          -6.8682635908987417e-03, -5.6557045540990530e-02,
          -5.5997226558244129e-02, 8.4730267444660390e-02,
          -5.8692691805470300e-02, -1.2626198611474595e-02,
          1.4315203932534165e-01, -7.2230144839195695e-02,
          -6.6429024733284978e-02, 3.7238349832058336e-02,
          -1.7708121296576634e-01, -1.2047165807668009e-01,
          1.7272209001276892e-01, 1.4174911648880820e-01,
          -1.1565716598962358e-01, 6.1186023245452713e-02,
          9.3378733427277871e-02, 6.9173445253535359e-02,
          1.4615325868767313e-02, -1.0865980201836060e-01,
          -1.7649582597702312e-01, -1.1904696209366941e-01,
          1.7163410062909024e-01, 2.0810445308793041e-01,
          4.5244018456247360e-03, 1.5577535136863918e-01,
          -1.3805295377041127e-01, 3.6664810652979038e-02,
          3.9389228545539438e-02, -5.2790278254222139e-02,
          -8.0811172045696184e-02, -2.1621866523504976e-01,
          -4.4178591068983343e-02, -1.1101677637083240e-01,
          -8.0982973781749068e-02, 2.9763460836395119e-03,
          2.3544499420554442e-02, -2.3697669267409482e-01,
          -2.2420064718198537e-01, 3.9789899021510618e-03,
          -5.9098705940273895e-02, 1.7214249801915981e-03,
          -1.7681373499150729e-01, 7.6483046917238673e-02,
          3.3718437920284831e-02, -7.7652220794038095e-03,
          -1.2183186838479566e-01, -1.0023889335034829e-01,
          -1.1109377332207994e-01, -6.4815864315641236e-02,
          1.7050391738159896e-02, -9.4470729393167210e-02,
          9.0852539018404024e-02, 2.1053658523655133e-02,
          5.7609289470466320e-02, 1.4580637238192964e-01,
          1.9930042492869784e-01, 1.6473953814316791e-01,
          -2.7174611836354928e-01, -1.5701354932222741e-01,
          1.8688994584212769e-02, -1.6513131613112603e-02,
          -5.5355532077957244e-02, -5.3126986297620173e-02,
          -1.0807349741403065e-01, -1.0495757454285572e-01,
          1.8522625565475567e-01, -8.5541177666665344e-02,
          -1.2490078539241198e-01, -1.9375483860835280e-01,
          -1.2495448698639011e-01, 7.0977100394873205e-02,
          2.4721976957531275e-01, -2.2662874311994294e-01,
          1.2235438656344407e-02, 5.5039146942178332e-02,
          2.9153785136710984e-02, 7.1173974749037180e-02,
          2.3512088539332385e-01, 8.7330520158343819e-02,
          -1.9220010904394177e-01, 1.3742733290858752e-01,
          -8.0488835669230759e-03, -5.6483711524114043e-02,
          -5.6033661790683746e-02, -6.0153283783613296e-03,
          -1.5295732612520538e-01, -3.8335929505708639e-02,
          -8.6266380253238517e-02, -3.9492291559307093e-02,
          3.2345258242973476e-02, -2.4236635445866621e-02,
          7.5764254795586655e-02, -2.6710381851718250e-02,
          1.6658357110174635e-02, 3.0928226547941303e-02,
          -1.2179826216881831e-01, -4.6787803058707597e-02,
          5.2856832213754958e-02, 7.5660861874022628e-02,
          -9.3459061845223845e-02, -6.0731338144800286e-02,
          -1.4786108163134160e-01, -6.2996274493682461e-02,
          -2.3138915008184313e-01, -7.5859805116749363e-02,
          -2.4648083341323587e-01, 3.8391413927055314e-02,
          -1.2150620293133779e-01, -1.5709155659539312e-01,
          -2.2843362120372709e-01, 6.8084856598593674e-02,
          1.0068044548605752e-03, -3.8815886580207529e-02,
          2.3781036633906780e-01, 8.2583791768505804e-02,
          1.3867291258151307e-01, 7.5543532834387514e-02,
          8.6330991368790008e-02, 1.5952624236946245e-01,
          1.0093613950399054e-01, 1.0094952937150686e-02,
          1.1822319360821218e-01, 1.2225247047660722e-02,
          -3.2508309541688575e-02, -1.9456383539110031e-01,
          1.6744589134284524e-01, -6.6004565929725853e-02,
          -1.5958541776618990e-01, 1.1195755796565086e-01,
          -2.3541034760428761e-01, -1.2041039539877318e-01,
          2.6440418402779003e-01, 1.3744183546918917e-01,
          5.5825665349491189e-02, 2.1921988897323189e-01,
          -7.1290572465181334e-02, 8.4732958758003421e-02,
          5.9473637585478939e-02, 2.1341346243183881e-01,
          -1.1004169491505743e-01, -1.0405573836473185e-01,
          -3.4518716921037813e-02, -9.4317128402780240e-02,
          -1.1177418685689329e-01, 7.6478339514951157e-02,
          1.6489075441109691e-01, 3.9504245330389945e-02,
          8.9529288948952901e-02, 3.0320858441625236e-02,
          -3.0630681225475308e-02, 5.9547676193871864e-02,
          1.5531853789926964e-01, -2.2655255342772590e-01,
          9.8304076252043446e-02, -7.0902652039181543e-02,
          6.0363501396798684e-02, 1.6549417873433822e-02,
          -2.1497338572869495e-01, 5.5927048639613841e-02,
          4.5625434786260140e-02, 1.5724069450747388e-01,
          -2.2545105028799650e-01, -3.9971713735677213e-02,
          2.8750175525149316e-02, -1.0301678367595961e-01,
          -9.8239819464402592e-02, 2.4171474317419775e-01,
          -1.4237640285664795e-02, -1.2055339530366582e-01,
          2.9256632805670764e-02, -2.1267395892575236e-01,
          -4.9372186328971029e-02, 5.6078558271777023e-03,
          -1.2212201196726492e-01, 1.3621193717028154e-02,
          -5.4847427961678505e-02, 1.1874466080967316e-01,
          1.6313715346836896e-01, -2.1309791256793187e-01,
          -2.4038638885024811e-02, -7.8058443083405593e-02,
          -2.1368017981251961e-01, 1.4117218630547335e-01,
          1.0674527979366082e-01, -1.2292133691951047e-01,
          -7.1671137871785001e-02, -7.5063754795622523e-02,
          -2.0011609669434480e-01, 4.3407672033673420e-02,
          3.5206783023010030e-02, -3.7281046561620207e-02,
          3.8687316422180151e-02, 1.2528403029782764e-01,
          4.2840637206549542e-02, 1.7147034448296325e-01,
          3.0177799486230950e-02, -2.0032973551705725e-02,
          1.8055986265491647e-01, 2.9244413362400339e-02,
          -3.0948877559447554e-02, -3.9158832808932849e-02,
          1.6021935079966909e-01, 3.0970046790968084e-02,
          1.8740320006966593e-01, -2.2524940067747187e-01,
          1.2130229468712203e-01, 2.1325636937301828e-03,
          -1.1490612590741449e-01, -1.1783267067385844e-01,
          1.5341159777688435e-01, 1.2453625705560811e-01,
          6.2107492967221310e-02, -3.1784176387084855e-02,
          1.6520736134365867e-02, 7.7903978714679550e-02,
          8.3670879164842851e-02, 8.9689673090153757e-02,
          4.8131541278532496e-02, -7.1770533478009990e-02,
          -5.7777596766166076e-02, 3.7401205179742941e-01,
          -2.5172581412166789e-01, -1.4875901694684805e-02,
          -1.7355473065178489e-01, -1.1113759395461616e-01,
          1.0607030508534758e-01, 1.8953322440922186e-02,
          -3.2153566199960612e-02, 2.2115977983711135e-01,
          -3.9163511705515887e-02, -9.9588006501967238e-02,
          7.0127419233305191e-02, 2.9944857016550582e-02,
          6.3829957414070063e-02, -7.5563239472644969e-02,
          -7.6105176224360860e-02, 1.4460698415309811e-01,
          1.9458761484799844e-01, 1.4964690311194146e-02,
          1.2899351542848020e-01, -4.8073521702828241e-02,
          1.6638857668763152e-01, 3.5690119806781849e-02,
          -1.2355779484484722e-01, 5.3837800649763741e-02,
          5.3499847142917223e-02, -1.5713205841031111e-01,
          -3.0947567382781191e-02, 1.5255922048620810e-01,
          -4.4095497204941603e-02, 6.4455537059799006e-02,
          -1.5517884505563956e-01, 1.1944687732241090e-01,
          -2.0039820664675118e-01, 1.1332524965877058e-01,
          -3.7052851661344983e-02, -7.8968578170277165e-02,
          6.0121120976902073e-02, 6.0853660101273216e-02,
          -2.6270594084880559e-02, -9.7611626185241190e-02,
          -1.0400193197547723e-01, 1.5094604474188286e-01,
          -1.3509096561404377e-01, 1.7537095904489575e-01,
          -1.3515753075644510e-01, -5.2959705043053688e-02,
          -1.1227994127341701e-02, -1.3134069410895743e-01,
          5.9822153528413885e-02, 8.5053339352554214e-02,
          -7.2037129864875898e-02, 4.4428016765066171e-02,
          -1.3916101709008485e-01, -3.8769048296988760e-02,
          4.6116520669368534e-02, 2.1609501111306481e-02,
          -1.2228265678494188e-01, 1.0210012052877206e-01,
          7.7443407733279124e-02, -1.5250619163719964e-01,
          4.1163613332945111e-02, -1.3965091987008804e-01,
          -1.2798619112231985e-01, 5.0409829824570512e-02,
          -3.3394585679044408e-02, 8.1796923191774396e-02,
          1.0343200570791172e-01, 1.4871522601213802e-01,
          -2.8316117534841574e-03, -9.1849492536342933e-02,
          -4.8859231740985463e-02, -1.0115254916925251e-01,
          -1.7839348282888556e-01, -5.1535295799848738e-02,
          -4.2275918110955532e-02, 7.6378646813499984e-02,
          -4.4267654537789497e-02, -8.4215339363860359e-02,
          5.3574468066687423e-03, -7.3010341543492702e-02,
          -1.0854655027629764e-01, -3.8042682017658078e-02,
          1.2397248353393735e-01, 7.5828888278028361e-02,
          -6.2878338619862294e-03, 7.6695252915180548e-02,
          -5.4819618035226399e-02, 2.1449705070335479e-01,
          2.7967047689755403e-01, -8.0693621745099794e-02,
          -1.1167918385162823e-01, 2.4994633590692836e-01,
          4.4141444113761467e-02, -6.4174775724194999e-02,
          6.5019241271929942e-02, 5.6130428782693198e-02,
          -9.8557264727930124e-02, 5.5549710411207098e-02,
          -1.3226718144652641e-02, -1.1479451897335793e-01,
          1.5149936643427506e-01, -8.6739698759132778e-03,
          -2.4832954010314504e-01, 3.5262539237792274e-02,
          1.9497040349718364e-01, 1.0081582518638517e-01,
          1.3776745086963038e-01, 6.3721716857682839e-02,
          2.3477540881575748e-01, -1.7893454622161642e-01,
          -2.4607116043308345e-02, 3.5958912517230199e-02,
          -1.4057092152034414e-01, -1.2116843067941242e-01,
          3.4981741599938804e-01, -6.7950465505970618e-03,
          1.7453514337342418e-01, 2.3063538160839991e-01,
          -9.0106039214818343e-03, 5.4405241554002497e-02,
          9.9800939986787879e-02, 1.1861172091082790e-01,
          9.7683424626111751e-02, -7.9098316834921037e-02,
          -9.5083122910294138e-02, -1.4784765129009976e-02,
          -7.7960713075062416e-02, 1.4409506274458592e-01,
          -2.7766688715160678e-02, 1.3856484194609092e-02,
          1.6166014525020136e-01, -1.6940521932764191e-01,
          -1.1311093842971676e-01, -1.2365425690110081e-02,
          -1.1142536279329159e-02, -7.4256016023211358e-02,
          -5.5060386931155359e-03, -1.9663961841196598e-01,
          1.2837984527263269e-01, -1.9114776384351906e-01,
          6.9353214723846479e-02, -1.2189152065284563e-01,
          1.4024318127770777e-01, 1.0971898892027582e-01,
          -1.1991848433411405e-01, -4.0008864082515430e-02,
          1.2438382473040228e-01, -1.2912326264461489e-02,
          9.8704644098551966e-02, 1.0969640237432889e-01,
          -2.2188338238856248e-01, -3.9323954417576641e-02,
          -6.5137005777260143e-02, 1.4421867196540283e-01,
          6.4704716737680468e-02, -3.3725832447479551e-02,
          -4.2725741187130857e-02, 1.7027497016063375e-01,
          -7.9597888374229014e-02, 1.5429236319566828e-01,
          -4.7999047040240723e-02, 1.5033546494348096e-01,
          1.1161398456148161e-01, 4.9965436899860827e-02,
          -7.6842061680726992e-02, 1.9082614144458302e-03,
          2.6685543054978882e-02, -1.1952020637528396e-01,
          7.1682152025301787e-02, -2.9895361040264669e-02,
          1.5577647257179174e-02, 5.8916707287979099e-03,
          8.0383531829548716e-02, -8.1530856271928983e-04,
          1.4932798069718697e-02, 3.3235888083506399e-01,
          -6.6479880703006295e-03, 4.6207267386797401e-03,
          7.4587875897598577e-02, -3.1135896075767883e-03,
          1.3607427815274412e-01, -4.8705236955829290e-02,
          -1.2102866685663402e-01, 1.4066867373848849e-01,
          3.1578180089883653e-03, -7.9153243102862814e-02,
          -1.6844338027281816e-01, 8.3939339122958576e-02,
          -2.5139297715833966e-02, -4.1778677899100253e-02,
          -1.3403862449764352e-02, -1.6902854066392279e-02,
          -9.0230630888292404e-02, -1.1482404605381100e-01,
          1.5885637964939198e-01, 6.5387125450963410e-02,
          -1.5157407068030027e-01, 2.2771623229614676e-01,
          7.0369498390017342e-03, -1.8494490800443679e-02,
          4.9475469854978006e-02, 5.4754536258620812e-02,
          5.5962041178870971e-02, -1.3069854616351106e-01,
          4.8486813640622579e-02, 4.6909189430961409e-02,
          -1.0274255656048717e-02, 6.6466678524002024e-02,
          1.8087246040764116e-01, 7.5168342035560149e-03,
          -7.9802783251383086e-04, -1.3439161398193686e-01,
          -5.2153417996911949e-02, -4.3340636787695987e-02,
          2.2661290980054957e-01, 1.1284819720309268e-01,
          -5.1495773109211392e-02, 2.9299245011680377e-02,
          8.8891542649142230e-02, 3.0450224836307777e-01,
          2.7899370794781362e-02, 5.7891545407378370e-02,
          -8.0412159437428618e-02, 1.1677702900546838e-01,
          -4.0422602483157162e-02, -1.5780198560638801e-02,
          2.3022873547627012e-01, 1.4053589833709051e-01,
          4.4423666991010111e-03, -7.3118706494772950e-02,
          -9.4426456616330076e-02, 3.6943996662162991e-02,
          3.4538455744486218e-02, -1.9372166963319964e-01,
          3.5259559110240112e-02, 6.7898103978997523e-02,
          -1.7708008449056681e-01, 3.4299808179693726e-02,
          9.4868493017117084e-02, 9.8963876656739933e-02,
          1.0175589521591739e-01, -2.0017114660135265e-02,
          -5.6861333389129744e-03, -1.3940088757646765e-01,
          -5.9324592496237033e-02, -9.5029620925309297e-02,
          2.8739311351212989e-02, 1.4473134477234215e-01,
          -1.3482990847479201e-01, 8.4105399022411473e-02,
          6.1965808796169114e-02, 7.9181223841493092e-02,
          -1.6408474258980535e-01, -6.8945187095908786e-02,
          -7.0803592689804393e-02, -1.5321634662044806e-01,
          1.5521791705253479e-02, -6.6677712741247452e-02,
          1.4327676141478321e-01, 6.1799200537442506e-03,
          -1.3918947215056690e-01, 1.4329418596501733e-01,
          -1.0750395669835781e-01, -1.9491499442036313e-02,
          -1.5431074122580962e-01, 8.4510642071298769e-02,
          -1.5903666820645160e-01, -2.1903269038197198e-01,
          2.0819856466798917e-01, 2.1609723624039423e-01,
          -1.1216579028984447e-01, -5.6759145622676095e-02,
          8.6060892275756168e-02, 9.0883057553591606e-02,
          2.1004719546828493e-01, -5.2524613604747236e-02,
          -9.4020613720011859e-02, -5.7437422623919182e-02,
          -3.2344752725691019e-02, 4.4212820399639349e-02,
          1.4087453663289734e-02, -1.3094006223605242e-02,
          1.4030621346860253e-01, -1.1899137185724419e-01,
          1.1395305323220811e-01, 3.1109422199351713e-02,
          -1.0492634333321768e-01, -5.7116663413610720e-02,
          6.1049822476886050e-03, -5.3526379430527356e-02,
          4.1970534768016765e-02, -1.0542095672073598e-01,
          1.5739026718529217e-01, -1.2708513256050064e-02,
          1.6605912375691527e-02, 2.3576157453062227e-01,
          2.0949672149867395e-02, -3.5218760713847954e-03,
          -1.3290946024096126e-02, 3.0521177369222885e-02,
          1.5508372724421504e-01, -2.4228751754524814e-02,
          8.5747260647921226e-03, 7.7794593582847585e-02,
          7.1164968477670815e-02, -4.8418919784135331e-02,
          5.4624714875228186e-02, -8.9434350403803778e-02,
          8.4128256654174005e-02, -1.1013019816937922e-02,
          -1.0070019366527322e-01, 9.3515420569099048e-02,
          -1.1583659878842622e-02, 1.0998304917285825e-01,
          -1.0390462063402006e-01, -2.3773142290239489e-02,
          -1.3025315369759163e-01, 1.0219032326824389e-01,
          -7.1574533517475419e-02, 1.1076534144003505e-01,
          9.8884954932302094e-02, 2.4831949198992959e-01,
          -5.0487386197707963e-02, -1.1339191382858971e-01,
          1.2176375969253432e-01, -7.1930319024042330e-02,
          6.2464236026750233e-02, 2.1743848817523184e-02,
          1.8251803492631863e-02, -1.1035578567669227e-02,
          3.9578496652732074e-02, -6.3722645805178835e-02,
          1.5907629879044050e-01, 2.9232962210433176e-02,
          8.0818537862008641e-02, 1.3686309606082744e-01,
          -2.2868337486620552e-02, -2.0909757849384310e-02,
          -4.0833378976988799e-03, 8.3918996573312546e-02,
          2.2523924248540159e-03, 9.3460243787968397e-02,
          -3.8015709315085418e-02, -8.4503983742258315e-02,
          6.3262744611519262e-02, -7.6489722956887385e-02,
          -2.5643239461142425e-02, 1.7914011278523845e-01,
          -2.1423372909357068e-02, 5.3737941841480050e-02,
          -1.7169084244543048e-01, -8.9134599902429723e-02,
          2.6300465261025179e-02, -1.5646737679259071e-01,
          4.5711923501910508e-02, -1.7296272457547435e-01,
          -1.1230406750339048e-01, 3.6243708371178927e-02,
          4.5432159075260894e-02, 1.3970388811841318e-02,
          -3.2289446072467071e-01, 1.1140384105473310e-01,
          1.5685892944273791e-01, -1.3217848544239977e-01,
          3.1703318399421782e-02, -1.9951747167865369e-01,
          1.1613667627744727e-02, 8.8347127549784910e-02,
          -1.7526936155259298e-02, -9.8043028882938013e-04,
          5.0809740569429912e-02, 9.7822107802809644e-03,
          -4.6326470919838221e-02, -1.3181545040532584e-02,
          -2.1252604637976690e-03, -1.2304726311225352e-01,
          -1.2309575613928746e-01, 5.9236104367643025e-02,
          9.0398681785594567e-03, 3.0175845879657229e-02,
          4.3044903661912194e-02, -1.1192779180398400e-01,
          -1.4250229503524626e-02, 9.6084150901538466e-03,
          3.1760575176744486e-02, 5.5245212207983299e-02,
          -5.8837465733126128e-02, -5.2547614350211713e-02,
          4.8996477961875250e-02, -1.3562275362102930e-01,
          4.2285378143394267e-03, 7.6508547445337471e-02,
          -1.7067469920052796e-02, -8.7418149863478387e-02,
          2.0099298661179468e-01, -2.6090659405493136e-03,
          -1.6314860803826919e-02, -4.7193892552745156e-02,
          -4.4729338519834468e-02, -2.9812688130427246e-02,
          -1.1624169835820874e-01, 1.2964713016158763e-02,
          9.5636240037186793e-02, -1.6925680910886065e-01,
          1.0021232789023422e-01, -1.1239317350078359e-01,
          6.1346666008335507e-02, -7.0093606828833588e-02,
          6.2024406698384354e-02, 7.9844370780863955e-02,
          -3.0227818374940669e-02, -8.6294805763621456e-03,
          1.9062379279676375e-01, -1.8728852802720064e-01,
          1.0749607942546686e-02, 1.1658725181758635e-01,
          -3.5129874906524285e-02, -4.6017355202265364e-03,
          8.5738418573262976e-02, 3.3978745108554649e-02,
          -3.7444896366624991e-01, -1.5606172881105551e-02,
          3.8977191756145009e-02, -8.1248132131801223e-02,
          9.2704090680376855e-02, -9.5200867519735066e-03,
          2.9612101808713259e-01, 6.1562594558607062e-02,
          1.0661525484334071e-01, 4.9004426945857694e-02,
          -1.9747910461089932e-01, -1.2762135154560785e-02,
          2.2622487185092466e-01, 5.0162649635200854e-02,
          1.4767366243919719e-01, -7.9147944698150410e-02,
          1.3651848436418876e-02, 1.2562529217547141e-01,
          -9.2034279970324373e-02, 3.5608309874213886e-02,
          -9.6544838101103814e-02, -7.1504879487516186e-03,
          1.8846255912123017e-01, 9.6238989310993908e-02,
          -1.6861857924728268e-01, 3.5318855273694390e-02,
          -3.7243269668089780e-02, -6.6017245188227727e-02,
          -1.0343485672392019e-01, -3.9577004033783156e-02,
          -2.7843242799774431e-01, -2.1927033189302371e-02,
          1.2570616881493790e-01, 3.4169987480275547e-02,
          -9.8749208157696976e-04, 1.6497932981359945e-01,
          5.5365880129288760e-02, 1.6792033130081055e-01,
          -1.4226072881535565e-01, 5.2005002726485131e-02,
          -8.1117310865942236e-03, 2.4032457866845832e-04,
          1.1673767808897677e-01, 1.6284910916247439e-02,
          1.6193171441252088e-01, 4.4589512202106621e-02,
          -1.1804278054071667e-01, -8.6166421059011997e-02,
          6.4976886488716246e-02, -3.5335734350997821e-03,
          -1.4874560841444484e-01, -1.8461499357443426e-01,
          7.1892600738774792e-02, 1.7263041617737573e-01,
          -6.3507847924913152e-02, -1.0758543004971316e-01,
          -1.2512400934130741e-02, 2.4746042827330398e-02,
          1.3220440968280758e-01, -2.4260396654242893e-02,
          8.9934517151965293e-02, -2.1321723046106734e-02,
          -8.3009857478801394e-02, 5.0654930762088331e-02,
          1.8335382539402484e-01, -6.5393354016764129e-03,
          -1.8629546991846599e-01, -4.2545887140279424e-02,
          1.6367284151755004e-01, 1.5626608104754444e-01,
          3.7512352177602147e-02, 8.4189757988613230e-03,
          -3.5072097111950619e-02, 2.8289242824785898e-02,
          2.1830737322990571e-02, 1.2153830231673902e-01,
          1.2258352203114791e-03, 3.9468041825363030e-02,
          -1.7570707430542057e-01, -2.0820907608973174e-01,
          1.6346157319367596e-01, -9.6529335895560925e-02,
          2.3134759164419729e-02, 1.7102730277164313e-01,
          -1.0262484517769643e-01, -1.8643088436156480e-01,
          1.3892442615691861e-01, 1.4098117274282043e-01,
          9.9220955848981621e-02, -1.3974187730817283e-01,
          1.4020048990611002e-03, -5.2153050800506147e-02,
          8.6529062683163099e-02, -2.5405914091233814e-02,
          2.2438426023298996e-01, -4.0566630769979586e-02,
          8.4984963842841960e-02, -1.2448047775314071e-01,
          -1.1320745649497043e-02, -9.5337952754256799e-02,
          -2.1318249122577695e-01, 8.0152051596548715e-02,
          -9.5865327890486129e-02, 1.7385097581113767e-02,
          8.1051430378097492e-02, -1.5681913409918358e-02,
          -1.6439625675361680e-01, 3.0439650967103749e-01,
          1.8675112641323324e-01, 3.7155170395264164e-01,
          -2.9297922065077479e-02, 2.0704996230959940e-03,
          5.8637703428383162e-02, -1.6393923489177614e-01,
          -1.1234697511749335e-01, -2.6984416452728877e-01,
          2.8284675101714496e-01, -2.5280950908636787e-03,
          7.8136335943478449e-02, -2.4376070794410974e-02,
          3.7880312402537683e-02, 2.9397933437286139e-01,
          -7.3866216543528207e-02, -6.7320183100770495e-02,
          -9.7742177504710856e-02, 4.5507654728034259e-02,
          9.5961679836918338e-03, -6.4528345222335831e-02,
          2.6517713340628690e-01, -6.5836147162336156e-02,
          1.0292482613380001e-01, -6.5650728855809262e-02,
          2.9169379654095013e-02, 1.1787230119405456e-01,
          -2.9625462773228434e-01, 1.3672028877908335e-01,
          -8.8511141888850578e-02, 4.6039096837072573e-02,
          -6.0561001754053222e-03, -3.2580230455260026e-02,
          1.1922051850809247e-01, -8.0319121548872496e-02,
          1.2997542909370693e-01, -1.3904950064074695e-01,
          8.5143592361196868e-02, -1.5973144203047024e-01,
          -5.2967454532984903e-02, 2.7277411216514247e-01,
          -8.3299012152882143e-02, 1.3461207623039256e-01 ]
      - [ 3.1628865424659253e-01, 1.6890283899563662e-02,
          2.6290851117072134e-01, -2.4800727166301700e-02,
          -3.3320877833319806e-01, 7.7287565593903818e-02,
          -1.5238758350795828e-01, 3.3128457380866188e-03,
          -6.8080636564404565e-02, 2.0882561286548162e-01,
          2.1198978610604760e-01, -1.8830084192785995e-01,
          -3.0225755250935266e-02, 1.9029267292520002e-01,
          -7.7248182912340216e-02, -6.7013194345604626e-02,
          6.3662265339638063e-02, 1.2283388079447867e-01,
          -1.4692276149948774e-01, -1.7269531196118085e-01,
          1.0017494228725536e-01, -5.8691447018495314e-03,
          -4.6562327412495261e-02, -1.5693214589107973e-01,
          -6.1101892219095101e-02, 2.7499250137504344e-01,
          -5.8923386612569198e-02, -3.8210395472010461e-01,
          -1.3643332403521005e-01, 1.1712585185415215e-01,
          1.8122509695823991e-01, 1.6355689901363971e-01,
          -3.2996581497438712e-02, 1.4508197339759571e-01,
          2.5147518902071858e-01, -1.0363467364868631e-01,
          -7.6295312054745781e-02, 2.3544876239463461e-01,
          -5.3495547396339660e-02, 2.3221419531612839e-01,
          -1.1760039123957856e-01, -7.5232723192431961e-02,
          -1.6822165757617377e-01, 8.5118567203615839e-02,
          -3.4598554545313707e-02, 6.3397964076169364e-02,
          6.9003143033985401e-02, -4.4878543735304685e-02,
          -5.1531214498641224e-02, -1.2274182728152812e-02,
          2.7583197386803970e-01, -2.0148059974536173e-01,
          2.9399321607046631e-02, -1.9667812392546988e-01,
          3.8333802913145099e-01, -3.0502597633641865e-01,
          1.2901029316419674e-01, -3.6099313890782248e-02,
          7.1270004794698597e-02, 5.3276915040484429e-02,
          -3.9354810550964014e-01, 7.4092881544057868e-02,
          5.7273120479761130e-02, -7.7737843431866559e-03,
          1.5959978203849948e-01, 1.6092487827360124e-02,
          -1.9487815438219949e-01, 6.2058211546574878e-02,
          6.8389512033441485e-02, 7.7708410010504644e-02,
          -3.0148838860396845e-02, 1.3652554198421993e-01,
          -1.1888347944580367e-01, 2.2349334301649074e-01,
          -7.2108577938912080e-02, 7.7700525449226940e-02,
          8.4166294915298451e-02, -2.6492336034681141e-01,
          2.3782259242172827e-02, -1.1343226883817777e-02,
          -1.2932809828686145e-01, 2.2768913870787230e-01,
          3.2133165393461260e-01, -1.4554400018958319e-01,
          1.2080927229102990e-01, 3.9599593369008451e-01,
          -1.5757896466531318e-01, 2.0020431812844790e-03,
          -1.0560175745337043e-01, -2.1788412063640983e-01,
          -2.2162431203515007e-01, 1.2072846361615512e-01,
          -1.6115345922943269e-01, 1.0071552226218365e-01,
          1.3799734961637705e-01, -7.8736853080882782e-02,
          -5.2563064745209127e-03, 1.4579880945342405e-01,
          3.1518037079914590e-01, 5.8691762752106698e-02,
          2.8809816915221848e-02, -7.7911692587384604e-02,
          3.8703353217699527e-01, -1.0190809555664022e-02,
          -1.7254895039423240e-01, -2.3064708406889534e-01,
          -4.8382779492913627e-02, -1.8511017077456376e-01,
          -2.0758015766341537e-01, 5.5296390935835840e-02,
          -5.3943010147668211e-02, -2.1932644056015960e-02,
          -2.3562490038132700e-01, 2.0048513334273237e-03,
          -4.0803798042319331e-02, 3.4799515969194741e-02,
          1.6817684587237551e-03, -7.0040909774495785e-02,
          -1.8438801046167977e-01, 1.9386753108452648e-01,
          -9.1443083941865257e-03, -1.0886769720705125e-01,
          1.7293189514196481e-02, -2.2750087176578926e-01,
          1.5799769982880080e-01, -5.2257742427266926e-02,
          1.5944383915378318e-02, -2.2744923314058182e-01,
          -2.8100691117484849e-01, -1.7223911972095298e-02,
          -1.2109854733409722e-01, -5.2322780192861483e-02,
          3.4520163777232026e-03, 1.4789645968215340e-01,
          3.0348080975907334e-04, 2.1127698222623401e-01,
          2.6003835653516316e-01, 4.6773799685933246e-02,
          1.8757691108793326e-01, -2.4073468481280411e-01,
          -1.8808924564560064e-01, 1.2131212850659982e-01,
          -5.0094716011859039e-02, -1.7720572656322983e-01,
          2.2376196888211974e-02, -1.1829969698863468e-01,
          -9.5465485960253019e-02, -2.8859693448894164e-02,
          -3.1768666012903818e-01, -1.9417311520505905e-02,
          2.5343369086948642e-01, -1.3571631740081767e-02,
          3.4232315843098687e-01, 8.7513091615562824e-02,
          -6.9654047941149601e-03, -3.1477205392587169e-04,
          -2.1281764239371739e-01, 3.3602826279499134e-02,
          1.3355966990000906e-01, -2.9205600123418807e-01,
          -1.0023992464221969e-02, 2.3586882281307134e-01,
          1.5022536908662446e-01, 7.0695633381589559e-02,
          1.1871032614093417e-02, 1.3525605044612851e-02,
          7.4182092028719032e-02, -9.5102044657962417e-02,
          1.0765010005175178e-01, -6.4761779049936449e-02,
          1.9737351872102105e-01, -1.6705528058902300e-01,
          -3.9677344932156196e-02, 1.0554489034599217e-01,
          1.3239491990020597e-01, 3.8115536046433550e-03,
          -2.8338462803528375e-01, -2.4902122843902202e-01,
          9.3926158883152575e-02, 2.5933846033857108e-02,
          1.3244166498057118e-03, -3.8837162076433888e-02,
          1.6488924263706639e-01, 6.9419206620543322e-02,
          -1.1071844991046963e-01, 3.3539595183591558e-01,
          2.4674935317286756e-01, -1.9424603905400442e-01,
          1.3387923725496900e-01, 1.9450036507483096e-01,
          6.6181197222594995e-02, -1.4995367429421752e-01,
          6.7297799796369635e-03, 1.4035102837516061e-01,
          -7.9939106491946060e-03, -1.9409452313480913e-01,
          4.2365850126257693e-01, 1.9807006468170067e-02,
          3.0408016475193483e-01, -9.6709116723232610e-02,
          -3.6620939286320285e-02, -9.3234558351129732e-02,
          4.1390697132173575e-02, 2.6065350437643731e-01,
          -6.5800890348073279e-03, 6.1758373025910085e-02,
          1.5017307505720623e-01, 2.0039437678803595e-01,
          -2.2197363620494345e-02, 8.4071160567245576e-02,
          -1.7643445591161464e-02, -9.0356225191003003e-02,
          1.0321784628218948e-01, 3.2475307067328107e-01,
          1.7722580069764300e-02, -1.4293946547706075e-02,
          -3.3143149543195488e-01, -1.0373843989249794e-01,
          -2.2620115503234436e-01, 6.3299561565946183e-02,
          1.7670184233283745e-01, 1.8987538890400738e-01,
          6.6869384138622839e-02, 6.4049571965158189e-02,
          2.3974202511606851e-02, 1.9291619253636602e-01,
          9.6748666837241107e-02, 1.8964910504345406e-01,
          -2.1543295604969329e-01, 2.9150134604473882e-01,
          -1.1674038093309992e-01, -1.7655338363976697e-01,
          -1.0433914615320798e-01, 2.8122980225715660e-01,
          -1.8248391119663737e-01, -2.9353558013809237e-02,
          5.1662667780707154e-02, 1.5667188866580939e-01,
          -9.7354874810563652e-02, -1.7653549181278941e-02,
          2.3371004697089590e-01, 2.9960411504930961e-02,
          5.4430612169700091e-02, 6.9798353217849246e-02,
          3.8143950599648863e-03, -5.9392296306329528e-02,
          2.0920358799037385e-02, -1.3286348668715700e-01,
          -8.0545907245323928e-02, 3.1546526370467398e-01,
          -2.5989847924351445e-01, -7.6982354511532791e-02,
          1.4321602738558972e-01, -1.6285055215696898e-01,
          5.2351952217398828e-02, 2.9350969267837850e-02,
          5.0173317922136149e-03, -1.1349489306592452e-01,
          1.2918909925532385e-01, -1.0555126225098960e-01,
          7.9532312323872742e-02, 7.2544688254035719e-02,
          -2.6866851577579901e-02, 2.1780273445339307e-01,
          2.1275346040966334e-01, 5.5451114683165766e-03,
          -1.3574999246939043e-01, 2.1964372293350048e-02,
          -4.7491542325895399e-02, -2.0734472697852202e-01,
          1.7140412883058658e-02, -1.7441193607617314e-01,
          -5.4854548354792747e-02, 1.8690255253243337e-01,
          -5.0662799018963922e-02, 5.4015847068881295e-02,
          1.4493873188501283e-01, 7.2442206415985477e-03,
          -1.2601695668710447e-01, -1.0361900280321917e-01,
          -7.5396565244202435e-02, 8.5998931597223285e-02,
          6.6527423978970768e-02, -1.7553224184394642e-01,
          -2.1201211907846212e-01, -1.2769126100336373e-01,
          7.7881442129942038e-02, -7.8927676856835410e-02,
          -9.8910383839559135e-02, -1.2490732510819634e-01,
          -2.2503174573040474e-01, 9.4553485833516054e-02,
          4.4815019074459776e-02, 1.5257459141387159e-01,
          -1.0415564369505549e-01, -1.0328760920830293e-02,
          -3.8539136503543087e-01, -1.0319029515708912e-01,
          -4.9351220331000728e-02, -1.5535399988210019e-01,
          1.0509291629993572e-01, 1.8543420133531263e-01,
          7.1339162580567231e-02, -1.2711754192127035e-02,
          6.8315978920875042e-02, -5.8380307889596618e-02,
          -1.8072975263566982e-02, 1.9824099471628917e-01,
          9.1482610141835743e-02, 1.3966092869747262e-01,
          -5.2825164433134356e-02, -2.2097704614588873e-01,
          -5.9818814061432433e-02, 1.6779518914672151e-01,
          -1.3144736626644674e-01, -2.4132174056889169e-01,
          -2.2416716964494729e-01, 2.1875364080542387e-01,
          -8.6396530923106826e-02, -1.1412690632437866e-02,
          -4.8585286794507375e-02, -2.3355720853625131e-01,
          2.0970356682743627e-01, 1.4610027182555460e-02,
          -2.1409113679768257e-01, 5.0434719650647296e-02,
          -1.0468736313492127e-01, 2.1812736613974923e-01,
          -7.6322209882239020e-02, -9.9189872640227175e-02,
          3.1984670509412433e-01, -6.5094783992886845e-02,
          1.2447625883102328e-01, -2.2315853188741280e-01,
          2.3137472078482457e-01, 4.9100453560212108e-02,
          -5.7015146086740305e-02, 6.0244639392971019e-02,
          -1.7634728489453488e-01, -5.7589410831059791e-02,
          1.6645762123135083e-01, -1.9556854087307632e-02,
          1.8177477005151674e-01, 1.1451636564072028e-01,
          -4.4878234793926747e-02, 1.7822074880006450e-02,
          6.9141630676193860e-02, 1.2797542642347073e-02,
          -1.4703280002568254e-02, 1.2811141497065429e-01,
          8.2069317633715264e-02, -1.3499524481371708e-01,
          -6.7066923601096784e-03, -1.7200543432911836e-01,
          -1.7627565825164279e-01, -2.5924871980532649e-01,
          1.5971475690206327e-01, 4.9725775034009906e-02,
          -1.4087632894880797e-01, -2.7344081332106501e-01,
          -9.3467147417488086e-02, -1.9081363041860923e-04,
          -3.7658092197230701e-02, 3.7299175362998499e-01,
          -1.6315943685947221e-01, 5.0698005250657038e-03,
          -8.6286925601135211e-02, -8.1525225744209284e-02,
          -5.2119332356638723e-03, -1.5452584819236920e-01,
          -3.9525152628209083e-02, -1.4459778068213985e-01,
          1.5014159042356573e-01, -4.0854163208552730e-02,
          2.6583928184226135e-01, -6.1999173201079581e-02,
          -5.4369839217795972e-02, -3.5796423241877273e-01,
          1.1363485732611293e-01, -3.6727903025462377e-01,
          6.9432804574972293e-02, -1.2378401217114869e-01,
          1.6439951764024405e-01, -2.1565051708953500e-01,
          -2.0947613712453564e-01, -1.0208139517410748e-01,
          -3.7493571313364511e-02, 1.9110000731823815e-01,
          -3.4797728226913495e-02, -6.8184832922491542e-02,
          1.2533685209962886e-01, -2.3716113425818805e-01,
          1.5076775084420962e-01, 1.0888757049917178e-01,
          1.2550650684937828e-01, -1.2003428517616663e-01,
          3.1142649822480251e-01, 1.9095886690149524e-01,
          4.0346571639659740e-02, 4.5644474810446485e-02,
          1.1169896806972299e-01, 9.8507130239623084e-02,
          4.3562079417798827e-02, -2.2621057848069323e-01,
          -4.3637278939142689e-02, -8.4917495432610592e-03,
          2.0574092452021206e-01, -5.5423999085720710e-02,
          -1.5568915242277981e-01, -4.1201271499745770e-02,
          1.1880794292040683e-01, -5.5866391340967166e-02,
          -5.3482229934018521e-02, -1.8178909080158359e-01,
          1.7002049038626548e-02, 2.3022910666091675e-01,
          -1.4036609623166782e-01, 1.6345971330992690e-01,
          1.0096796545056133e-01, -1.9562473223339061e-01,
          -4.6688152010098816e-01, -2.2953478879186895e-01,
          4.5585529511234957e-02, -5.9143228682599011e-02,
          -1.0386307758993807e-01, 1.4795380612490960e-01,
          -1.5946499028236763e-01, 1.3715817852012330e-01,
          1.0041036797982367e-01, 1.8935090609645044e-01,
          -2.2649030096597078e-01, 3.3637087896708474e-02,
          3.9806875610914387e-02, -2.2151057056009227e-02,
          -1.1364023490574569e-01, -2.2459109160899589e-03,
          -1.2315551746377594e-01, 1.6868072268531648e-01,
          9.5499174984450458e-02, -2.2552536717129743e-01,
          1.4659047247715981e-01, 1.5234851697038415e-01,
          3.8592675752160792e-02, -6.2573144446159079e-02,
          5.0473508253069232e-02, -1.9993252756648419e-01,
          -1.1512114793299130e-01, 9.9942486184158907e-02,
          -2.0957581102283178e-02, 1.5610582221021613e-01,
          1.1751631337231512e-01, -8.2542154310229821e-02,
          -1.0032561421284693e-01, -1.6543591347612641e-01,
          1.1718823563215587e-01, -7.3710799158866580e-02,
          3.7131336168020883e-02, 5.2009710944576092e-02,
          -1.1140061240167839e-01, -5.8564474506530448e-02,
          -2.5692713796246042e-01, 2.1655714688198965e-01,
          1.4722069296648191e-01, -6.0910887696674777e-02,
          -2.7319682101034689e-02, 9.5580942957199835e-02,
          -3.1996972786833174e-02, 1.5361138588372078e-01,
          2.2738527834321721e-02, -3.9314184881556906e-02,
          5.0288273115201870e-02, -1.2777748684678891e-01,
          -1.8530212912947802e-01, -1.2689572316220923e-01,
          -7.9263067266899523e-02, 2.2029623049592034e-01,
          -7.1857250443352703e-03, 1.9861656104839080e-02,
          1.4927149004659773e-01, 2.3332640241616207e-01,
          2.6815831717240246e-01, -2.0044191128778002e-01,
          -4.8015667860695908e-02, 1.8953314936913265e-01,
          -5.5042390317830703e-02, -7.2493169043403707e-02,
          -1.4725228826507177e-02, -3.3069061166488577e-02,
          1.2540812940734711e-01, -1.7707956069808820e-01,
          -1.1449324595814245e-01, -1.0513350545586587e-01,
          -3.8089802682219107e-02, 1.4901598968526336e-01,
          1.9497359457030367e-01, -1.3074968648951174e-01,
          5.9517887054647049e-02, 1.2495376960736279e-01,
          2.0512063408406125e-01, 2.6583847615636075e-01,
          1.7137674898066685e-01, 1.0899759245377948e-01,
          -1.4566276490355912e-01, -7.0980021812826911e-03,
          9.2666794955742454e-02, -6.9468216936276445e-02,
          -3.0938162422337345e-01, 1.5649193342057374e-01,
          -2.2786786333935849e-01, 4.2368388388742953e-03,
          -7.7787436183596737e-02, -2.3356100141377839e-01,
          -2.4551098511490216e-01, -1.3859721048127718e-01,
          -1.4762986171433529e-01, -1.2272521665813417e-01,
          -1.2028001299022648e-01, 1.4749125111639563e-01,
          -1.1533584388984541e-01, -1.0648226791940889e-01,
          3.3297862709723280e-01, -7.9658126401281670e-02,
          -2.7481050346626896e-03, -1.0970462655584359e-01,
          -8.3467380167670871e-02, -1.5657624328101485e-01,
          -1.3456946163387937e-01, -1.6068835269703122e-01,
          2.1386628083465233e-02, -2.6403534762160802e-01,
          1.2313107704481228e-01, -5.0363703086325297e-02,
          -7.5702657171905219e-02, 2.1007612657197938e-01,
          1.8000788650030072e-01, -2.1705873150637253e-02,
          1.5514380346832390e-01, -7.5432463433505285e-03,
          -3.3968312966960162e-01, -1.0219261729009331e-01,
          -3.4601176384558242e-03, -1.8366331452161028e-01,
          4.6693852561288905e-02, 1.0795628926978093e-01,
          1.3515016741929131e-01, 2.5299580110247327e-01,
          -7.2833955863325708e-03, 1.5480773568139561e-01,
          5.7444190075047974e-02, -1.6120029834732266e-01,
          -2.2337230412428288e-01, -1.8420359896917558e-02,
          -2.5381623222832417e-01, 6.0849184116378088e-02,
          -1.7499683706161018e-01, 1.2090798689654204e-01,
          4.1147345809112869e-02, 3.3986896227271690e-02,
          -6.6767770565263396e-02, -2.7487705720448740e-02,
          -4.4118902983956675e-02, -5.5022998686504974e-02,
          1.8027139496142600e-02, -1.0601011012529485e-01,
          1.0372172909607420e-02, -6.9524533955274498e-02,
          9.7537701109158131e-02, 9.1882240902863122e-02,
          -6.2748868321470183e-02, 1.7965181304708924e-01,
          -1.0888198560816024e-01, 3.0352101230824925e-02,
          -2.0019026188441469e-01, -3.6916184448971155e-03,
          -7.3515243056151897e-02, 2.9900794021641791e-01,
          -1.1714626663383974e-01, 3.9095935324862809e-02,
          -1.4466977925484628e-01, -2.1742937633944377e-02,
          5.0601042186659992e-02, 2.1220578420873340e-01,
          -1.1799814706460245e-01, -7.0042749254695877e-02,
          -1.6077043557355902e-01, 1.9710094681939902e-01,
          1.8517994336238477e-01, -2.3179231323232555e-01,
          2.4463280715682753e-01, -9.4473877324254732e-02,
          1.7948110447252236e-01, 3.0633560822976796e-01,
          4.5516907889150068e-02, 1.2881042933167910e-01,
          -2.1619654998181179e-01, 7.5549058961607810e-02,
          2.9367648235994148e-01, -1.6925910277795272e-01,
          -1.1645310999266141e-01, 7.7006479545437628e-02,
          5.4275965697727427e-02, -1.0631777405184269e-01,
          -6.9371618098851923e-02, 1.9285953110704609e-01,
          4.2366229567340069e-02, -1.0850801162324658e-01,
          -5.5342107047062113e-02, 6.9055355022384080e-02,
          -2.2440906586416182e-01, 2.8769562173293578e-01,
          1.2825652909313551e-01, 2.0842015708455977e-01,
          -1.5540482481214982e-01, 2.5182421045994052e-02,
          3.5512970470863231e-01, -2.9736694815021690e-02,
          7.9551033737935511e-02, -1.7321590959808705e-01,
          -2.3272863807464914e-01, -2.0287858542999231e-02,
          -1.2485927438853768e-01, 2.5674030306385886e-02,
          2.0956926429333417e-02, -1.7854525545304270e-01,
          4.8558696840175920e-02, -2.8233794112891130e-02,
          -1.1405740585878606e-01, 9.0798588674914638e-02,
          -1.1264874431410137e-01, 3.8194090000268793e-01,
          4.3196616489137063e-01, 3.0805603454756976e-02,
          -8.0995180275951262e-02, -1.3770352555285942e-01,
          -7.3919656639407028e-02, 3.0729244368458258e-01,
          -3.0064624610260098e-02, -5.8332781954003855e-02,
          -9.3085864919427733e-02, -3.9160732703228542e-02,
          -5.2868732646506267e-02, 1.7918631161174065e-01,
          -9.2690517468863934e-03, -1.1749228011900197e-01,
          1.3030082037029151e-02, -2.7357137464153281e-01,
          -1.0793023696628175e-01, -1.7009477794683878e-01,
          1.2250914936515542e-02, 2.6454160933727888e-01,
          -1.7503773995693325e-01, 1.6203386849956372e-01,
          6.1158701349499439e-02, -1.1291418620674447e-02,
          8.5702197604056590e-02, -1.3022688259448778e-01,
          8.2920667095831624e-02, -5.8863974234144252e-02,
          2.3656666020205885e-02, -1.4469125077823411e-01,
          -1.4798825416072683e-01, -2.7132779616406259e-02,
          -9.5819303455473417e-02, -1.9156511454378994e-01,
          2.9332621144386099e-03, 1.1243396142279209e-01,
          -5.8705588512506915e-02, -1.8851412931423553e-01,
          -1.4854198810298494e-01, -3.9092571552963785e-02,
          -5.4514639807662583e-03, -1.7292116109284755e-01,
          9.1655702094455921e-02, 2.0967488440327464e-01,
          -1.1420694625029909e-01, 2.0241505570889623e-01,
          1.2961737247312560e-02, -6.1196843882916165e-02,
          -1.1620842604670845e-01, 6.2579141437922011e-03,
          1.6445173365817015e-01, -1.1221248511719573e-01,
          6.3384413142014775e-03, 2.5637334119382887e-01,
          2.8588753502609008e-02, -9.5001507188549147e-02,
          -2.8851891865373647e-01, 1.3195616939036209e-01,
          1.5962493929764818e-01, 1.6486849715007468e-01,
          -1.3202421981185658e-01, 3.6513790854584804e-01,
          2.2626448152410800e-01, 3.7773848326695897e-04,
          4.6340708359971609e-03, -2.6687988357679330e-02,
          -1.2862284089576492e-01, 1.3450998426732222e-01,
          -1.3761351155427534e-01, -6.8220980016369434e-02,
          1.6104113982893659e-02, -1.2858420279850860e-01,
          -2.1895920302348207e-01, -2.5676275945654270e-01,
          -1.4872628080529818e-01, 2.2226953607660745e-02,
          1.5562150824921264e-01, 6.9830679711599619e-02,
          2.8044212669560326e-01, 1.1282031037895639e-02,
          -2.0414141896054325e-01, -3.3483866109362598e-01,
          -3.3278071151514466e-01, -1.8092345832183326e-01,
          -5.5440169654185294e-02, 2.8473462162909854e-02,
          -7.8783060523440779e-02, 2.7368165642955682e-02,
          4.8215518795941596e-02, -4.1609018858499033e-02,
          2.7580299451518597e-01, 9.0999333301929691e-02,
          -1.0712388544416314e-01, 4.5026132575148904e-02,
          1.4525857264291453e-01, 4.5570882954332134e-02,
          -1.1749221963193088e-01, -1.6918252885011834e-01,
          8.3666990197544672e-02, 2.1396702179571500e-01,
          -1.2801822914190561e-01, 4.1281308307044440e-01,
          -1.2590255974503861e-01, 2.5768308841932895e-02,
          -9.1267904085554144e-02, -1.8520776922574531e-01,
          -1.2594482909676805e-01, 7.9409745543518789e-02,
          -1.1975492797709113e-01, -9.4840056744380855e-02,
          3.5690450818787867e-01, -5.4871998898837780e-02,
          2.2109882891026533e-01, 2.2951102090371902e-02,
          -2.1483182683027963e-01, -1.2983875293009339e-01,
          2.7791295124940135e-02, 5.1219942289379511e-02,
          -2.0444466144563869e-01, 5.4392046794154117e-02,
          -2.6336743651981143e-01, -1.1063273248617169e-02,
          -2.1035204387011186e-01, 2.2284694514631154e-01,
          -2.7614286911457651e-02, 6.6498417486396816e-02,
          -1.1740433587497072e-01, -3.6525739905411647e-01,
          -9.2320154739680929e-02, -1.3839547353352688e-01,
          -1.5645879057205575e-01, -1.7918856904655336e-01,
          -8.6246599516126898e-02, -1.5706487935023505e-01,
          -2.1389887183179093e-01, -1.0623098240375224e-01,
          -2.0016909227771058e-02, -7.9711196261741765e-02,
          -1.6986954206116103e-01, 2.1142607316464582e-01,
          2.2386358356857033e-01, -1.1814920091062246e-01,
          -1.2101686380688211e-01, -1.5610378941341455e-01,
          2.7095042835307084e-02, 1.9985118442605918e-01,
          1.3639945767571491e-02, -1.9432237618830797e-02,
          -2.3790962816007455e-01, -2.1148547381552477e-01,
          2.1379493195663118e-01, 1.2908073917158225e-01,
          1.3554896089992780e-01, 1.0005820109032759e-01,
          -1.5455014668474962e-01, 1.3578127694576372e-01,
          3.7323651963815756e-02, -7.2033367149496761e-03,
          -3.9067964758015120e-02, 1.1419707225992561e-01,
          -1.0322377525189681e-01, 3.5345352032592620e-02,
          2.3131281222748543e-01, -1.3757454048714191e-01,
          -1.5218645860419405e-01, 2.3852071089258162e-01,
          -7.5003663239777849e-02, -1.8032533449592864e-01,
          -7.0482165152067372e-02, -1.1358545899271259e-01,
          -1.1249393325626392e-01, 1.3489122755417195e-02,
          -1.3582477196535559e-02, -1.1302026272404344e-02,
          3.6376493921312747e-01, 1.9042186921947166e-01,
          1.1590134352166744e-01, 2.8375579883934343e-01,
          -2.6042128734714287e-01, 1.6731280812344049e-01,
          2.5894535929284856e-01, -1.4324252544179725e-01,
          2.6009013497925865e-03, -1.0431123286046716e-01,
          8.9589578247880941e-02, -9.4603963890952603e-02,
          -1.2761721939074930e-01, -1.5269975821023399e-01,
          2.8608063490460089e-01, 1.3228476055926409e-02,
          4.4957128800510254e-02, -2.5406798316180636e-03,
          -3.7989080793142732e-01, -9.0699051889129689e-02,
          8.9695835790800468e-02, -7.9160623380233303e-02,
          -9.4698968700103997e-02, -7.2071728410809291e-02,
          5.3715767293055269e-03, -1.7421386872591477e-01,
          -1.1389845800479728e-03, -1.1656422807218809e-01,
          -2.7289738570517563e-01, 1.3410207424958276e-01,
          9.3091030148293508e-02, 6.6871355121240952e-03,
          -1.0729616998812855e-01, 1.6137788090138930e-01,
          -3.4407630328648013e-02, 1.7992764636360223e-01,
          1.4829208201890703e-01, -2.6135136672473946e-01,
          2.7979737197374599e-01, 4.4997367529544800e-02,
          -7.6139248316544381e-02, -1.0426308674885676e-01,
          -3.3404519126816923e-01, -1.5794214174918134e-01,
          1.7023809270030829e-01, 1.9559238635859033e-01,
          -2.1534319925046258e-02, -1.9059063789689812e-01,
          -1.7937469229858859e-02, 5.1941535661401306e-02,
          -1.0441879972524162e-01, -2.4370196082633105e-02,
          5.0932167149325559e-02, 3.6954352803277551e-02,
          -1.7958621211184803e-01, 9.2745365566823931e-02,
          -2.8274047018710247e-01, 3.1841998744542838e-01,
          -2.0624413908372344e-01, 6.8232928032436316e-02,
          7.7318659796173125e-02, -1.4126488796462069e-01,
          8.5830059836736791e-02, 1.8482434559985927e-01,
          -8.1626721602958391e-02, -1.5709976200962181e-01,
          -1.3391556876445376e-01, -2.7175216037196642e-01,
          -3.4766902125939608e-02, 1.1102738000129549e-01,
          -1.6275578258962514e-01, 1.1776676780714791e-01,
          1.8328777745933694e-02, 2.1683344740028410e-01,
          -1.2945415748584985e-01, 2.5031195086647862e-01,
          -2.7192020445476994e-01, -8.5703833113283584e-02,
          3.1183482037683837e-02, 2.5412257536790533e-01,
          1.6269908789343236e-02, -3.6492400055019247e-02,
          2.8789015133046221e-02, -1.4023985350812429e-01,
          -3.8866275831875199e-02, 5.1341639829824634e-02,
          -2.5865774892482402e-01, -2.0101740098729393e-01,
          -8.3840947596357338e-02, -3.5776719886233321e-02,
          -3.9982320259156122e-02, 1.5287303788263562e-01,
          -2.8624542336923343e-02, -1.4923671088016560e-01,
          7.1960358787871395e-02, -1.0217225978922116e-01,
          1.5895231263145533e+00, -2.8172670404423428e-01,
          -9.0745872780555525e-01, 1.8139464702759298e-01,
          5.7022710468515836e-01, -9.2208106019909319e-01,
          1.5886876083037854e-01, 2.2636587746162853e-01,
          3.1619270489330825e-01, 2.9453761059544631e-01,
          -1.2522136744939938e-01, -3.8523835522809519e-01,
          -6.0248032405726670e-01, 2.8871365081700967e-01,
          -4.8146543380118495e-01, 4.5432957892780862e-01,
          7.3965454014128199e-02, -8.1167213223995494e-01,
          -8.7943671256689240e-02, -6.5202378194213562e-01,
          5.3484180287077701e-02, -4.3099007397370653e-01,
          5.2790940830315047e-01, 6.1256422833610447e-01,
          1.4334395026178648e-01, 3.3005719864074778e-01,
          3.2235456938686702e-01, -1.3227805167456641e-01,
          1.1066779517370482e+00, 4.8442233633569594e-02 ]
      - [ 4.1069833527702876e-01, -3.7755902686026033e-01,
          -5.4433283366086160e-01, 6.0805990963111323e-01,
          2.0830294862717327e-01, -1.6089376676018560e-01,
          -6.9746592147677877e-01, -9.2497003584289805e-01,
          -6.6770475843901334e-01, -9.1033649179694587e-01,
          -1.0440199090449858e+00, -7.9221442966976385e-01,
          -9.0878007738637956e-01, -6.2433546847598631e-01,
          -8.3579334367315516e-01, -1.0338972071899393e+00,
          1.0828636821998162e-01, 2.8763664131967098e-01,
          -4.0150517905002814e-01, 2.5898928317159509e-01,
          3.2243420305718978e-01, -3.4293915872280251e-01,
          -1.3300050920345750e+00, -7.1617055055673853e-02,
          -1.0156094700066967e+00, 1.9350300828627037e-01,
          -3.3929639689581759e-01, -8.7062815564623630e-01,
          -6.5570582264524480e-01, 7.4649897176390945e-01,
          -6.6094213679804681e-01, -6.8751098936119315e-01,
          9.1933017928454930e-02, 3.9210781554079632e-01,
          1.3452700234156612e-01, 6.1093171629475707e-01,
          -1.9602437978432521e-01, 1.0046565727664503e+00,
          -1.1565288552613520e-01, -5.4852465263150085e-01,
          9.1185399383530574e-01, -1.8629546486821563e-01,
          -4.4007924318870062e-01, 5.8706972002835178e-01,
          3.4790995013503129e-01, 1.8714711608324743e-02,
          8.5842532206485300e-01, -3.9301971585797152e-01,
          2.5859167686431472e-01, -2.2663093048801669e-01,
          2.2711251839642066e-01, 3.0951919122328319e-02,
          8.8330246357617637e-01, -7.5208492649597602e-01,
          1.2605593103721421e-01, -7.1560645035023718e-01,
          -2.9419884770234850e-01, 5.3486452457607903e-01,
          -2.0884200028511274e-01, -6.0115386889589095e-01,
          8.3765592973140524e-01, 6.1080978168157973e-01,
          4.6365071177607331e-01, -4.9322271984902893e-01,
          -6.4964778129840339e-01, -5.4434579418323015e-01,
          -2.8106525620317752e-01, 3.7500192336056976e-02,
          8.2764939482584088e-01, -6.3080737622480820e-01,
          3.4772414002920987e-01, 1.1512835246630460e+00,
          -7.5017109598114962e-01, -6.5768022478140398e-01,
          1.0220335362832953e+00, -3.4373423649222756e-01,
          -5.9408136918484267e-01, 4.1385210856667842e-01,
          5.3309351625439494e-01, -4.8371656607829572e-01,
          5.5653620951743955e-02, 5.5561034054688219e-01,
          5.7024742159843556e-01, -4.3896065194311379e-01,
          -2.6182565058907797e-01, -2.8717077655260315e-01,
          3.2695114595723340e-01, 5.8089811861419449e-01,
          3.8430442347729293e-01, -2.1681154815608564e-01,
          -3.6092254761308701e-01, 4.2978312821539633e-01,
          5.6591477479823826e-01, 8.8774205880124912e-01,
          1.0397437855489522e+00, -1.5255726053910662e-01,
          9.9420214338436674e-01, 7.9876158315966694e-01,
          -4.0817443558180733e-01, 1.4367528638772781e-01,
          1.1319217457449182e+00, 7.6126986500014260e-01,
          4.2775003147010793e-01, 5.5014958407059777e-01,
          8.0105645953296578e-01, -2.5406800568854132e-01,
          -6.2880704502474982e-01, -9.1922945525385413e-01,
          -9.9107125587800415e-01, -3.6697269689170087e-01,
          6.4393358085808483e-01, 8.8215345653519317e-01,
          8.0742366694556367e-01, 5.7083412963147928e-01,
          -9.3608784802393330e-01, 2.0255757075035141e-01,
          -9.1682412129917246e-01, 1.2221615247911163e-01,
          -6.1661791600487892e-01, -7.6889334627944117e-02,
          6.0301809646857607e-01, 2.7191433188086195e-01,
          -6.3787662790476585e-01, -8.5275655758959590e-01,
          9.2887000248621931e-01, -1.9308051649222593e-01,
          1.8588098416677276e-01, -8.0134669477150400e-01,
          -9.8760192245000500e-01, 4.6811641119728886e-01,
          7.0748300652963725e-02, 6.7183916405590752e-02,
          -8.9044167943265973e-01, 3.7226521401798796e-01,
          2.6924917831062166e-03, -9.1141825091851991e-01,
          2.0136472147669995e-01, -4.4562356120410601e-01,
          3.0405561765503519e-01, -1.9428434726660629e-01,
          -5.0127340129371989e-01, 9.3538044759246319e-02,
          4.6516747713841822e-01, -7.5146905071964554e-01,
          -7.2756507670645898e-01, 7.0824717493664902e-01,
          4.1314447697067308e-01, -7.3796223094005708e-01,
          -7.6838672863121293e-01, -8.5951229136140417e-01,
          1.8742766179469073e-01, -4.7660511480542178e-01,
          4.6818744447019978e-01, 2.9917148603971605e-01,
          3.5018407773850041e-01, -6.5865740897988923e-01,
          -4.8820657925833666e-01, -6.6430719444829278e-01,
          -6.0038723635899649e-01, 2.4087522195868336e-01,
          -7.1338395002228527e-01, -4.9021356135600824e-01,
          -1.3944613218734686e-01, -9.5224821719803354e-01,
          5.9929915073485229e-01, -1.1469738143323638e-01,
          7.8422326763302630e-01, -9.7177235771707504e-01,
          -3.4086926458204836e-01, 9.7387448532747134e-01,
          2.4065421063849879e-01, 4.7470982074948855e-02,
          -1.0103222397879901e+00, 8.1803884466405752e-01,
          8.0387089880852736e-01, -6.2560145329781408e-02,
          5.9013525105095332e-01, 1.2441130492182245e-01,
          -6.6027788929989473e-01, 9.0505208127401915e-01,
          7.8357340560449884e-01, -5.3037808765571437e-01,
          -5.0417058843823456e-02, 4.2302550159970748e-01,
          7.6824942573496124e-01, 5.8223450988491698e-01,
          -6.2848110299860638e-01, 1.4260534426663168e-01,
          -4.7457726433001629e-01, 8.2976460787228823e-01,
          -4.1268913249166661e-01, 4.6867138291939692e-01,
          7.5230815452259847e-01, 3.1043435371073014e-01,
          -6.1111775029453297e-01, 9.6127467176345405e-01,
          6.0812393038181567e-01, 1.5992688775607949e-01,
          1.7994775625543638e-01, -3.9064945044894256e-01,
          3.7266841129770051e-01, 8.1136065607177343e-01,
          -2.1227546988336335e-01, -4.1344705897034961e-01,
          4.5185120884721947e-01, 5.8274670560611985e-01,
          -1.6739805622401810e-01, -6.6322973053736323e-01,
          -2.2329831452369300e-01, -9.9403861655407832e-01,
          -6.7325202405159690e-01, -6.2204354489114977e-01,
          -1.0185564377920338e+00, -3.1567708908890844e-02,
          8.9880058452230649e-01, -7.3806111472927449e-01,
          2.8259055020875140e-01, -8.4081304418731417e-01,
          -8.8371965442683320e-01, -7.7602513798534589e-01,
          5.4956825377352647e-01, 6.4560332094027106e-01,
          2.1726724001456810e-02, -8.0514847747873264e-01,
          8.8738749969633812e-01, 8.1404992237809215e-01,
          4.7800760246085255e-01, -4.5803198981926641e-01,
          -2.2953494994001986e-01, -3.6964316652842538e-01,
          1.9279122029283177e-01, 7.5174504433566780e-01,
          5.9843216263172883e-01, 5.7748658961072707e-01,
          -9.7192005914661062e-01, -6.8637262080364914e-02,
          2.4893855935519710e-01, 8.3638035357828011e-01,
          -5.4333470945730700e-01, -2.9570858925212112e-01,
          3.3195516913181694e-01, -1.0443929836612300e+00,
          9.3463762838424247e-01, 7.1106431860316288e-02,
          -4.1678937631829394e-01, 9.8730203334491984e-01,
          5.8176723022518073e-01, 1.7086956838084352e-01,
          -3.3156488824786429e-01, -6.1861992121190124e-01,
          -2.1309456278057315e-01, -9.8861402008163968e-01,
          9.1435961686581768e-01, -8.1622693605024388e-01,
          -7.0226223842872604e-01, -1.2623699687730017e-01,
          -1.7574646947948119e-02, -1.1460336763424714e-01,
          1.9858826723374820e-01, -7.3226281430003579e-02,
          -9.6835315055360513e-02, 5.9112125195692244e-01,
          5.6214335311611252e-01, -3.1794840708510597e-01,
          7.1624708238965151e-01, -9.0631802075721324e-01,
          6.5163147200547722e-01, -6.3770788172195536e-01,
          8.0811952382031227e-01, 8.8614057714340921e-01,
          1.8788642310796916e-01, 3.3133926376891260e-01,
          2.2187402127941261e-01, -4.7051560565215356e-01,
          -8.8151295030747168e-01, 5.6238101419766973e-01,
          -2.6848642232696684e-01, -5.7774216373779630e-01,
          -5.4109830248402081e-02, 2.2375810299166421e-01,
          -6.5153520763958828e-01, 3.1865687888324074e-01,
          -4.7774595804660802e-01, -1.0093969752929084e+00,
          1.8899808511678917e-01, -1.3281847768842422e-01,
          6.4247595633518173e-01, -2.3362615322103073e-02,
          -1.7462640789159417e-01, 4.4303620746166422e-01,
          7.7253633387677156e-01, 7.9564851848581486e-01,
          -9.6572610333432662e-01, 7.2002737801479877e-01,
          -7.3964589876926323e-01, 9.7908062913345806e-01,
          -2.9174858639090429e-01, -5.3251758026238871e-01,
          -5.2107646651100759e-01, -4.5110917579225873e-01,
          -1.6345966559531491e-02, -5.9940418401803630e-01,
          8.8273602165489606e-01, 6.4956795387160787e-02,
          -5.6293946716602683e-01, 1.5255428762130613e-01,
          2.3924177615037012e-01, -6.0471558621353781e-03,
          -7.5104560862619163e-01, -8.8195593449168930e-01,
          -1.5397564708339995e-04, -4.1028974902150783e-01,
          -5.7569189202221915e-01, -7.3240468106168410e-01,
          8.1502368896842126e-01, -6.0465148355971809e-01,
          -5.6367556689923148e-01, 4.9753952772326454e-01,
          -1.4239173645721010e-02, 4.2217138808261240e-01,
          1.0005887230782287e+00, 3.0903918515949935e-01,
          -1.0013230015436698e+00, -6.4388811673024060e-01,
          3.8498534860804839e-01, -8.3962086823899529e-01,
          -1.0589472600369899e-01, -6.6839989533971911e-01,
          8.4676041565428728e-01, 5.0121808725678996e-01,
          -6.8406315611826296e-01, 5.4791882507884582e-01,
          6.0488556359674694e-01, 8.6608813081256197e-01,
          -2.3766848957676803e-01, -6.3371223855716197e-02,
          -4.4774914316120945e-01, -4.8169382147401013e-01,
          -4.3460846870688907e-01, -4.4537254930357023e-01,
          5.7899149008933659e-01, 2.8168748926587987e-02,
          6.4853200465431338e-01, 8.0819069318795378e-01,
          -2.4942771576461620e-01, -8.6612547344147484e-01,
          -6.0469154624585786e-01, 1.0179561175653205e+00,
          -3.7049330776171802e-01, 6.5572865579820805e-01,
          4.8271456597952217e-01, -6.7992373887863788e-01,
          -5.6601076004805087e-02, 2.7681540850299724e-01,
          5.4197769001887908e-01, 5.9027894728836172e-01,
          -5.2076364787513885e-01, -7.3081858598200167e-01,
          3.7592942982752231e-01, -6.8572438991222873e-01,
          1.2084693594149565e-01, 2.8111586394972055e-01,
          6.9251917682739739e-01, 7.0245086536420498e-01,
          8.0815057826424774e-01, -2.0446065511453304e-01,
          -6.9302862045148905e-01, -2.7033180066177492e-01,
          -6.1653000991384121e-01, -5.5021756989003701e-01,
          -4.8787741163188464e-01, 1.0181142760302579e+00,
          2.1317757735481901e-01, 1.7676771454958416e-02,
          6.7816993447271590e-01, -3.5986115132185570e-01,
          1.0635190511621118e+00, 6.4748114473366689e-02,
          -4.2364904067974540e-01, 8.2614536391785309e-01,
          3.4655613491458009e-01, -5.2075756017887587e-01,
          6.6245950251022045e-01, 8.7406551731937565e-01,
          9.6936335704151366e-01, -6.9384442950792025e-01,
          -8.2034232973655663e-01, -2.9120364672819907e-02,
          1.1090681583109287e-01, 7.3636406340036842e-01,
          3.6600552133327896e-01, -4.3793059726919203e-01,
          9.6956327959636646e-01, 4.4745627273523370e-01,
          9.7642763318529302e-01, 7.0938749906477783e-01,
          -6.7112501812710890e-01, 3.2573265856183187e-01,
          1.8717572683331735e-01, 5.4848648381515208e-01,
          -2.5728055511898346e-01, 3.3275971961470507e-01,
          -8.8651365838414975e-01, 7.0591941033231453e-01,
          2.3420905488134555e-01, -8.4009944786115898e-01,
          5.4285668811339638e-01, 5.8620356898236015e-01,
          1.4960450072697121e-01, -6.9873610212925952e-01,
          9.4345736236268540e-01, 8.5949201666069075e-01,
          1.6223938214927452e-01, 1.0960058651887172e+00,
          -7.4256708111086844e-01, 2.6318739345568415e-01,
          6.8309603335460900e-01, 1.1656453434180150e-01,
          -8.1225646964319564e-01, 2.6428926530205604e-01,
          7.8755735633983981e-01, -3.0611966213808066e-02,
          -1.1842635132494087e-01, -5.7784360671730783e-01,
          -7.4589069707119515e-01, 8.9931587229782572e-01,
          -6.6276879616530426e-01, 9.9098095614478887e-01,
          1.0703865089156919e+00, -2.9744600920038755e-01,
          9.3026418522476317e-01, 9.2890749760337488e-01,
          3.3355424059489203e-01, -8.8867724192461006e-01,
          7.0306698214155394e-01, -5.1266774176056018e-01,
          7.0792265233745921e-01, 3.1426520695163801e-01,
          -9.6772973354094172e-01, 9.9563841149898413e-01,
          -3.8849300752423721e-01, 7.7856445656875928e-01,
          6.3795243472916840e-01, -8.8473280914370100e-01,
          3.3760604320325897e-02, 6.6796641804774981e-01,
          -2.8325989569589826e-02, 2.2081618795510324e-01,
          -3.2147249262872846e-01, 4.0587642773869048e-01,
          -3.9384869762807578e-01, 8.9629511629798275e-01,
          7.7780029838496278e-01, 4.7286974591924547e-01,
          9.4171542914089690e-01, -9.5296415152234593e-01,
          -9.1309746520257984e-01, -1.0624259561470859e+00,
          -3.5712883946389534e-01, 3.7170233731282848e-01,
          -8.2858788900689506e-01, 1.6140822295949270e-01,
          6.8615446107089439e-01, -8.1255700760061300e-01,
          1.0847108456161407e-01, -3.0810827005603575e-01,
          -3.9946621266732713e-01, 8.2585981984180179e-01,
          -2.4147713075097051e-02, 6.2851670920876013e-01,
          2.0003720256483035e-02, 3.8109055300498501e-01,
          -4.8260724313748299e-01, 1.4142350285023589e-01,
          -1.0172931379143679e+00, -6.7636655241554267e-01,
          -4.4389228418720295e-01, 8.6299493044080477e-01,
          -3.0140469218640625e-01, 1.0784017747621213e+00,
          2.5959474255640579e-03, 4.7249051650489038e-01,
          -1.0160975434163768e+00, 1.0963001851335827e+00,
          6.0351824490219246e-02, -6.1724733296218259e-01,
          4.8131325557999488e-01, 5.5408660453398650e-01,
          7.7209754384319074e-01, -2.5636284278030212e-02,
          1.0939958159091672e+00, -2.4564631327939851e-01,
          8.8644789039829219e-01, -4.3408766192368370e-01,
          -7.3904659938149131e-01, 1.0165393267611220e+00,
          -1.2924365789383219e-01, 9.0937667005606848e-01,
          -1.8854827686419623e-01, 8.3437314166412835e-01,
          -9.8905208855213600e-01, 5.4790935996561496e-01,
          -2.8494654841240968e-01, -7.3071343091628396e-02,
          4.8974588090234894e-01, -1.0867574139968130e+00,
          5.6256026640832302e-01, -2.2563066347791405e-01,
          -7.7817544961407170e-01, -5.9998791161391762e-01,
          6.1561106117757791e-01, -7.6372906698662563e-02,
          -1.6876593983324109e-01, -9.0545448918020510e-01,
          -8.3298898500208407e-01, -4.6796411488417289e-01,
          -6.3789875773951266e-01, 3.6084555900247683e-01,
          1.4990984468698376e-01, -4.4811699184881432e-01,
          8.5947216319850317e-01, -8.3076224077075922e-01,
          -1.1840055046445444e-01, 2.2116920350721277e-02,
          7.7031279678438547e-01, -1.0386533149535957e+00,
          2.7736776870751062e-01, 6.5320894651103134e-01,
          -7.5627868796785747e-01, 2.8009157784380084e-01,
          -1.6931177087589469e-01, 7.0122042454089123e-02,
          -3.1524130899148364e-02, -8.7279172720310327e-01,
          -1.2563236208360748e-01, -6.8098713870531424e-01,
          4.4042724132523567e-02, -5.7260125671313467e-01,
          -4.2499425134014435e-01, -8.4770309767678809e-01,
          -5.8196508234704292e-01, 4.7305031626932649e-02,
          -5.4421352203123419e-01, -8.8205400031007897e-01,
          -7.6801482832822465e-01, 1.5748816689317555e-01,
          4.7022863770907070e-01, 3.5264568357358317e-01,
          -3.4161813695858412e-01, -3.5695814442580598e-01,
          3.7660446194326930e-01, -8.9124650133690142e-01,
          -7.6986651572820020e-01, -2.7963314808559903e-01,
          -7.8207403372145856e-01, 9.2727660210656537e-01,
          -7.6092149581217938e-01, 7.8667172341399583e-01,
          -2.4581341719722916e-01, -3.3380582989474372e-01,
          4.3596684441919237e-01, -5.8002589227117840e-01,
          9.2733174368761329e-01, -9.6383555423554435e-01,
          -6.1801073840308118e-01, 4.1674301115695345e-01,
          1.2857716566076571e-01, 9.1874556756923109e-01,
          -1.3532018756183120e-01, 7.3295793217022209e-01,
          -3.8704310071834357e-02, 1.0863224701854350e-01,
          -7.6401047363886343e-01, 2.3966805746650571e-01,
          2.9857644391801375e-01, -2.8606832471072874e-01,
          1.8340488742943389e-01, 7.0409271831519771e-01,
          -6.8539054833875723e-01, 5.5055666904308143e-01,
          5.0935327375759287e-03, -5.0368481544728172e-01,
          7.1196568954633133e-01, -1.8915450713422835e-01,
          -5.8661019089931377e-02, -2.2191096166252275e-01,
          6.1320629105842683e-01, 1.5331472334981436e-01,
          -9.7249436479302218e-02, 7.6365137814599429e-02,
          8.4789965125883304e-01, 8.7997727162731698e-01,
          -3.6767877216382289e-01, -2.7646628514139632e-01,
          1.1789661080615850e+00, 6.8429661615983772e-01,
          -1.2476180497754277e-01, 4.1364494816155761e-01,
          6.9861950794486183e-01, -9.7439082662311646e-03,
          4.6797515482142693e-01, 8.8307420342152776e-01,
          2.1017788469684132e-01, 5.3533485752059407e-01,
          -5.8729595657131017e-01, 8.0658623428016396e-01,
          -4.6094506796765372e-01, 6.6431662325826213e-01,
          8.0138124770272068e-01, 4.4345558585356365e-01,
          9.9072244543934318e-01, 9.4009608261414368e-01,
          -3.8596016231694419e-01, -1.5098771420748985e-01,
          2.1847903873518651e-01, -2.9262332451763196e-01,
          -6.9600396902289097e-01, 8.5291635564202528e-01,
          -4.4809115519871268e-01, -5.6483383940138354e-01,
          -5.6358972198074375e-01, 6.5727912770364605e-01,
          4.2569640084443799e-01, 8.9726684643277066e-01,
          8.8104219549251317e-01, 3.6211152760751174e-02,
          1.4988700245899633e-01, 2.7559816964302042e-01,
          3.5314281020935756e-01, 5.6856316967384213e-01,
          1.9741613706515948e-01, -2.7363906982554931e-01,
          -7.6878867430864151e-01, -7.8297467196050641e-01,
          -2.8708092642939342e-01, 4.7010506443911965e-01,
          -5.8318804750445541e-01, 6.9304171065796372e-01,
          -3.7709912791080535e-01, -3.7425828669541766e-01,
          -5.6057583231037766e-01, -2.0614049655157710e-01,
          4.7936060481863368e-01, 9.6190760683704113e-01,
          -2.3589448227664345e-01, 8.2249735835773807e-01,
          1.0128904442196813e+00, 1.0556576469842469e+00,
          4.5784661504123442e-02, -5.2998438698021144e-01,
          1.0024861200721952e-01, 1.0279928105020411e+00,
          4.6517805048678290e-01, 4.1545418502554898e-01,
          -3.5979604477027688e-01, 1.1152199304395722e+00,
          -4.8089571630228707e-02, 1.0714732258040707e-01,
          -9.0919443748442422e-02, -6.3374937306455492e-01,
          -8.9102510650399469e-01, 4.6534779293211659e-01,
          5.7323488506169173e-01, 4.9114179606106501e-01,
          -5.6360824858365066e-01, 4.7300948243879752e-02,
          4.3499269017344666e-01, 7.9071661911390964e-02,
          7.3577272826115603e-01, 1.0026638251830455e+00,
          -2.4546052278634281e-02, 1.0843541411687478e+00,
          -6.4785914310838999e-01, -4.3862949388149114e-01,
          2.9742708813704172e-01, 6.9695742710048458e-01,
          7.3565879580290272e-01, 4.5137855577450425e-01,
          -8.5867561835373096e-01, -4.4658963452762440e-01,
          1.0135029650387550e+00, -1.5293311191380473e-02,
          -1.5135923098178147e-01, -6.7951234577579134e-01,
          -5.1979934579173652e-02, -2.4348493123912310e-01,
          -6.8162564861735875e-01, 4.1344236203724301e-02,
          -3.7505977165636230e-02, 5.2609596656881830e-01,
          2.0023640965515319e-01, 4.2509691248406267e-01,
          6.2870995389761120e-01, 7.0260139895102514e-01,
          -5.5410335132029287e-01, -3.5137633982767236e-01,
          -6.7212148859355703e-01, 9.9615736381605868e-01,
          -1.0290172806043982e+00, 6.6027118967327525e-01,
          -3.0143064124658181e-01, 2.8558628764836524e-01,
          -3.4085840716068072e-01, 9.5175456862579511e-01,
          5.5861309004876658e-01, 2.1227563448106729e-01,
          3.4287444344578738e-01, 1.0238523305547957e+00,
          4.1179873076261991e-01, -7.5709093258624649e-01,
          -7.3582275211787007e-01, -2.9450481023742531e-01,
          -7.3764029591182612e-02, 7.6064963817675646e-01,
          9.4548770079764077e-01, -1.5482491761520540e-02,
          -2.0830586840455971e-03, -6.0756221482437700e-01,
          3.8288130014602911e-01, 2.4801416999932363e-01,
          -2.8311768980504987e-01, -7.3941550383689703e-01,
          -5.3973400434715613e-01, -3.5673916224913277e-01,
          1.2726756485804005e-02, -6.4655368345431630e-01,
          6.8678460036174216e-01, 2.2375076690271453e-01,
          -4.4777080859475582e-01, -8.2366222655654864e-01,
          2.9588513982836401e-01, 9.4092859125077211e-01,
          1.1102965132260154e+00, -6.6703994482612772e-02,
          5.4845971571671492e-01, 2.5373322879143390e-01,
          -1.5525587500787997e-02, -4.2060699382619299e-01,
          9.1340966652068967e-01, 2.8751821226033186e-01,
          -3.8162103251036056e-01, 7.0856257297752490e-01,
          3.3338271526473651e-01, -2.9679466477423316e-01,
          7.0856187942610682e-01, -2.0549412541290285e-01,
          5.0080581982855510e-01, 5.2620493078559016e-01,
          -6.7795194085885335e-01, 1.0038888428281358e-01,
          -1.5027575589907932e-01, 4.2775253082787991e-02,
          -1.5537233949079005e-01, 5.3584207124481853e-01,
          -6.9736627089793202e-01, 4.3585036776243452e-01,
          -1.3304456400372535e-02, 2.1737932476296645e-01,
          -8.1635148519879089e-02, -8.5484979593748855e-01,
          3.7952148923569828e-01, -3.0628091716862231e-03,
          -1.9910139076934291e-01, -2.7880909060532616e-01,
          -9.8606676161735840e-01, -1.1256450375854292e+00,
          -8.8607388864351844e-01, 3.4672320426579351e-01,
          4.8434075920482272e-01, -8.5768580095049918e-01,
