%YAML:1.0
my_nn: !!opencv-ml-ann-mlp
   layer_sizes: !!opencv-matrix
      rows: 1
      cols: 5
      dt: i
      data: [ 48, 60, 60, 60, 34 ]
   activation_function: SIGMOID_SYM
   f_param1: 6.6666666666666663e-01
   f_param2: 1.7159000000000000e+00
   min_val: -9.4999999999999996e-01
   max_val: 9.4999999999999996e-01
   min_val1: -9.7999999999999998e-01
   max_val1: 9.7999999999999998e-01
   training_params:
      train_method: BACKPROP
      dw_scale: 2.0000000000000002e-05
      moment_scale: 2.0000000000000002e-05
      term_criteria: { epsilon:1.0000000000000000e-04, iterations:100000 }
   input_scale: [ 2.4233645651466393e+01, -2.5652273477411520e+00,
       1.1604906507364696e+01, -1.6583749557810066e+00,
       2.5940841765417552e+01, -3.2477309473991678e+00,
       1.3940285658808383e+01, -1.9845806032424864e+00,
       2.2366599818633130e+01, -2.8023806954548434e+00,
       1.8512464267050490e+01, -1.8482394035406284e+00,
       2.0974577648146802e+01, -2.6454911857097789e+00,
       1.6263253320087479e+01, -1.9914552014154971e+00,
       1.9500994158860934e+01, -2.7287103031378228e+00,
       1.9937745451486197e+01, -2.0447470268496502e+00,
       2.2095018928473070e+01, -2.8519969077148803e+00,
       1.7121274058143293e+01, -1.8916806653462457e+00,
       2.3188876210684239e+01, -3.2496373762771218e+00,
       1.1830041486714387e+01, -1.5349621148610373e+00,
       2.3848032352878594e+01, -2.5847370532780660e+00,
       9.8946802613809819e+00, -1.4807427598421665e+00,
       1.5395250163554685e+01, -2.0750261567483523e+00,
       1.3215173732821242e+01, -1.9081622569950902e+00,
       1.5491262563343112e+01, -2.4253120667536461e+00,
       1.6822399302301410e+01, -1.6080531508877818e+00,
       1.4940749147940497e+01, -1.9748945909853581e+00,
       1.7301717201000542e+01, -1.5894273424656302e+00,
       1.6724053995799327e+01, -1.9469750163383723e+00,
       1.6736876177407765e+01, -1.7449670227136009e+00,
       1.4267833953106827e+01, -1.7850151337973337e+00,
       1.4616170952880255e+01, -1.3780469906933264e+00,
       1.4655806511416163e+01, -1.5115826417201752e+00,
       1.4341169075833585e+01, -1.4224415110488129e+00,
       1.5042848660589838e+01, -1.7152829399992298e+00,
       1.4151366583420293e+01, -1.7739237477161813e+00,
       1.4736335625817667e+01, -2.1461825839219340e+00,
       1.4616160570808468e+01, -1.4196160909285036e+00,
       1.5368801722226381e+01, -1.6164272836580285e+00,
       1.4420023998237932e+01, -1.5193531044169994e+00,
       1.3845736687701653e+01, -1.7317595884188819e+00,
       1.3262437817634327e+01, -1.4065595428979558e+00,
       1.7091846999225755e+01, -1.8688527157035992e+00,
       1.5569066444613993e+01, -1.4108871179716829e+00,
       1.3398730589723732e+01, -1.3810702152901708e+00,
       1.2675067729795396e+01, -1.5135223812911172e+00,
       1.9379055570019812e+01, -2.1125564505775025e+00,
       1.7223288135955286e+01, -2.0194204063031931e+00,
       1.5917167774674398e+01, -1.7640997066239361e+00,
       1.3803570299504113e+01, -1.6977498302653304e+00,
       1.9041337514629415e+01, -1.5008718287107441e+00,
       1.4053301950525251e+01, -2.0406799754405278e+00,
       1.2695798807005234e+01, -1.8863492535389825e+00,
       1.3917691821837282e+01, -1.4851323326890338e+00 ]
   output_scale: [ 5.2631578947368425e+03, 5000., 5.2631578947368425e+03,
       5000., 5.2631578947368425e+03, 5000., 5.2631578947368425e+03,
       5000., 5.2631578947368425e+03, 5000., 5.2631578947368425e+03,
       5000., 5.2631578947368425e+03, 5000., 5.2631578947368425e+03,
       5000., 5.2631578947368425e+03, 5000., 5.2631578947368425e+03,
       5000., 5.2631578947368425e+03, 5000., 5.2631578947368425e+03,
       5000., 5.2631578947368425e+03, 5000., 5.2631578947368425e+03,
       5000., 5.2631578947368425e+03, 5000., 5.2631578947368425e+03,
       5000., 5.2631578947368425e+03, 5000., 5.2631578947368425e+03,
       5000., 5.2631578947368425e+03, 5000., 5.2631578947368425e+03,
       5000., 5.2631578947368425e+03, 5000., 5.2631578947368425e+03,
       5000., 5.2631578947368425e+03, 5000., 5.2631578947368425e+03,
       5000., 5.2631578947368425e+03, 5000., 5.2631578947368425e+03,
       5000., 5.2631578947368425e+03, 5000., 5.2631578947368425e+03,
       5000., 5.2631578947368425e+03, 5000., 5.2631578947368425e+03,
       5000., 5.2631578947368425e+03, 5000., 5.2631578947368425e+03,
       5000., 5.2631578947368425e+03, 5000., 5.2631578947368425e+03,
       5000. ]
   inv_output_scale: [ 1.8999999999999998e-04, -9.4999999999999996e-01,
       1.8999999999999998e-04, -9.4999999999999996e-01,
       1.8999999999999998e-04, -9.4999999999999996e-01,
       1.8999999999999998e-04, -9.4999999999999996e-01,
       1.8999999999999998e-04, -9.4999999999999996e-01,
       1.8999999999999998e-04, -9.4999999999999996e-01,
       1.8999999999999998e-04, -9.4999999999999996e-01,
       1.8999999999999998e-04, -9.4999999999999996e-01,
       1.8999999999999998e-04, -9.4999999999999996e-01,
       1.8999999999999998e-04, -9.4999999999999996e-01,
       1.8999999999999998e-04, -9.4999999999999996e-01,
       1.8999999999999998e-04, -9.4999999999999996e-01,
       1.8999999999999998e-04, -9.4999999999999996e-01,
       1.8999999999999998e-04, -9.4999999999999996e-01,
       1.8999999999999998e-04, -9.4999999999999996e-01,
       1.8999999999999998e-04, -9.4999999999999996e-01,
       1.8999999999999998e-04, -9.4999999999999996e-01,
       1.8999999999999998e-04, -9.4999999999999996e-01,
       1.8999999999999998e-04, -9.4999999999999996e-01,
       1.8999999999999998e-04, -9.4999999999999996e-01,
       1.8999999999999998e-04, -9.4999999999999996e-01,
       1.8999999999999998e-04, -9.4999999999999996e-01,
       1.8999999999999998e-04, -9.4999999999999996e-01,
       1.8999999999999998e-04, -9.4999999999999996e-01,
       1.8999999999999998e-04, -9.4999999999999996e-01,
       1.8999999999999998e-04, -9.4999999999999996e-01,
       1.8999999999999998e-04, -9.4999999999999996e-01,
       1.8999999999999998e-04, -9.4999999999999996e-01,
       1.8999999999999998e-04, -9.4999999999999996e-01,
       1.8999999999999998e-04, -9.4999999999999996e-01,
       1.8999999999999998e-04, -9.4999999999999996e-01,
       1.8999999999999998e-04, -9.4999999999999996e-01,
       1.8999999999999998e-04, -9.4999999999999996e-01,
       1.8999999999999998e-04, -9.4999999999999996e-01 ]
   weights:
      - [ -2.8593788768399599e-02, 1.2495077559720108e-01,
          1.2823129738634242e-01, 2.5377985800930858e-01,
          4.8338169080137470e-03, -2.9598726625104644e-02,
          -1.3683241825224046e-01, 1.2069912266715986e-01,
          1.0858858816014676e-01, -7.5240005776701291e-03,
          -7.5079681419896488e-02, 1.2430756874629948e-02,
          2.7279679601436738e-02, 2.1812729924819727e-01,
          -4.8025714171909706e-02, 1.4128716771717035e-02,
          1.9123801884025276e-02, -1.0621652071554744e-01,
          1.0476416295075271e-01, 1.7983393663003229e-02,
          1.7708080459648676e-01, 2.2917703036582009e-02,
          1.2356038393131992e-01, -2.1098447581763144e-01,
          -2.7557708297028742e-02, -8.8117768952231293e-02,
          4.2485664976029580e-01, -1.3940831412092794e-01,
          -2.7281855713614900e-01, -2.6431172067044734e-02,
          5.1020587487675358e-02, -1.1087292897752016e-01,
          -1.2585111792505932e-01, -6.8455877005259264e-02,
          9.7112704350549223e-02, 6.1475510049526713e-02,
          2.2936889536358775e-02, 8.4007468467664853e-02,
          -7.0217919599617748e-02, 1.4690982783441756e-01,
          -1.3045133489878333e-01, -1.7304272734955334e-01,
          -8.5446150654213474e-03, -3.2002819801307369e-02,
          6.4515485599529188e-02, 1.0773339418775464e-01,
          1.6585969758510080e-02, 1.3919769502731497e-01,
          5.9472041351889805e-02, -8.2069252453667845e-03,
          1.2515169222866895e-01, -7.2898064428810097e-02,
          -3.9730755696599411e-03, 5.8410063627758503e-02,
          -1.0912431346428084e-01, -7.8449492175940425e-02,
          3.7479921216825141e-02, 2.0473276190839393e-01,
          -4.8453444022608247e-02, 1.2054291587788291e-01,
          -9.7176344538509832e-02, 6.0114467664144529e-03,
          9.0609270471761084e-03, -1.1388888293627837e-01,
          -5.4895648516638230e-02, 8.5641927948868324e-02,
          -1.4735103437650082e-02, -1.0320753853864247e-02,
          6.7945044217397887e-02, -1.2993913521581557e-01,
          7.0923563341501517e-02, 4.3165036693255811e-02,
          4.6102549519175164e-03, -3.0592703555240200e-02,
          -1.3984526627373808e-01, 8.4125849840792882e-02,
          3.1811168699394994e-02, -1.1705067741125667e-01,
          -1.5813742326196908e-01, -7.3331153852772113e-02,
          -2.1312874146690380e-01, -1.4610780803175413e-01,
          9.0912307735481201e-02, -9.7566570856021995e-02,
          -1.0829298417776811e-01, 1.4588498097580008e-01,
          -2.2996912839217432e-01, -7.0806952749118163e-02,
          -2.6169495146027150e-01, -8.0114704958425209e-02,
          9.2727908277313989e-02, 6.3695195836979870e-02,
          4.5077785995403012e-02, 1.9889915182031023e-01,
          -5.1424225084303124e-02, 2.2563902856247181e-01,
          7.7493202726331215e-02, 1.2953301640982143e-01,
          -8.3343444419376328e-02, 5.7628116251487123e-02,
          -8.0124275688181756e-03, 8.9809644203722144e-02,
          -1.5522450660075207e-01, 1.1486379795097363e-02,
          5.1956580221958542e-03, -1.1088493503597419e-01,
          2.6382899412771216e-01, 9.6610037943221747e-02,
          1.1952468901776771e-01, 8.9921727289941152e-04,
          4.4808188444444487e-02, -1.0237950660855463e-01,
          1.2314984803890676e-01, 2.8839235284976075e-02,
          -1.2477612465590317e-01, 9.4398432810136906e-02,
          3.5583973675530269e-02, -2.8003753517857496e-02,
          1.6504838864448240e-01, -1.3427651136827784e-01,
          9.4629735844147383e-02, -7.6360906813037935e-02,
          3.7160456112634174e-02, 1.9610297587784511e-02,
          5.5793943331747600e-02, 5.8599077031801167e-03,
          5.1479281522362856e-02, 6.6795115557583454e-02,
          8.8125397117444618e-02, 1.8431925188416248e-01,
          1.3198419166890419e-02, -2.8478189389399278e-02,
          8.6060975011915673e-05, -6.9226674438458813e-02,
          -1.2366868121990429e-01, 2.1046878503553412e-02,
          -1.2006375150397827e-01, 1.2071201161828116e-01,
          -7.0339010292423815e-02, -4.8908537962830956e-03,
          7.8673499454786300e-02, -1.4088322218648455e-01,
          -1.5854635166593994e-02, 1.9193851023449063e-01,
          -2.2738759401971465e-01, -4.6002929265749164e-02,
          -3.1210042767072871e-01, 4.4521388764362450e-02,
          3.5095089155660469e-04, -5.3894150319599793e-02,
          -2.4872985848851167e-02, 1.4042074765539753e-01,
          5.6143420548373651e-02, -2.7105548338437594e-02,
          -1.3895600842332853e-01, -2.3879644974955604e-02,
          -8.1461430086690267e-02, 5.7966234926127666e-02,
          -6.4525969614469686e-02, -1.6350169886266705e-01,
          4.5410436980396492e-02, 2.2308354939116162e-01,
          -1.1628769892005605e-01, 1.3216383670715498e-01,
          -2.0188365146208407e-03, -1.3626202831479747e-01,
          -2.0104628023776139e-01, -6.1480020743653961e-02,
          -1.1596865965368451e-01, 9.3806940489556026e-02,
          -8.5374528654571583e-02, 1.7813858310959355e-01,
          1.9155272675112796e-02, -1.3643526255882865e-01,
          3.4785527722164929e-02, -2.2640287082886831e-02,
          -9.3924856184433983e-02, -2.2283895435596727e-02,
          4.7304788289347144e-02, 2.1600497039525143e-01,
          -3.9705250915031721e-02, -1.7965949842227075e-01,
          2.4953862573543477e-02, -1.3757663240191989e-01,
          -1.8233714653064037e-01, -4.6407118373169385e-03,
          2.1010734490862426e-01, 7.2646645607336136e-02,
          1.0007528904782606e-01, 8.8580322871129338e-02,
          4.3442177528952568e-02, -5.0130984672644700e-02,
          1.6411113844228775e-01, 3.0112169063932775e-01,
          -4.1061948112387720e-03, 8.1683120347973120e-02,
          3.8660779433364226e-02, 9.6821353712465974e-03,
          -1.1580459299144247e-01, 1.3718302721134210e-01,
          1.2293982234271109e-01, -8.9231483932230377e-02,
          9.7279871468536575e-02, -8.7339307679538639e-02,
          -1.0106874920058928e-02, 1.7318382036967381e-01,
          -1.1488518521573679e-01, 5.8804443488278853e-02,
          2.3206152115987422e-01, 3.5478169962841914e-02,
          -1.3588350544890479e-01, 1.4794665168429241e-01,
          -5.4146724644697546e-02, -4.7006456672354070e-02,
          6.2748586585080590e-02, -2.2424859588794657e-01,
          -9.7258351137631940e-02, 5.8662152966339677e-02,
          -7.8176520399744404e-02, -2.1241907530661269e-01,
          -6.9477789138684173e-02, 3.5929828795423307e-03,
          6.4138966133627448e-02, -7.2050161887281083e-02,
          7.4173113408247055e-03, -4.8493755157848630e-02,
          1.5607398827433781e-02, 4.4992995930393881e-02,
          -1.8623011259287547e-01, 7.6610861487419121e-02,
          -4.6226324677390018e-02, -3.1815818542653571e-02,
          -3.6703868000816542e-02, -2.4774552367527986e-01,
          -7.2537656078921542e-02, 1.2144918226836150e-01,
          -3.3176834954326366e-04, 1.2490025867420906e-01,
          8.2267443121429515e-02, -8.9772479616649761e-02,
          3.9845560153987397e-01, -1.2180514505315826e-01,
          1.6977091337610439e-02, 1.5261653370024908e-01,
          -1.5434728126623251e-01, -1.4258540360466626e-01,
          1.5386698535573640e-01, -1.7059203303576434e-01,
          5.4083545704915505e-02, -5.0923975320225356e-02,
          1.3297064162718572e-01, 1.5843032643026586e-01,
          -1.2746524397795891e-01, 1.3116560640913674e-01,
          1.0738019438432342e-01, -5.6802842677917430e-02,
          2.3412004382195373e-01, -9.8933209575415598e-02,
          8.3082661785636405e-02, -6.3595843343860078e-02,
          -1.4824311542458832e-01, -3.0569745365946151e-02,
          1.5625630209141397e-01, 9.6141123768703859e-02,
          -4.5047739148832838e-02, 6.9931783162604996e-02,
          2.8728935850952453e-01, 1.0967809004966482e-01,
          -1.1720688475601265e-01, -1.0260091494830399e-01,
          1.4715217934825926e-02, -2.4411658316391729e-01,
          2.0527656537951261e-01, 8.0092003416689636e-02,
          -1.9091008574954382e-01, -1.8441129062346967e-01,
          -8.0425384806471351e-04, -2.5940915452924368e-01,
          -2.8396621882602672e-02, 7.5793083046276535e-02,
          -1.0369129722608599e-02, 1.1827450345240525e-02,
          1.4839266175810067e-01, -5.6949573316455941e-02,
          -2.8248946487425545e-02, 2.0393135151631039e-01,
          7.8769191145884571e-02, -1.8664753259738162e-01,
          -6.9812496845636429e-03, -2.0525028792291528e-01,
          3.2075173328685688e-02, -2.7004672119899684e-02,
          -2.0499050753171510e-01, -5.5093608468532049e-02,
          6.4960468564131783e-03, 6.0851931340819572e-02,
          1.6518791580621903e-01, 1.1067494522709373e-01,
          1.4510404664036503e-01, 8.5682302919749209e-02,
          3.0438126663588777e-01, -3.4865714994637226e-02,
          -7.2974083985750449e-02, -5.6611376259893591e-02,
          4.9971202695451515e-02, -1.3906420325287669e-01,
          3.7362510394913902e-02, -2.0652630293519068e-02,
          1.7388089757110217e-02, 2.3478939484362932e-02,
          -3.8654176723885769e-02, 2.9437719517137900e-02,
          -2.9779865133544994e-02, 1.6742633759467995e-01,
          1.4617711157409646e-02, 1.1841612443080818e-02,
          8.4570527571218492e-03, -3.9962716647562291e-02,
          -3.5786675378525222e-02, 4.4213301283407773e-02,
          4.5470857313846480e-02, 5.6356290024977048e-03,
          -9.2669958996549909e-02, 5.2498237068243775e-03,
          1.8855484791737337e-01, 9.6248026330921860e-02,
          5.0246234842076708e-02, 1.1847066921069524e-01,
          -2.1464715025150768e-01, -3.2121041678544071e-02,
          2.5129310382148312e-01, -1.7202041736003604e-01,
          5.2072332348311892e-02, 5.3084723573220388e-02,
          2.4470656371913937e-02, -2.9236565263798881e-02,
          6.0265599673857084e-02, -7.0030098687602710e-02,
          -7.7325579912881831e-02, 1.7109969416652498e-01,
          -1.5356269875080114e-01, 2.6626546628313295e-02,
          1.7774714715646817e-01, 1.8370475091687372e-01,
          1.4432342586507421e-01, -6.1347751308402150e-02,
          6.2471299645330838e-02, -9.8648127306148557e-03,
          -5.1620775476958640e-02, 1.6491936355889952e-01,
          -6.1221199661070876e-02, 2.1719307528083051e-01,
          1.2173641261221549e-01, 1.5722689214463828e-01,
          9.1021460702117710e-02, -3.4872788134002158e-02,
          -3.2654767974476674e-02, -1.9138333334184479e-01,
          -1.0032392563587572e-01, 7.6069692097835387e-02,
          1.8735750089744121e-02, 8.2320053594538353e-02,
          1.1985131762920118e-03, -1.0157123491818514e-01,
          3.8183601908862064e-01, 1.6794928754445618e-01,
          -2.8690474263923841e-03, 2.4330690707087577e-01,
          1.2062104187393409e-01, 2.4723353015441360e-02,
          -1.5158626489163537e-01, -6.0650724103736842e-02,
          3.6579058909280336e-02, -1.9392320456063750e-01,
          -3.4576447162758556e-03, -2.0835561183579897e-02,
          -8.2480794772509899e-02, -1.2515554705646798e-01,
          -1.0161396921555638e-01, 9.2902648769389529e-02,
          -1.9321947959665345e-01, -2.1373442054560359e-02,
          8.4703295384694427e-02, 8.2601955477274742e-03,
          -2.0114432539855728e-02, 1.9026656272391534e-01,
          -2.9823770737449395e-01, 8.8198381074424612e-02,
          1.0136090278877277e-01, -3.2188278686377809e-02,
          -5.3305093935891015e-02, 3.9629197378053566e-02,
          -1.6018995053179075e-01, -1.5877233631340132e-01,
          -7.7894034386160590e-02, 1.7278286445165988e-01,
          -2.0372123731689919e-02, -1.8877041570752612e-02,
          2.1208805854241508e-01, -1.7232281279281764e-01,
          1.0415878762276679e-01, 1.6205804792208942e-01,
          -3.0533169924887604e-01, -1.1704014086737083e-01,
          4.0780433721961645e-03, 6.1882715263300851e-02,
          1.4300171879018750e-01, -7.2897394795147730e-02,
          -4.0110178345998053e-02, 7.5853736469059874e-03,
          -1.7042057115402259e-01, 8.9238443199507037e-02,
          -5.1640402306865826e-02, 2.9262981906431593e-02,
          -4.3795910653649600e-02, 2.6774989391303666e-02,
          9.5566254768661693e-02, -2.2226886009797688e-02,
          1.3939853679176448e-01, -5.4084443598123207e-02,
          4.8150826706579733e-02, 1.6548515792737131e-01,
          -9.8849435020638726e-02, -1.1737641707540059e-03,
          -1.2931612686851066e-01, -2.8099495604432079e-02,
          -1.8847121032222827e-01, 4.0625147710511393e-02,
          2.3060499059611838e-02, -1.2695150400235394e-01,
          6.9070206765912120e-02, 1.3949497123972907e-01,
          7.9893818168542852e-02, 1.3628280303972731e-01,
          -6.6956700941004060e-02, -1.4326510815575549e-01,
          -2.0890068719417124e-02, 8.7373958870836696e-02,
          8.2977954462115200e-02, -7.9478959178971662e-03,
          -1.5662706069066393e-01, 1.3502125495459727e-01,
          -5.3037138474936671e-02, 1.4029945209353076e-01,
          -3.2587670535265616e-02, -4.5158871582584866e-02,
          -1.4190945743402178e-01, -5.9588498870556693e-02,
          1.1363293123532378e-01, 2.8130973395423323e-02,
          -3.9705625348190457e-02, -1.0813115031177152e-01,
          3.9478662827232967e-02, 2.8695349344770735e-02,
          -6.6077415654962071e-02, -2.4416006083621727e-01,
          8.5353655909663456e-02, -2.6951068410326216e-02,
          -1.7495980526268898e-01, -8.9298636146503449e-02,
          1.1791274723609928e-01, -7.8204168515886227e-02,
          -9.1179269850584457e-02, 2.6890313084094708e-01,
          6.2017732321223248e-02, 9.0350088320622648e-02,
          -7.3746843194300096e-02, 6.4376652933768666e-02,
          2.7109169025439164e-02, 1.7383492331811748e-01,
          -1.9478371304446548e-01, 6.6481652895190327e-02,
          1.6823043388151504e-01, -4.1640758748330474e-02,
          -2.6658661177987694e-02, 3.2873419583305342e-02,
          -1.3626305902764538e-01, -1.4430851163574541e-02,
          2.8279424152648697e-02, -3.5490817738223580e-02,
          -2.3319557432848001e-01, 2.4312773242784118e-03,
          -1.0047056174859527e-01, 9.1827780765726730e-02,
          -2.8090311763967285e-01, -1.2230792656582438e-01,
          3.0095429423809422e-02, -1.6780268087823536e-01,
          2.8587419678284823e-02, 2.3487507291415074e-02,
          -1.2177284313459623e-01, -4.2666852973171826e-02,
          6.1550213307681942e-02, 1.5466548432612087e-01,
          1.9501940916692451e-01, 1.2620626515327310e-01,
          8.3401549325975335e-02, 7.2815444125124640e-02,
          7.9986565359542919e-02, -1.2244704152605156e-02,
          1.8442307541585090e-01, -4.0881993832840545e-02,
          -1.2405233919156264e-01, -4.4440053562141098e-02,
          1.9672865272477238e-01, -1.0602021442918702e-01,
          1.8622068617848556e-01, -5.8436022370945570e-02,
          4.2942943282487676e-02, 1.2415359584917007e-01,
          1.1120277709862643e-01, 1.3414805921152306e-01,
          1.3526128114940375e-01, 4.3681798340183507e-02,
          4.1419318631405938e-02, 1.1416473845811610e-01,
          1.7764124559080309e-02, 4.8732744260433031e-02,
          -2.9403381999446184e-03, 2.3119916461771081e-01,
          -1.2985944419177800e-01, -1.0284370061063183e-01,
          1.2153344423824620e-01, 8.9299046094856324e-02,
          1.5090106293398831e-01, -2.2209213863635911e-02,
          9.3997473045060401e-03, 5.2285418126125673e-02,
          5.7266626882691331e-02, 4.3750488826490734e-02,
          -2.0952829763185486e-02, 1.4004516417912474e-01,
          5.8497387150575911e-02, -1.7053120510593378e-02,
          -2.0011748458646736e-01, 1.1196846022855145e-01,
          -1.4740998386778104e-01, -3.2972755482118796e-02,
          -8.5452077626784237e-02, -1.2068953011684182e-01,
          6.8681787849254623e-03, 6.4800727627721752e-02,
          6.3654771122217277e-02, -1.0876186402935846e-02,
          1.3886868718111198e-01, 5.7882244455224975e-02,
          4.2117201332804340e-02, 7.2253204007376830e-03,
          -3.6290864826730149e-02, 6.3498662510586876e-02,
          -1.1910585476421731e-01, -7.3622860118161396e-02,
          4.4550769781917399e-03, -2.2643022678008987e-01,
          -6.8843576615795946e-02, -8.3637217294843191e-02,
          2.8002977247685638e-02, 1.8800822042070536e-02,
          7.8298711881835178e-03, 5.8668394357630479e-02,
          -5.4182072111425568e-02, 7.1613322285450781e-02,
          -1.7856427691525104e-01, 6.4599687450920623e-02,
          7.9085717231289585e-02, -4.1910820746801622e-02,
          -2.1665838562501503e-02, 3.2647473986782589e-02,
          -4.0664743003641916e-02, -6.4011216389717011e-03,
          -2.1155917906524956e-02, -1.9947937479692610e-01,
          -8.8591573904462428e-02, -1.0962969887913414e-01,
          -1.6888333580815339e-02, 6.6950025059518956e-02,
          5.4897556992253203e-02, -1.1315820179056583e-02,
          -1.2500684755849003e-02, 1.2777478043691259e-01,
          -1.3681001207694925e-02, -1.7700163937243115e-03,
          -8.3603315405024761e-02, -1.0823518788235420e-01,
          -9.5229078176669132e-02, -3.6494127881741147e-02,
          -2.3307763836467949e-02, -1.8094906161618432e-01,
          -5.8070371455656300e-02, 1.1050960779549815e-01,
          7.5244379207494078e-02, -9.8971410197630103e-02,
          -4.6469358495845714e-02, -2.4091928703043233e-02,
          1.3958736399155316e-01, -3.2285983742229324e-02,
          1.5265914819480185e-02, -5.7107039478807943e-02,
          -4.2881853101795365e-03, 6.5116527202993435e-02,
          -1.2660328875626414e-01, -3.0358222537327659e-02,
          -9.7115114246538570e-02, -3.3537364219954402e-01,
          1.2313238618177244e-01, 9.9776095002082708e-03,
          5.0366036146275821e-02, -1.0785342212708192e-01,
          -1.1941401010585286e-01, -9.1064313059858164e-03,
          7.2589168460206979e-02, -4.2835021431641300e-02,
          1.4634726490862826e-01, -1.4750824186281247e-01,
          -2.6722219642866080e-01, -9.0022863726320387e-02,
          -9.7523716512524186e-02, -5.5976198423707657e-02,
          -1.2488831045069480e-01, -1.2341056149277042e-02,
          1.2857776083298425e-02, 3.6559658731911956e-02,
          -4.6680014385459413e-02, 1.6416552167393170e-01,
          -4.4815645893046784e-02, -1.5553820471555889e-02,
          -1.6742613987110025e-01, -1.0074424633890668e-01,
          1.7787557448911426e-01, 5.5221040737412396e-03,
          -7.6123726764090266e-02, 6.0014144094602165e-02,
          -1.4209734386316450e-01, 8.8859459442284544e-02,
          6.5011313491714587e-02, -1.0231558823848882e-01,
          -6.7443516216531565e-02, -8.4464866284970117e-02,
          -2.8781515601270603e-02, -1.8379376401478510e-02,
          1.1127978078897259e-01, -1.1285978448368936e-01,
          -6.1903623806193797e-02, 8.6818784745029395e-02,
          1.8490525439035323e-02, -1.0587303791265411e-01,
          7.8262659525899322e-02, 3.5676224853503816e-02,
          2.0193841205146102e-02, 1.7298060648692021e-01,
          1.8936305875186563e-01, 3.9995529963930646e-02,
          -9.3248292698343473e-03, -5.3055802779920927e-03,
          7.2084327977965962e-02, -1.0541374579456309e-01,
          1.0101154472251538e-01, -1.3832875253520571e-01,
          1.1118466581239472e-02, -1.8153174323445315e-01,
          5.9886148299663086e-02, 7.2699368516983359e-02,
          1.5766095597291863e-01, 2.6088345943043878e-01,
          -1.0869694989078278e-01, -5.0848997652828645e-02,
          -6.9455298303717036e-02, 1.7717847876908838e-01,
          -6.7219848783284075e-02, 1.7958807817701863e-01,
          -1.4242705691804192e-01, -9.3038287919317397e-02,
          2.4745622997636729e-02, -1.1275332394377509e-01,
          6.7813508861164079e-02, 3.7842215681951332e-03,
          3.1783631445578085e-03, 1.4144407617487181e-01,
          2.4137895835204820e-01, -7.2705119461425854e-02,
          -1.6579926784504329e-01, -7.9793868158856335e-02,
          8.8663109145920155e-02, -1.6897332619021807e-02,
          8.1393869962774007e-02, 5.5202945188154155e-02,
          -9.9627486762083137e-03, 4.5161860337270383e-02,
          -3.8709476870739216e-02, -6.9959929263509801e-02,
          -3.9485813636741416e-03, -1.2090160397006046e-01,
          6.5586406980379736e-02, -1.3596671267820062e-01,
          -2.4172664241061889e-02, -6.1666100873095771e-02,
          2.4675818385426991e-02, 8.2762892594738704e-03,
          1.8156052958123386e-01, -1.4180117805857392e-01,
          9.7740997780587993e-02, -6.4420520751815424e-02,
          -8.8649805056587580e-02, -9.5085199738424678e-02,
          -4.1060654474151269e-02, -1.8519285788129841e-01,
          -3.0770428861645827e-02, -4.3891622999102389e-02,
          -6.1284567645084193e-02, -2.0938294268060330e-03,
          -2.1807127285610731e-01, 7.4302237398787233e-02,
          2.5671493247497481e-02, -7.0873629281619221e-02,
          3.8820907306870371e-02, 4.1912879415118447e-02,
          -8.6690509937281127e-02, -7.2477686174025308e-02,
          -8.8060698342032548e-02, 2.5820645788777857e-01,
          -2.5433434604071842e-01, -1.1222580795914906e-01,
          1.4254512337495581e-01, -6.8375684670898301e-02,
          -3.3759073512819543e-01, -2.0321822923312950e-02,
          -2.5037110803274195e-02, 2.7894339624871652e-02,
          -2.3554733731024169e-01, -1.1120119368684485e-01,
          -3.5442336912908032e-02, 1.8476871265239242e-01,
          -2.0182611099413741e-01, 4.2358436246580818e-02,
          -3.4235051504564656e-02, -4.9099497202266557e-02,
          -3.8965506320509075e-02, 9.6943334323700350e-02,
          7.2618318927633943e-02, -1.5824391519774855e-01,
          -1.2111179033417104e-01, 7.8356064042242393e-02,
          4.1399817690897171e-02, -1.4461682909383961e-01,
          1.1954954133526856e-01, -2.1164035070524192e-02,
          -5.5874513351624938e-02, 1.5521722510410200e-02,
          -8.6635935479396117e-02, 1.2918373443229877e-01,
          1.6779013789607996e-02, -6.2111741661703447e-03,
          -4.9844577859609988e-03, -1.4524907176654289e-03,
          3.1692249303025707e-02, -8.8734850471784060e-02,
          4.9858767273587307e-03, 1.2974627791352722e-01,
          8.0486326062281330e-02, -9.9807619675511813e-02,
          1.2556757917557942e-01, -7.1819146636638770e-02,
          1.1769881369216123e-01, -1.2810527134001531e-01,
          -1.2479223335597246e-01, -9.1466809263891558e-02,
          -1.0840992569976374e-01, 1.8659360506593354e-02,
          -9.2226285669850402e-02, -7.3027115813994903e-02,
          -1.4908109015434087e-01, -1.5291783627627387e-01,
          -3.1510078312435040e-02, 1.3235531436891365e-01,
          -9.6251884077085247e-03, 9.3275583239173676e-02,
          -1.3919553679263055e-01, 6.2513573510712531e-02,
          -6.4735743090114942e-02, -1.2160826678601074e-02,
          -3.0379154541219255e-02, -1.8253913049519688e-01,
          -2.9798058283733782e-02, 4.0997947693436142e-02,
          4.2854682164828455e-02, 1.5283339374874799e-01,
          -8.7942756207412959e-02, -1.2707946394096081e-01,
          -8.9150001072116347e-02, -3.5393769949714000e-02,
          -1.4486941532586142e-01, -6.5460119126796085e-02,
          -1.2905078546553295e-01, -3.1985337155901788e-01,
          9.4827896260209540e-03, -4.3658403282108182e-02,
          2.5204208513712731e-02, 1.1592113754188393e-01,
          -1.5356967684412648e-01, -1.0598002216923448e-01,
          -3.3673757748495736e-02, -6.2823168207838245e-02,
          -1.0347983139973833e-01, 7.6464688706623790e-02,
          -6.3957841130276763e-02, -1.4599099940681251e-01,
          -1.3426423128891078e-02, -1.0266915824143609e-02,
          7.6849373345410241e-02, 1.5463230900510797e-01,
          1.6016654734370514e-01, 1.4809884870840476e-01,
          9.7638253577930906e-02, -4.5272118050933577e-02,
          -5.8894396955519276e-02, 1.9098830549320191e-02,
          -9.1105223247767431e-03, -2.9252013407285887e-03,
          2.0780979007271802e-01, 1.8458110059687682e-01,
          -1.4595864633048655e-02, -1.3427201434743560e-02,
          -1.1405373243876712e-01, -4.9427294774357811e-02,
          3.7525176250722887e-02, 1.0973530138962530e-01,
          -6.8424238778677413e-02, -1.2403801346496202e-01,
          2.4684907954808169e-02, -3.7890165420042442e-02,
          -8.7928997728854603e-03, -4.3468588661280769e-02,
          -1.6562469087255285e-01, 2.6859946957065287e-02,
          1.2854607898923939e-01, 1.3906454306912175e-02,
          8.6221688493194129e-02, 5.5535520904029370e-02,
          -8.7325133082736858e-02, 6.0746643616489418e-02,
          2.0797730057660332e-01, 1.7828606299258656e-02,
          -8.1011470619574380e-02, -7.8984117823355182e-02,
          1.3893076275193311e-01, 1.8018195401473636e-01,
          -4.4768450356527005e-04, 8.8087646539863514e-03,
          -3.3967867005281231e-03, 4.9122069092351943e-02,
          1.0695423347298226e-01, -8.0672517135425576e-03,
          -1.5872385348919424e-02, -1.5215189714227836e-01,
          3.2801588878335980e-02, 1.7439025218454658e-02,
          4.5569290115555468e-03, 4.3369602132513341e-02,
          -9.2740389231179485e-02, 1.2108075398470192e-01,
          8.4997776072695305e-02, 2.4514096048741094e-02,
          -1.6109008278153047e-01, -1.3323666204511828e-01,
          -8.7918071954130150e-02, -6.0264198518430082e-02,
          -1.0712610958834966e-01, 1.2052490746227012e-02,
          9.2451493333199547e-02, -7.1994696078745563e-02,
          -4.8719743660269287e-02, -8.5587070355262113e-02,
          1.1841898250700122e-02, 9.6835936989378535e-02,
          1.0803303237532789e-01, -1.4846043549395895e-02,
          9.5637298295585441e-02, -3.3676409366923975e-02,
          -1.6940561469547213e-01, -1.0110783004183854e-01,
          -4.4156980541422523e-02, 7.3465954148647011e-02,
          1.9745131440160921e-02, 1.2513798294497874e-01,
          -1.3871484819675903e-01, 4.8413151433924918e-02,
          -9.5358240419356352e-02, 4.5561260475340960e-02,
          6.1531552539548350e-03, 8.2680525728131379e-02,
          1.4756824031173563e-01, -1.3011546483360142e-01,
          1.4845040849907382e-01, 2.7381309985397458e-02,
          1.2555698606735324e-01, -3.5712857675422219e-02,
          -6.1631721640920935e-02, -1.5874772376680385e-01,
          -9.9559548924319091e-02, -1.0571238396837940e-01,
          -4.4872718881670402e-02, 1.1136397347770770e-01,
          -1.9147146503596668e-02, 5.0539406710166886e-02,
          1.7146233552170306e-01, -7.8460731567794692e-02,
          6.5338064102587329e-02, -3.5850856722424190e-02,
          -7.9871198808499827e-02, -2.8695597009791005e-03,
          7.7241553697976625e-02, 3.7720479714798694e-02,
          -5.2431772688870448e-02, 1.0639590286573056e-01,
          1.1147391823460984e-01, -6.4394490778843017e-02,
          1.1151920257742507e-02, -1.1909277899996981e-01,
          7.6573634018525905e-02, 7.3025456883031553e-02,
          2.7780046965632688e-01, 1.4624839123492933e-01,
          8.8790373447687809e-02, -5.4160420146294359e-02,
          -7.0930529715474117e-02, -8.7696100066384355e-02,
          3.2916154874688769e-01, 3.1156649253514166e-02,
          1.3641158186027116e-01, -4.0877231654374381e-02,
          -1.7843203525023604e-01, 7.9201172363323580e-02,
          2.2771032335541588e-02, -1.1596394374316121e-01,
          4.1996159825414714e-02, 1.5552439203418961e-01,
          -8.3243742660181697e-02, -8.7643934066020330e-04,
          -1.4917006944177033e-02, -1.1349353607251060e-01,
          5.4642741000064790e-02, -7.5551436938883984e-02,
          1.0742925117723658e-01, -1.0915466214838750e-01,
          -1.1287229463347814e-01, 1.0964476843204246e-01,
          -2.0461460308015092e-01, 5.5137711768311788e-02,
          7.9249394174757265e-02, -2.5688777029714654e-01,
          2.4679749619269395e-01, -1.3937871279166672e-01,
          -1.8281819161314858e-01, 2.9605713219207175e-02,
          -7.7113085287616775e-02, -1.9731106175236651e-01,
          4.3011411810466034e-02, 9.3061020084987858e-02,
          -1.8542226444072329e-02, -8.8374774038608606e-02,
          2.8658601063168676e-01, -1.7447183279518164e-02,
          -1.2527693588608013e-01, -5.4422944628311314e-02,
          -2.0586020116148104e-01, -1.4322652379836986e-02,
          -1.9278364964196489e-03, -1.1846117233361358e-01,
          -2.4709253206880957e-02, -4.1930992081460540e-02,
          2.0009179876092847e-01, 2.0775885896257260e-01,
          -1.4307239688405307e-01, 2.1061934212886035e-01,
          2.0725535716412688e-01, 9.4996553891471894e-03,
          -7.7941710551242230e-02, -4.6432262704689829e-02,
          -6.8202945570560961e-02, 5.7044508051204597e-02,
          -6.8774710440397444e-02, 1.5332601725213852e-02,
          9.9978806296052103e-02, 3.9438332674515797e-02,
          5.4865973849528141e-02, 2.0449239120278195e-01,
          1.1571515993548093e-01, 1.2594028485134351e-01,
          6.8198989879546300e-03, -5.4643826944510823e-02,
          1.0667589155084664e-01, -1.9230527527687370e-02,
          -7.7724871449583163e-02, -4.3053223250103079e-02,
          -2.9157525908534324e-02, 9.5892562471798767e-02,
          6.6226497495886730e-02, -8.5420864244952585e-02,
          -6.1576789902296557e-02, -6.6637186009821159e-02,
          2.1973896391805511e-01, -1.7795070904211167e-02,
          1.2825951159110696e-01, 1.9614210422146474e-02,
          9.6270727844440084e-03, -9.6945401678265986e-02,
          3.4833370138988906e-02, -2.4613541954230305e-02,
          -2.8035146542266312e-02, -1.7315010992493565e-01,
          1.4666589904998598e-01, -2.0543526488424274e-01,
          9.0212861502135047e-02, 3.7311560505991437e-02,
          6.9278443197194001e-03, 3.7571556955133645e-02,
          8.6178945566656354e-02, -1.0052281588571223e-01,
          6.6780380503470418e-02, 1.0520352428842028e-01,
          -1.3326660403752749e-01, 8.5425483991643930e-02,
          -2.8321013347487510e-02, 1.9827540095533554e-02,
          7.3900502757600892e-02, -2.7373668031772776e-02,
          9.9165146533117254e-02, -3.3802397635288993e-02,
          -4.7213186451746970e-03, 9.9260807621661482e-03,
          8.8270332649714889e-03, 1.0106428350242111e-01,
          -1.6357539417229082e-02, 1.2023134701748853e-01,
          2.7178695742362417e-02, 1.2408597797233643e-01,
          1.4211406693463868e-01, 6.4052611946256777e-02,
          -9.4995692291430678e-02, 4.0534562967074438e-02,
          -2.0305040383672859e-01, -5.3837492613976752e-02,
          7.5766099737649403e-02, -7.5158481471717123e-02,
          1.1154351247805004e-01, 9.1464384446883262e-02,
          -1.7280919940437667e-01, 2.5783191581395257e-03,
          8.3521489502170563e-03, 2.8538193159402852e-02,
          -8.2938994183587106e-02, 1.4188977921391993e-01,
          8.9085688300945348e-02, 1.7599566366771086e-01,
          -1.4070487615046429e-01, -1.5218191293261402e-01,
          -5.4334265484997084e-02, -9.2283452619721339e-03,
          1.0635854386756356e-01, -2.1484152902574591e-01,
          6.5348255604972219e-02, 5.9204267835134189e-02,
          7.7460398458124149e-02, 1.9013682729507633e-01,
          -1.9252801767610392e-01, 1.2190568119015645e-01,
          1.1745625217770408e-01, 7.8566189371411049e-02,
          1.8569999977594336e-02, 3.9135816096563324e-02,
          -1.2582998735004985e-01, -7.3310234821280462e-02,
          -5.2775517746617630e-02, -4.2151154436422145e-02,
          -3.2631852689114539e-02, 1.2924049682228211e-01,
          -3.4105823798169732e-02, -1.7111204217740197e-01,
          1.2373690680663725e-01, -2.5998407414925745e-01,
          -1.5716304339075032e-01, -1.1859863452653026e-01,
          -9.2696437077637014e-02, -8.7497073499969394e-02,
          -1.1452084677209916e-01, -2.4011189580932036e-03,
          1.3970478252097379e-01, -1.6423977034616158e-01,
          3.9092663558454631e-03, -3.0193198076387078e-02,
          -7.0940546899707722e-03, -1.5211528039768757e-01,
          3.8566406769696443e-02, 8.5186842165894061e-02,
          -1.5663162207426631e-01, 1.1817783407850263e-01,
          1.1654247831058635e-01, 4.8661787197079705e-02,
          -3.9834376378162485e-02, 2.7919622623649187e-03,
          -9.3626528271690046e-02, -3.7910736156919159e-02,
          -8.0070104190908931e-02, 6.4414085076166985e-02,
          8.0764918361316454e-02, 1.0888036189703071e-01,
          -1.5618105784293504e-01, 5.4070117055406665e-03,
          1.6460090037988637e-01, 1.3498151220872818e-02,
          2.8451277071775468e-03, 3.8985621317071249e-02,
          -1.2449744372195468e-01, 2.7500458807525704e-02,
          -2.2118523400067945e-02, -4.6011071848588103e-02,
          9.3906703084466803e-02, 9.7070514183459577e-02,
          1.0519655954277521e-01, 8.0598807045213980e-02,
          -6.8365331299977796e-03, -1.1020230138641916e-01,
          -1.4425074965400586e-01, 3.1560686943360769e-02,
          3.4822124578348310e-02, -6.5354213645035908e-02,
          1.3635026929799826e-01, -7.0153675185572209e-02,
          -8.3344884805873362e-02, 1.5987836783205997e-01,
          -5.2871183705479677e-02, -9.5424134392030638e-02,
          6.9798335585788025e-03, -3.9213403293248479e-05,
          -4.3964766842125753e-02, 2.2550287314038790e-02,
          -7.5529053187024506e-02, -2.0808168795530845e-03,
          9.4581837568001634e-02, -7.1430315103724620e-02,
          -1.1630627617444969e-01, -3.3247138670985214e-02,
          -2.2091693934694714e-03, -8.3172036052040640e-02,
          -1.0440248452637725e-01, 2.4671635624580288e-02,
          -2.2314282129176896e-01, -3.0762483548167206e-02,
          1.8797754204647133e-04, -1.2578245332175195e-01,
          -5.0988350910455898e-03, -1.4232358677532223e-01,
          -3.3689721744891245e-02, 1.2415516382524038e-02,
          -7.3786426966573920e-02, -3.8252586927993597e-02,
          -7.6304189910692183e-02, 5.7722974219537017e-02,
          -9.6022869171861355e-02, 6.0583074265524429e-02,
          -2.6905373734069829e-02, 2.2383685759131359e-02,
          -8.8488230709068638e-02, 8.0363211951999150e-02,
          1.2467305697814662e-01, 7.1962777114241760e-02,
          -5.4737332450791779e-02, 2.4121771030035256e-02,
          -2.0573549940417948e-02, -3.2833693937631074e-02,
          5.1373851177430978e-02, -6.1086316623384769e-02,
          -2.3357115348925003e-01, -3.4136008078249902e-02,
          -1.1903959996976243e-01, 6.3673982767727247e-02,
          -3.6580088670721517e-02, 7.8651380471867011e-02,
          -9.5347670917684035e-02, 1.7692351047794269e-01,
          1.1605381056973392e-01, -3.3506393274438301e-02,
          7.3974765088853145e-02, -1.1717261393488690e-01,
          -1.1534932576156355e-01, -6.1745666803850748e-02,
          3.0893363076025561e-02, -1.9216598748220992e-01,
          -1.9634092065611261e-01, 7.5409551646537523e-02,
          5.1891274915752343e-02, -1.3391043245803042e-01,
          9.2825140570827733e-02, -1.5482870131741907e-02,
          2.5422357459660440e-03, 1.1582215578232119e-01,
          -2.6762561701246194e-02, 1.0430956762255361e-01,
          1.1874468773161241e-01, 1.2609112134413233e-01,
          -1.6438149176794684e-01, 8.7256032316444063e-02,
          2.6064751120761481e-01, -5.3843610991627842e-02,
          -8.9466582940438300e-02, 1.9562841882682029e-02,
          -1.8457978864978625e-01, -3.7849227269160539e-03,
          1.9094984228704145e-01, -4.0083291944799267e-02,
          -2.0745235656665648e-01, 2.2592165393140046e-01,
          5.1247916659170230e-02, 2.6979440665795773e-01,
          -1.9186444335027898e-03, 1.0960731597154537e-02,
          -6.8782936953860369e-02, 9.3033003394490402e-02,
          -1.5125814547233010e-01, -8.1327163091384255e-02,
          9.8413596873405729e-02, -1.1519220014406131e-02,
          8.5756299532700767e-02, -2.5581348196186016e-01,
          -1.6686597961589633e-01, 5.4476414249045937e-02,
          2.7863068424269311e-01, -2.2457911958940105e-02,
          -5.4732332074332743e-02, -4.2548796763847270e-02,
          1.5021692176445151e-01, 5.0860191813095229e-02,
          -1.1367629086666652e-01, -1.0486879387876311e-01,
          8.2864677904697676e-02, -1.9829855206002625e-02,
          -5.5509646905221442e-02, 2.5668074416800579e-02,
          -1.6586716355896464e-01, 2.7626364909312355e-02,
          -1.1528467607492641e-01, -9.3077905984100012e-02,
          6.3928443962206483e-03, -6.2261314632034784e-02,
          6.0627748345426925e-02, 5.9100174885239110e-02,
          3.9284912619496327e-02, 1.1997360181533639e-01,
          -5.7930797920404668e-02, 1.5479149009428173e-01,
          -3.2973393746981092e-03, -6.1786501387387574e-02,
          -1.6791163946659457e-02, -9.1296118289750164e-02,
          9.4267951682349027e-02, -6.7162811034493231e-02,
          5.9686990282954357e-02, 1.8955443587702350e-01,
          5.8207300975457585e-03, 3.1911643045185546e-02,
          -1.1059915952126598e-01, -8.5686680580579572e-02,
          1.5595986854966883e-02, -1.0294821829820883e-01,
          -2.8017203089861151e-02, -3.0965190005112806e-02,
          2.9842240824018831e-02, -9.1952787160104077e-02,
          5.8367481199718442e-02, 3.5081304054485042e-02,
          6.0087445332795940e-02, -5.9093723458132449e-02,
          9.7497763512519917e-02, 1.7604363686394103e-01,
          -1.0934078320423148e-01, 5.1195142178014130e-02,
          -5.1619453878689457e-02, -1.5162313125267356e-02,
          -3.5711018954203116e-02, 2.1970518439103390e-02,
          1.8033759915173453e-01, -6.8863553117850515e-02,
          -9.7902061513555100e-02, -4.1764209898489897e-02,
          -2.9214123932252277e-02, 1.0871997316492635e-02,
          1.6244266484440345e-01, -1.0243482790456791e-01,
          -1.7002550899829866e-01, 6.0412537951673555e-02,
          3.3650577404743996e-02, 9.9728813415143794e-02,
          -3.1422121019373528e-03, -5.4267946597262647e-02,
          -3.8817273559928145e-02, -8.9634255463814219e-02,
          -2.7348324752318336e-02, 2.1130787611062574e-02,
          -4.9790455238729117e-03, 6.0466499418747946e-02,
          -1.3281582658717878e-01, 6.7074888571776001e-02,
          3.9732367322930534e-02, 5.7161723509608839e-02,
          1.7459265651150281e-02, -4.3720091246685799e-02,
          3.2862748361714662e-02, 2.5707684643647193e-02,
          -5.5529969558760307e-02, 6.3587070825016384e-02,
          1.2246443703737101e-02, 4.9113536924695091e-02,
          8.5673402906316903e-03, -6.5057422626637468e-03,
          -1.2668646159135891e-02, -5.2182688232091823e-02,
          -5.7729029124163750e-02, 1.1324059641555648e-04,
          -7.1147333245693391e-03, 6.8844500970484127e-02,
          1.5755592507180965e-01, -1.0672837537939535e-01,
          -1.6150926478971714e-01, 1.2488786808096865e-01,
          3.4737098251348832e-02, 9.5624245486085169e-02,
          -8.0383639132114507e-02, -1.0402543200024159e-01,
          -1.1746404477550373e-01, 1.1897092214647305e-02,
          1.4152212075554613e-01, 8.6825951195312598e-02,
          5.3275125609224686e-03, 1.0094698102581931e-01,
          -1.1880927928840042e-01, 6.3631256428478347e-02,
          -1.5454491131865097e-01, 6.6297708416834279e-03,
          -1.1209883755279325e-01, -8.1098388120216289e-02,
          -8.0861233955481209e-03, 3.4997565842590922e-03,
          1.1993250081875662e-01, 1.0240784873701544e-01,
          -8.4789421407163668e-02, 6.5350863323685990e-02,
          -9.4572789156217849e-02, -7.1743986213258272e-04,
          5.9121492716717683e-02, 1.9444532809080060e-02,
          1.9628978420027407e-02, -8.8560502571109659e-02,
          -4.4915861394831266e-02, 1.5725495511413309e-01,
          9.9904084074940835e-02, -1.5742632118392802e-01,
          -5.6583895249449942e-02, 1.9080029719726659e-02,
          1.1023015160943192e-01, -8.6226075103106467e-02,
          6.6343055906861972e-02, -5.7006644900648586e-02,
          4.0130263348732396e-02, 4.0695413822715548e-02,
          -1.6802079359111564e-02, 7.7059664634122380e-02,
          -7.4667176493125390e-02, 3.5875408882483313e-02,
          -2.4324988766544316e-02, 1.9558492967646925e-02,
          -1.1918078515721487e-02, -7.7528034795438391e-02,
          -1.2109152339269383e-01, -8.1375427372564840e-02,
          -2.2092996609688935e-02, -6.8370136675538415e-02,
          -1.2922830664603863e-01, 1.3365276444999241e-01,
          4.1140510835714544e-02, 2.6871503173874972e-01,
          3.4183810666006698e-01, 1.0789949338626734e-01,
          2.2006054487078503e-02, -6.8071294299261106e-02,
          6.6109244720808175e-02, 6.3059712904323884e-02,
          -2.1629291525151403e-01, -7.8459252715860472e-04,
          3.8633309778491130e-02, -3.0935989322191760e-02,
          -3.3900657599505168e-03, 1.5357388007140055e-01,
          -4.4652286905775676e-02, 3.4205564289137257e-02,
          -7.0471052178443933e-02, -6.1042506105977223e-02,
          -1.5705635292266446e-01, 9.3126304755332526e-02,
          -1.0498722210865172e-01, -9.2032890210632753e-02,
          -1.6555803860386753e-01, -6.8789005120781427e-02,
          5.0239869623916716e-02, 2.2420478272253838e-01,
          -1.7547765650952910e-01, -7.1473306300307390e-02,
          -1.6403985054759462e-01, -2.4727774582434379e-02,
          -2.8206848288682806e-02, -1.4751718524813959e-01,
          3.7651250392833652e-02, 2.4968490020448891e-01,
          -4.3310076448551414e-02, 9.1816542192996065e-02,
          -3.6879061712271753e-02, 1.3576486508056387e-01,
          3.2561380869275569e-02, 3.1010792953371814e-02,
          -8.9810616025743695e-02, -3.0245485657028861e-02,
          1.6805001950653750e-01, 1.9268523434335913e-01,
          -6.3734312972697632e-02, 1.6938454737287881e-01,
          -5.7823661515176593e-03, -2.7087224751464842e-02,
          -1.1085034209035041e-01, 1.1919022243302425e-02,
          -1.4849133341347145e-02, -5.7904374329348599e-02,
          -8.9515566809091462e-03, 3.9909399438817099e-02,
          1.0133847095514905e-02, -6.3332027779761352e-02,
          7.0751271221335503e-03, -4.9371008727193593e-03,
          -1.1208102430213224e-01, -7.4608976475860442e-02,
          1.7123322512310617e-02, 8.3728814324423112e-02,
          5.5697546768855813e-02, 1.3711792180481694e-01,
          1.0585976214929507e-01, 4.3128145132855129e-02,
          -7.6286188818521908e-02, -1.0897943173794591e-01,
          -1.2085728539674133e-01, 2.0506449137780845e-02,
          8.6323522862254733e-03, 1.0594829389051363e-01,
          -9.2737913377589160e-02, 1.0522392143957261e-01,
          -2.6222003081299398e-02, 2.3288086115771819e-01,
          -1.3821877052209849e-02, 3.7850372082674728e-02,
          -1.2049890863594465e-01, 1.2807453465166665e-02,
          -4.1062072381564056e-02, -1.5050448371397426e-01,
          5.7339464067031214e-02, 8.6535847558029729e-03,
          3.7021948885831856e-03, 6.9686318158008825e-02,
          8.6118607309237136e-02, -1.7228060264647554e-01,
          -6.6433052771136022e-02, -3.9980923617853971e-02,
          -2.4993455718894825e-01, -1.7389001109558680e-01,
          -5.8914395075314561e-02, 1.5516982749451738e-01,
          7.5931021269492582e-02, 1.7890095663835212e-01,
          7.6108818921710952e-02, -1.2350417196701502e-01,
          -1.3265300761736337e-01, -9.7932499753645916e-02,
          -8.8370648408589811e-02, 4.2738596259060860e-02,
          -6.8627596113547545e-02, 8.4471981607908683e-02,
          1.6108600589317476e-01, -1.1389958770018041e-01,
          -2.8131584645335433e-01, 8.7959856617792612e-02,
          -9.7464216853601501e-02, 4.3783249790402198e-02,
          4.2490815733836382e-02, 1.1158196480416432e-01,
          1.3274431244862187e-01, -1.0674649773989216e-01,
          -1.5840562989685580e-01, -1.1499487095493416e-01,
          -9.1786011297933803e-02, 3.6789246626511056e-02,
          -3.2505394435615460e-02, 8.2502123187980961e-02,
          7.1461985015288443e-02, -7.5212831736763729e-03,
          -1.9723172492909880e-02, -2.0570611006898765e-01,
          -8.1678873952477679e-02, 1.0821070925510827e-01,
          -1.4197045851099396e-01, 9.0090807245531822e-03,
          1.0498747530041455e-01, 1.1223474545073872e-02,
          -8.7836494451207000e-03, 6.9620527491928791e-02,
          1.8203185398452351e-01, -1.5140449192204802e-01,
          -1.4563505323719775e-01, 7.7944647201877756e-02,
          -1.2381030310708742e-01, 6.8616594442437007e-02,
          -8.0891606741535192e-03, -1.3466905673199511e-01,
          -7.8871889604278309e-02, 1.5366258291653652e-02,
          2.4202634497786946e-01, 2.6221881423414924e-02,
          -1.0765294731025268e-01, -2.0596514337955132e-02,
          -4.9334395325802485e-02, 5.5598759781163881e-02,
          2.9738617798424096e-02, 7.1969848455949489e-02,
          -3.2609252976548619e-01, 1.5435522477507990e-01,
          4.6106943958509252e-03, -6.2446163302793810e-02,
          7.5261685109832999e-02, -1.1665556957646693e-01,
          -1.6361151384020789e-01, -7.6177631485528585e-02,
          2.3994274343165770e-02, 3.2201482475615335e-02,
          -5.7717103553046309e-02, -1.1363591877052864e-01,
          -1.3399459954580042e-01, 2.2144054707080907e-01,
          -1.8566323791748416e-02, -9.9384472894685407e-04,
          8.3294438823593331e-02, 3.5521561292391611e-02,
          -5.1722018225704519e-02, 5.2926513117801593e-05,
          -4.6250856930417000e-02, -1.8446118654209598e-01,
          7.8877836505937798e-02, 3.9682768678373753e-02,
          1.4864336925736990e-01, 6.4096934459880892e-02,
          -1.7108326519351624e-01, 4.1581423965823532e-02,
          6.0478587432649923e-02, -5.2556115509306261e-03,
          9.1583560629564364e-03, 1.3501156416751059e-01,
          6.9088432519709198e-02, -2.4866535100807184e-02,
          -1.9151209710693248e-01, -5.2136862152532756e-02,
          8.7108849911728972e-02, 8.2916671092244917e-02,
          -1.6396584768437042e-01, -6.8124996740085084e-02,
          -2.5802520781173427e-01, 1.7742010133313890e-01,
          9.7614063456320080e-02, -2.0920782352060066e-01,
          1.0420714462022725e-01, -4.2318060921594874e-02,
          -1.2674197499777967e-01, 2.3632854468881326e-01,
          -2.2242388520032849e-01, 1.9833634602806918e-02,
          -3.7443715552922877e-02, 8.1597943924296035e-02,
          7.0885239028190578e-02, -1.0261058554481001e-01,
          2.4320053398592310e-02, -5.8030245737326659e-02,
          1.8892486120448393e-01, -8.6327199551441886e-02,
          -1.9872754385640415e-01, -6.9014896099822226e-02,
          -6.2824218434118020e-02, 2.4816521251715504e-02,
          7.2108216155208890e-02, 9.4242104053772244e-02,
          -1.0395251677635840e-01, 2.2708649320170202e-01,
          1.0632489865544542e-01, 2.8218892743423572e-02,
          -8.3041066906484523e-02, -5.9823099816104633e-02,
          2.1775437954225854e-01, 8.9029186285011372e-02,
          6.5754839386616928e-02, -1.6884338223621492e-01,
          1.1201808524905291e-01, 1.5592219398623552e-01,
          3.4999738902774737e-03, 3.7634238178065202e-02,
          9.4594475978131448e-02, 7.7867661725923146e-02,
          -3.5527065462697051e-02, -5.2321799332471483e-02,
          -1.8102606652005960e-02, 6.2402368186645588e-02,
          -4.4825264473438715e-02, 4.8697392571857435e-02,
          -6.9739265422158317e-02, 3.0722993832742389e-02,
          -4.1853766749471054e-03, 4.3266781378296273e-02,
          -5.7491847455108790e-02, 9.7706914806253611e-02,
          9.6614390186378518e-02, 3.2975990467717972e-02,
          4.1074869747477439e-04, -6.7285400313354865e-02,
          2.8083674322115171e-01, 2.8541634168470317e-02,
          -1.6748173777916962e-02, 1.0822422692752910e-01,
          1.1618325567065498e-01, 1.4265634202504607e-01,
          -8.5172957062389212e-02, -2.4074770141080996e-02,
          -4.0500359524380768e-02, 2.8862769090406196e-02,
          2.5455797087790966e-01, 2.2906753477723790e-01,
          -5.7591257839023843e-02, 1.2897148852974374e-01,
          -1.7777989983855819e-01, 1.0897171753133055e-02,
          -1.9931457607000092e-02, -1.2199718739406724e-01,
          -6.5817925183755486e-03, -1.3808000110433977e-01,
          2.0380543701450093e-01, 1.7760536230263393e-01,
          -1.2982164442929217e-01, 9.2229390693525468e-02,
          2.0446543539003638e-02, -5.0520343680922807e-02,
          1.2265383983814479e-01, 2.2777501076161372e-01,
          -4.7341860701691676e-02, 6.2624877368990001e-02,
          6.8534652918329234e-02, 1.4106932890346896e-01,
          4.9948572798473825e-02, 5.8260819845818823e-02,
          2.4571909443024281e-01, -9.3012148591408883e-02,
          -1.1833972463469800e-01, 2.2012470213468513e-01,
          -4.4284692366816369e-02, -4.0179444962859953e-02,
          -5.2500803066841822e-02, -5.8215156486965070e-02,
          -6.9821126950153712e-03, 2.9433744669206644e-03,
          -6.4406343883024950e-02, 7.0855470642179980e-02,
          2.4704954608616343e-02, -1.0514685419138139e-01,
          -2.2923385124631657e-02, 8.5250994670434843e-02,
          -5.5560284276887563e-02, -1.3882649188477361e-02,
          -1.8536684851365454e-01, -1.8023186207020550e-01,
          -4.7244807759484045e-02, -1.0537946674453892e-01,
          9.1447561113971274e-02, -4.4802118258750856e-02,
          -2.0138411591088065e-01, 5.0121924099240753e-02,
          -1.7153269791448686e-01, 1.2242359263024646e-01,
          1.8768633895922499e-02, -5.5980247768690462e-02,
          -9.7877423936045496e-02, -6.8736120854627852e-02,
          -8.6739807979303959e-02, 1.9382255700919039e-02,
          1.6316379360136524e-02, 2.9128439797359317e-03,
          1.1956223516877784e-01, -4.1056477474459709e-02,
          5.3174769708527692e-02, -1.7489201968881002e-01,
          1.9077888476363623e-02, 1.3514658226353113e-01,
          8.8282512538174096e-02, 3.5412334068735042e-02,
          1.2955578542410227e-02, -1.0750320945312008e-02,
          3.1069765479875824e-03, -1.1090533979001629e-01,
          2.6839301595025417e-01, -9.7545403110682605e-03,
          2.3437524053766851e-01, 6.7844637444256728e-02,
          -1.5496959967269717e-02, -6.1151096974598834e-02,
          5.7818336376344578e-02, -1.2416769395980616e-01,
          1.0611598985542618e-01, 5.4924668370546548e-02,
          9.9966810590860516e-02, -1.0553148431686750e-01,
          -8.4829346820120916e-02, 6.0331646439536202e-02,
          -1.6103120290371542e-01, -1.8936059868146404e-01,
          -1.3851131632324670e-01, 2.8350311434461845e-02,
          1.4955665568440751e-01, -1.7855730361021224e-02,
          9.3815253206476823e-02, 1.7728630516706831e-03,
          5.4879413438715038e-02, 8.9957402018609918e-03,
          1.8656494053991356e-02, 9.1433740199315883e-02,
          8.4687123239330780e-02, -2.2758145899533278e-02,
          -2.8121960605173180e-02, 1.0667065605220075e-02,
          -1.6227485084219034e-02, 1.2483029553107086e-01,
          6.2433233942942395e-02, -1.0305240401944726e-01,
          -1.4012610698484551e-01, 1.3214547573461385e-01,
          -1.1056923773034907e-02, 8.9246441083146652e-02,
          5.3947321635125070e-02, 7.6286963278287045e-02,
          -6.9721681413602535e-02, 8.5675361262108243e-02,
          1.5287182091778312e-01, 6.2402810991285571e-02,
          -5.4549175055991016e-02, 1.7345555021908179e-02,
          7.7650551358493386e-02, 5.4646126770844107e-02,
          -3.1579858839751236e-02, -1.2828042112071070e-01,
          -1.5108766850104890e-02, 1.6979986390681448e-01,
          9.2737130007529006e-02, 1.3892542936535421e-01,
          6.9176689923096363e-02, 7.1723382449887893e-02,
          -1.5232687173940223e-02, 4.2552662459454556e-02,
          1.7333173904758598e-01, 1.3701893140813748e-01,
          7.9321654366959177e-02, 9.4100445367411134e-02,
          1.0973659108965883e-02, 1.6382853749020271e-01,
          1.6237269781033467e-01, -2.2319355429237550e-01,
          4.2395037735342068e-02, 8.7935572385666655e-02,
          -1.9918860240702357e-01, 1.5157558297237145e-01,
          -1.9586553348186947e-01, -1.5372447121579341e-01,
          -7.4524136939269861e-02, -1.1029626476799141e-01,
          1.5046174951053414e-02, 1.3178224486427653e-01,
          1.0576120803005599e-01, -1.5623127642289600e-01,
          -3.0392831594178386e-02, 3.0941001366058044e-02,
          -1.2175666564937673e-01, -6.2282488309416077e-03,
          -1.9086626770435010e-02, 2.2073130785776000e-02,
          4.1885820616259792e-03, 1.2659634089730459e-01,
          5.7563317981965387e-02, -1.7474987753864776e-01,
          -4.9285173463926189e-03, 1.9677463737938186e-01,
          1.1756940366899889e-01, -1.0574284937360927e-01,
          -4.8664073447591626e-02, -4.3188015385835124e-02,
          9.1194671328734808e-02, -9.0792552923837991e-02,
          -5.4785658411088053e-02, -8.2165747241723347e-02,
          -1.3799986044396084e-02, 3.3446538634744833e-04,
          6.1892214332535242e-03, 1.6901594619320456e-01,
          -8.8443451121999986e-02, -6.4683906013274936e-02,
          -1.0748347209685709e-01, -3.8442914341784720e-02,
          3.9836065473382788e-02, 3.8887185424017055e-02,
          -1.4988560628766445e-01, -1.2140669021858785e-01,
          -1.2983200493222954e-01, -2.6237884611683505e-02,
          5.3066858364306926e-02, 7.7332675968779407e-02,
          -1.1793347132745113e-01, 4.1162911884011964e-02,
          4.4859245125803027e-02, 5.9565704586376216e-02,
          1.6824489006174623e-01, -3.2415696565986238e-02,
          -2.5502553649552667e-01, -6.4175865133909091e-02,
          9.7630171738600779e-02, 1.6723364434041399e-01,
          6.2243988684282388e-02, 5.1039822883777348e-03,
          1.3671041076379143e-02, 1.3178760389361410e-01,
          -5.5241010775123438e-03, 1.4895476668270208e-01,
          -1.4552584235600571e-01, -1.1296568271994901e-01,
          -3.1143187084353641e-02, -4.1375207602227453e-02,
          8.1867850421653565e-02, -9.1727332026821012e-02,
          9.7585400686912252e-02, 8.5546186789376005e-02,
          2.9322623236277909e-02, 1.9099497354141865e-02,
          -3.5681377859705959e-02, 8.6189966863967973e-02,
          5.3483094737750383e-02, 1.9741229464024256e-02,
          -6.4724241899931895e-02, 2.3227644382742207e-01,
          -8.2473932067875177e-02, 9.0281593480233652e-02,
          -1.2813754672393131e-02, 1.8136239469552271e-01,
          1.0968454691457478e-01, 1.7601651429967786e-02,
          -7.8868405932187816e-02, -1.9459860605476093e-01,
          -1.2977011275577119e-03, -1.2950402393584950e-01,
          -1.2148592265858968e-01, 8.9699236969049245e-02,
          6.3276190323487289e-02, 6.7373263297324182e-02,
          1.7137828605982555e-01, 4.6002159569763626e-02,
          -3.7469949042151146e-02, -9.4317815529984736e-02,
          -2.5996323393606624e-01, 2.2184178725246415e-01,
          -1.0759940350229882e-02, 1.3221367633448058e-01,
          -4.3221645015033575e-02, 5.3847373484168315e-03,
          6.8565848377160621e-03, -1.0671895939129911e-01,
          -1.4057252250190805e-01, -1.2756969728849217e-02,
          -1.4630269294422946e-01, 5.7786943863165428e-02,
          -8.6778770674543523e-02, 1.3428069511332608e-01,
          -6.5860234303979373e-02, -1.3214060442407372e-01,
          -8.8874910497148032e-02, 2.9306000761820244e-02,
          2.0934867574805567e-02, 9.0937790903116697e-02,
          6.6997777639740297e-02, 9.4642619082098256e-02,
          9.3486248429297369e-02, 1.7573723276918831e-02,
          1.0530800574079614e-01, 7.2436462213040329e-02,
          -3.4045557675557048e-03, -4.9406349748494498e-02,
          2.2216892356888096e-01, -3.1979450876380801e-02,
          -5.4797355474896101e-02, -1.6432773220890290e-02,
          -2.5451260495525013e-01, 1.3677148256592360e-03,
          1.2176264823051458e-01, 7.7101892490102783e-02,
          -9.5272341997033008e-02, -4.0245633773013205e-03,
          1.0653837799957938e-01, 6.0921823788028670e-02,
          -7.7296921666079280e-02, 9.8677697273213183e-02,
          -1.7235729495890004e-01, 5.0412454383161323e-03,
          6.0401592631249217e-02, -1.9697294958323924e-01,
          -1.8109837553641664e-01, -9.1426511895236554e-02,
          7.5276024259192775e-02, 1.8340843304603442e-02,
          2.3266720493291135e-02, -1.1919980126609658e-01,
          -7.2542606132472584e-02, 2.0407321744167839e-01,
          -1.6077555081440167e-01, -3.0107351249234911e-02,
          1.1380685395936857e-01, 1.1946744768687592e-01,
          -1.1349738644219731e-01, -2.3295227531537552e-02,
          -3.1181641636415999e-02, 1.3423841860962300e-02,
          -1.6102842283704524e-01, -6.7470799717071650e-02,
          1.5279774004251007e-01, 2.3821767842479500e-02,
          3.3912143411609308e-02, -1.4999052705381105e-01,
          2.8152782269677535e-02, -8.9625185779843686e-02,
          -9.4685271618057468e-02, -6.0881211317764188e-02,
          6.4281774353350835e-02, 5.4500115341087868e-02,
          8.3650234302532739e-02, 3.4779639410786531e-02,
          1.3803152192674913e-02, -1.5952741500668735e-02,
          9.9780108535436462e-03, -6.8165067967418200e-03,
          2.0351492836207824e-02, 3.0667693963132174e-02,
          1.3720273774147324e-01, 6.2267546167321689e-03,
          1.0596209396999504e-01, -6.4650739568804863e-02,
          2.2966448292335358e-02, 4.9685683319777643e-02,
          3.4830184196928009e-02, 1.7012603966608322e-02,
          -5.8595237202283761e-02, -2.4802039382684615e-02,
          7.2712969195052921e-02, -6.1686878849052128e-02,
          1.3691661057156437e-01, -1.0355306762521790e-01,
          5.7990884966015203e-03, 7.0476002109640640e-02,
          2.0845206418586132e-01, -4.8719988596867381e-02,
          -6.3509051017131668e-02, 1.4034479058849175e-01,
          1.4475196087289571e-01, 2.0264576628803776e-02,
          -1.9482383816310905e-01, 4.0998033260853217e-02,
          -9.8443863086176975e-02, 4.5075049863315869e-02,
          3.0117175626755109e-02, -1.6556753450320670e-02,
          1.3384118931171601e-01, -6.2335601958286692e-03,
          9.1344810129666679e-02, -4.7849200275752068e-02,
          -8.3755474055374438e-02, -1.7501429579179539e-01,
          1.2251068455033461e-01, 1.2928211988641181e-01,
          1.2932459453146172e-01, 4.1152451425258398e-02,
          -1.1359531444475478e-01, -8.9641620617712137e-02,
          3.2061076385653017e-02, -1.2219314563805295e-01,
          2.0192070683137980e-02, -7.5696586915149008e-02,
          2.5911295230771670e-02, -8.2937586957650689e-02,
          2.1497676527030998e-01, -8.6615047248599072e-02,
          -1.3312896498380553e-01, -4.2671493768761601e-02,
          -1.0315907711359491e-01, 1.8597853903830186e-01,
          1.7287781999352178e-01, -6.3761655488393978e-02,
          -3.0167745705181898e-01, 8.6124294233467357e-03,
          1.0384312802837345e-01, -1.4159428661169732e-01,
          -1.2477250781455733e-01, -4.9120372054988433e-02,
          -3.9629005112161261e-02, 4.3325578550606599e-02,
          1.1517118849414600e-01, 2.5513053855102985e-01,
          1.0151847897007354e-02, 4.4365576433552288e-02,
          -1.5221514932121682e-01, 1.7272577737280237e-01,
          8.0617474731879302e-02, 7.5195459569806028e-02,
          1.0034424248745843e-01, -1.9996427601874558e-01,
          4.4813872492812802e-02, -2.6487872438877713e-01,
          -5.6893798985013537e-03, -4.8563920760116980e-02,
          2.3133951042445006e-01, 9.8962821202365339e-02,
          6.8515806772711532e-02, 5.1919154491019082e-02,
          -8.7733513255348838e-02, -9.8767016092517493e-02,
          -1.0668965661678868e-01, 1.3084313286805913e-01,
          3.4718515448386757e-02, -1.0036779571778685e-01,
          3.8374070494835356e-02, -1.3689932136729141e-01,
          -2.4517545391984827e-01, 1.0595453106026433e-01,
          2.8454073932253483e-02, -1.4448940862216484e-02,
          6.4837337591880220e-02, -5.8523500276907059e-02,
          -6.1881339113573734e-02, 1.2097915076489208e-02,
          2.3921496260187317e-01, -3.1014946982556024e-02,
          1.2758952112683727e-01, -1.2374932446564872e-02,
          1.8157524132863095e-01, 4.0941542916978484e-02,
          -1.3985056978527052e-01, -1.4354467389235237e-02,
          5.2563764332982973e-02, 1.0595463596546192e-01,
          1.8331399043159030e-01, -1.1494358782737873e-01,
          5.6358584072518370e-02, -3.5331782740741911e-02,
          1.3757109386728281e-01, 1.1472803491015789e-03,
          -8.0271737210522109e-02, 9.9954456681701526e-02,
          -5.2326736820229064e-02, -5.7601037495987294e-02,
          8.0901454933624620e-02, -1.1050309006392854e-02,
          -5.0349375817077924e-04, -8.0498493591985229e-02,
          -4.2907710453040877e-02, -3.3583837217047760e-02,
          -5.3535801948876902e-02, 2.0965266284390172e-01,
          -5.3070314412385695e-02, 1.5902861444886712e-01,
          -1.0798651899232974e-01, -5.2705743256844025e-02,
          -2.4686168736737950e-02, 1.2862698838649175e-01,
          -2.3149576526753113e-01, -1.3492627448163647e-01,
          2.4967072973815854e-01, -6.8981062456583628e-02,
          -7.5948472221052180e-02, 1.3417520787236931e-01,
          3.9684218223986018e-02, -8.2224577500058474e-02,
          9.3728065833475580e-02, -2.6244450819668638e-02,
          2.4162560762673379e-02, -1.8548205276758045e-02,
          9.2861080146594312e-03, -6.6184958390536688e-02,
          1.5398759742776734e-02, -7.0173783822177524e-02,
          -3.5960792950454804e-02, 3.8190631875456840e-03,
          -2.9124227395491031e-01, -3.3942662844578642e-02,
          -6.9533208811887468e-03, 1.4100739247077585e-03,
          1.8913970448044412e-01, 8.2907116984889104e-02,
          7.8271419999873821e-03, 1.5229708945898524e-01,
          -8.0296906371601987e-02, -1.7894363930870898e-02,
          -1.4946438015720270e-01, 8.6433280876205873e-02,
          -4.3275647645330977e-02, -1.4995435162254292e-01,
          -9.9231347104989348e-02, -8.4592170917409004e-02,
          -8.5547017496267030e-02, -2.2210975738544272e-01,
          -7.0913708956973562e-02, 6.0843541925381293e-02,
          -1.7226748488166948e-02, 6.8331971839319536e-02,
          8.7248038232675146e-03, 3.3917071006781922e-02,
          -7.7587522213550766e-02, 1.0607131576265751e-01,
          1.2223159190597037e-01, -6.9130422629517648e-03,
          -5.3976150522321270e-02, 1.4200728222291611e-01,
          -4.5169951206508442e-02, -1.6607435357895767e-01,
          -6.0821754853522952e-02, -5.4410940443794249e-02,
          2.4319977870501164e-01, -3.2386388241342740e-02,
          2.2037073117043626e-02, -4.2882273822669272e-02,
          4.3337370898127697e-02, 1.1743926261987173e-02,
          -1.3273562265625485e-01, -4.3160278578152987e-02,
          -3.5742220225552117e-02, -1.1744425460468003e-01,
          1.2363669839423436e-01, -1.6871560939844335e-02,
          3.4272519286317076e-02, -2.9776608919830826e-02,
          1.0186368968523808e-01, 6.1685282424312413e-02,
          1.0771473320409092e-01, 1.2606561807894670e-01,
          6.2496201337050757e-02, 6.9257152435214728e-02,
          7.7899829791781713e-02, -1.2363374133437058e-01,
          6.4960328280583846e-02, -5.5806339360938246e-03,
          1.0523471733899358e-03, -5.3868990111310140e-02,
          -4.0733598381981886e-02, -1.3819331748389577e-01,
          4.2247512310135439e-02, 2.0103626877884398e-01,
          3.2689517089920387e-03, -5.9728025526162812e-02,
          1.9670755183276181e-02, -1.2517881728603692e-03,
          1.0497330728566570e-01, 4.9288801762543535e-02,
          -2.4924140312049540e-02, -7.0483807965385128e-02,
          -1.2967598784918380e-01, -7.8107175579042676e-02,
          8.8474783585020617e-02, -3.4287366341026936e-02,
          3.7086707350708084e-02, 7.3459805817179494e-02,
          5.5197057843821486e-02, 2.0717232562330361e-02,
          -4.1759812932913129e-02, -2.4260860360265205e-02,
          -2.5994503243671085e-02, -1.2494870640207727e-03,
          1.2576898483965723e-01, 1.1516657249855717e-02,
          -2.9245460268281672e-02, -1.1996582327119244e-02,
          1.7521468058864711e-01, 4.1558444591536611e-02,
          1.2086106733228035e-02, 1.6891904083023784e-01,
          9.6706918669296066e-02, -5.3373856983142245e-02,
          1.0686849788489293e-01, -2.9371768933586610e-02,
          5.9660786708440230e-02, 9.5466673642541008e-02,
          -2.5511228450843609e-02, 1.2519375667276755e-01,
          3.0012249640365227e-03, -7.0300556310908313e-02,
          1.8630622326803806e-02, -9.8134950486366751e-02,
          3.4691717031900271e-02, 1.1241230665378528e-01,
          7.4479749263084306e-03, -1.0629423234087868e-02,
          1.0439566969719349e-01, 7.7247956611495971e-02,
          1.0374791988613523e-01, -1.6404819572175128e-01,
          -2.4369732037055679e-03, -2.0661991869793386e-01,
          3.1222768909875690e-02, 1.2778708982710879e-01,
          2.3870285643446159e-02, 4.7867670934781323e-02,
          -1.1912272746229463e-01, 6.2570867619059833e-02,
          1.6523547643792683e-01, -1.1827027402802098e-01,
          1.7845018208855726e-01, -1.2405262445842605e-01,
          -1.6667744483673555e-01, 7.4288248632369070e-03,
          5.9946705120237143e-02, -1.9837054485028059e-02,
          8.7418624759417932e-02, -6.2841957465985768e-02,
          -7.5280316473385865e-03, 1.2915463921434491e-02,
          1.7239643805856335e-02, -1.3139753426826636e-01,
          -1.0812200161486243e-01, -3.2963242531387438e-02,
          8.2270471677415830e-02, 1.4805029610995418e-01,
          1.4664913381160653e-02, -3.9645650741134054e-02,
          -1.5343478068839836e-01, -1.7558625796864505e-01,
          8.4072442605667944e-02, -2.3813287212637099e-01,
          -2.3928958906880551e-01, 2.5014542678489779e-02,
          -5.3812080876230364e-02, 7.3671369582019905e-02,
          4.4313899236314853e-02, 4.7987134989455331e-02,
          7.8180347521060192e-02, 2.0214172616000925e-03,
          -2.5770534547819562e-03, 1.6448796814570749e-02,
          1.9973515484073617e-01, 6.6150317394891023e-02,
          6.7849273821642103e-02, 1.3380581605703259e-01,
          -1.9785188568450066e-01, 1.1310328941079803e-01,
          7.2956414472465148e-02, -1.6104713674025598e-01,
          1.5288689182787138e-01, 1.1337880104837291e-02,
          3.8803512129571907e-02, -1.3403221040126823e-01,
          3.5986764363208877e-02, 6.6097340506865623e-02,
          3.3012108585042943e-02, 4.6837668090450217e-03,
          -4.7166054334837768e-02, 1.2872384665549830e-01,
          -1.7234193509928396e-02, -5.2640812366244086e-02,
          3.0829168175101762e-01, -6.0366317459498685e-02,
          1.5032050427178736e-01, 3.6261370158027426e-02,
          -8.8978804994744837e-02, -3.3743956729655057e-02,
          1.8203933095351868e-01, -2.6864347626483986e-02,
          -5.9010052757438029e-02, -1.4764605453910545e-01,
          -3.1356085030896812e-02, 2.7288560416485874e-01,
          1.3316905018264796e-02, 3.9230666349863989e-02,
          -4.5863546749514331e-02, -1.0095720046922155e-01,
          2.6107638960758007e-02, -6.8402635767127129e-02,
          -4.8740537733994276e-02, -9.6689728573855854e-02,
          1.3426957219280246e-03, -1.4598886816039533e-02,
          9.4750142427070333e-02, 1.4019723423187431e-02,
          8.5093963954229079e-02, 1.3059713547444085e-01,
          -1.4787229304696722e-01, 6.5509107874287958e-02,
          -1.3100862596491908e-01, -2.2945199809687675e-01,
          -1.6188509550318253e-01, -8.2384364933334606e-02,
          -9.9333850851025196e-02, 5.6577100132991658e-02,
          8.0654350888259382e-02, 3.6117041924948828e-02,
          -3.8817560404472762e-02, -3.0809753472543949e-01,
          -1.0964820132960894e-01, -5.4833748710416838e-02,
          -2.7511646218182872e-02, 8.8052121640384021e-02,
          1.3265845722943986e-01, 4.2141892293131672e-02,
          -8.9865951331368418e-02, -1.5585819267342652e-01,
          -1.4037856363027237e-01, 8.0748960447606724e-02,
          -9.0309928757519101e-02, -7.9876978908702420e-02,
          -1.1261464035724636e-01, 1.0206045497114932e-01,
          -1.9814855200605355e-01, 1.8841642656840619e-02,
          -1.3212363754583981e-01, -1.0163845737480440e-01,
          -1.7176099988821519e-01, 2.4554347383042661e-02,
          -3.8464195846533121e-02, 7.7047508236447487e-02,
          9.5746783419852668e-02, 8.1630400650401058e-02,
          -2.9193872382960149e-02, 7.8261774210108173e-02,
          1.8312479214610718e-02, -2.1269022956284342e-01,
          -2.0534321901559741e-01, 4.1873024386801336e-02,
          4.3461265868742625e-02, 1.3472512103852152e-01,
          1.3445313231879238e-01, 6.3054843379963990e-02,
          -8.0061330245213863e-02, -2.6306447088357665e-02,
          4.9373316973316365e-02, 9.0398803070450007e-02,
          1.2843582596703110e-01, -8.4132369615932762e-02,
          -1.3935470846526624e-01, -3.2685511193144545e-01,
          -1.0810265016877817e-01, -6.7145026314166786e-02,
          -7.6973926690702965e-02, -1.1792844098637136e-03,
          1.8816290251125301e-02, -3.4147584521858182e-03,
          3.2164848866009982e-02, -7.3162513925494832e-02,
          4.4309824947075797e-02, 7.3089479835671947e-02,
          -9.1246206996043536e-02, 8.7606980102034410e-02,
          -8.1903701196406761e-02, -2.9496323580232402e-02,
          -1.1669996118277959e-01, 3.3254341025256394e-02,
          -7.6625163274958011e-02, 7.1951929621725613e-02,
          1.7712278708940363e-02, 3.8935806460341400e-02,
          1.5583259640441513e-01, -1.7729949014637880e-01,
          -3.8061457819867597e-02, 2.2831830607113055e-02,
          -7.1900724212463726e-02, 1.6063103791863816e-02,
          -6.0386997941446106e-02, 5.9042148200527070e-02,
          4.8939879531864558e-02, -5.5043013576908793e-02,
          -1.5107109470015326e-01, -9.8417338980729699e-02,
          -2.8760527513866999e-03, -5.8288512744123069e-02,
          1.2368175593585555e-01, -3.5432187956427278e-03,
          2.1655301295914747e-01, -1.3111329598544891e-01,
          2.4475572092496636e-01, -9.3014065422449929e-02,
          5.3298373362776465e-02, 6.5186246343273677e-02,
          6.1860712876346653e-02, -7.4949465547749866e-02,
          -8.0281693345998495e-02, 5.0410310421917619e-03,
          -1.2915931265605052e-01, -1.6452019784410726e-01,
          1.1146491895785340e-01, 2.0226994475921614e-01,
          5.4666478102681715e-02, -9.5391015094290404e-02,
          1.0361632531935318e-01, 2.1352807859576838e-02,
          7.0206908647568955e-02, -6.6093640896546804e-02,
          -5.0819668580692014e-02, 7.8568777923580996e-02,
          -9.5589926032682529e-02, 3.8055624207416837e-02,
          -5.0320017716803306e-02, -3.8047514310076386e-02,
          2.5201902530606085e-02, 2.6268836947261079e-02,
          -2.8035531199762976e-02, -4.8555607821506759e-02,
          -6.5534056615972891e-02, 4.9397491490496728e-02,
          -5.6899513031191749e-04, -7.3969674406959857e-03,
          6.4162478032427542e-02, -1.2874210325344852e-02,
          2.8368054200825162e-02, 1.0341669589947569e-02,
          5.6804989611299879e-02, 1.2882174619041603e-01,
          3.2206866622815360e-03, 1.3382329416703773e-01,
          5.5308824835937805e-02, -1.0122267084994988e-01,
          1.1049362031206659e-02, -6.9490295387887951e-02,
          2.1263949296001061e-02, 1.5149571324276051e-01,
          1.0852139784034519e-01, -9.4346914103492305e-03,
          1.0713629840516484e-01, -8.5846878558427472e-02,
          -1.8018820719550799e-02, 3.4134976409534654e-02,
          8.2156908629899151e-03, 1.8142873238111579e-01,
          6.7025191992192951e-02, 4.1389786983625607e-04,
          3.1381608866336119e-02, 7.0005850988330079e-02,
          2.4960246406277052e-02, -1.9849651171045504e-01,
          -1.2737830512136254e-02, -7.4751928617271993e-02,
          5.4490454651663564e-02, -4.3984057887358624e-02,
          5.9625044347616035e-02, 2.8999121105801016e-02,
          -7.6067833317234337e-02, 1.1659156369836078e-01,
          1.5890014753760082e-01, -1.0310918844042362e-01,
          4.3673518352589230e-02, 9.6629373699781806e-02,
          -9.2877839105482973e-02, 1.2563187065300579e-01,
          3.9790847401271874e-02, -7.3871591526437116e-02,
          2.6738303858118992e-03, 6.4785195978845619e-02,
          -5.5930894652860108e-02, -4.5414946982175724e-03,
          6.2998075230939241e-02, -1.1520056126742827e-01,
          -1.5265126487364325e-01, -3.2478487548439926e-02,
          -1.9470946643780846e-03, 1.3365348896095988e-02,
          -4.2314951500288071e-02, 1.1558181618941191e-02,
          -3.6133778812288124e-02, -9.3051812047106955e-02,
          4.6239060131169830e-02, 5.0005422054984023e-03,
          -1.2036186855338342e-01, 3.2173233788830483e-02,
          -2.6475969394427413e-02, 5.0497841576855378e-02,
          -1.5874233729428586e-01, 5.9084676122907791e-02,
          1.4202718792003527e-01, 1.1893863121181357e-01,
          1.0430653359420086e-01, -3.0905900496767915e-02,
          8.3185886328612044e-03, 3.3668496842724750e-02,
          -6.1449531676074948e-02, -6.5954728907361884e-02,
          -1.0066667809523015e-01, 3.0708312635419994e-03,
          1.0641513717727796e-01, -8.3454134682500454e-04,
          -1.3589993201742512e-01, 9.3144902861301532e-02,
          2.8685881899745323e-02, 9.7835885105818591e-03,
          1.2121177608943227e-01, -9.5925248424523171e-02,
          5.4453203792561140e-02, 2.7546373767404445e-02,
          1.0134645832092268e-01, -8.2913760343196301e-03,
          -3.7232772669824339e-02, -7.1280653534092825e-02,
          1.2914500832030928e-01, 3.7691398500728474e-02,
          2.1518733864558071e-01, -6.7370821297402753e-02,
          -2.4268242574036761e-02, 5.5586867897060674e-02,
          -1.9859747761429675e-01, 1.2196002054900276e-01,
          7.9582049178171285e-02, -7.2502977460213919e-02,
          7.2202627484857423e-02, 9.3274654905482167e-03,
          -2.1031129373871481e-02, 4.5269150227762088e-02,
          -9.9166814920600616e-02, 4.4964428249192744e-02,
          -2.3450327100888714e-02, -7.6896866740673198e-02,
          2.0126965710229750e-02, -1.2705277009789401e-01,
          7.1782669422790855e-03, -5.8415612158687638e-02,
          1.0403786305463235e-01, 2.4235504923701648e-02,
          5.6400308100073182e-02, -1.9283147934344758e-02,
          1.3519861193805667e-02, -3.1161202881962941e-03,
          -3.7505906025868787e-03, -1.5786137911914258e-01,
          -6.5025478618315827e-02, -1.0350498848169976e-01,
          -3.4558918845701600e-02, -5.8927578338707464e-05,
          -1.6410924595092130e-01, 8.6951936757476388e-03,
          -4.9931026103760046e-02, 4.6603734935582054e-03,
          1.7253266815435563e-02, -7.6658723325603112e-02,
          -1.4225808054427763e-01, 9.9930153293223151e-04,
          -4.6874149580907361e-02, -6.7085166872594790e-02,
          -1.0227602354972473e-03, -1.0355606966221707e-01,
          -8.5594385220765137e-02, 4.4327396917825231e-02,
          -9.8299243455670961e-03, 3.9504995338098134e-02,
          -1.0356354952601260e-01, 7.5743222035188310e-02,
          2.5882281720225109e-02, -2.5064818800886866e-02,
          -3.3462506401207459e-02, -4.6164476749847187e-02,
          -1.4488056608238462e-01, 1.5300058269857922e-01,
          2.8810999707625778e-02, 1.5398789803949067e-01,
          -4.6556528254101059e-02, 6.9704872130969583e-02,
          9.4798288614667145e-02, -4.1662756212543457e-02,
          6.5692301215591248e-02, -1.3094651744246194e-01,
          -6.0175052999105916e-02, 6.4395568721133511e-03,
          -6.9470721657042517e-02, 1.8932136037187119e-01,
          2.4289705072392592e-01, 1.5971189724427853e-01,
          7.2936254625368388e-02, -3.7734781308109373e-02,
          2.6802739304789443e-02, 1.1004763474612078e-01,
          1.5318411136618504e-01, -2.5002112763009628e-02,
          8.7663981441617619e-02, -1.0269380005258694e-01,
          -6.9800121003060336e-02, -2.1920525977451574e-02,
          2.2806876907706337e-02, 8.6610368629250381e-02,
          3.2873984900554563e-02, 1.4613562124001236e-01,
          1.3402226242937704e-02, -8.8974531819083463e-02,
          4.8751454716484392e-02, -2.5460075651086038e-02,
          -7.0706925903914281e-02, -7.6284274729048376e-02,
          -2.8575670049690235e-02, 1.0414207272168541e-02,
          2.2973539743169516e-01, 5.8227343354089217e-02,
          -5.7926765605216278e-02, 6.9308898101756111e-02,
          6.7622534438635903e-02, 4.1132897362882635e-02,
          8.6505787999016800e-02, 6.6346333951152400e-03,
          2.5807045627085138e-02, 5.1835753862465951e-02,
          -2.1694792690816001e-03, -8.9417366285434063e-02,
          1.0486130153330674e-01, 1.7495252047946903e-02,
          -1.1439136708824152e-01, 4.2090581065539992e-02,
          -4.0212487074078269e-02, 6.1500139591914263e-02,
          -3.9733717712278918e-02, 7.4587435948165262e-02,
          1.3377651767976764e-01, -1.0569793372888882e-01,
          1.9398436160327309e-01, -1.1387494702338723e-01,
          1.8612530493306346e-02, -1.9229644005100910e-01,
          1.2391423824491746e-01, -8.4666391876413935e-02,
          3.0039491666225819e-02, -8.1162890908399093e-02,
          -1.1732435541875788e-01, -3.1693301519623143e-02,
          -1.8880264538761610e-01, 7.8915703131151621e-02,
          -4.3247765547403061e-02, -1.9822057239788415e-02,
          -6.1694866751210262e-02, -1.6245182159160929e-01,
          1.2024757873706240e-01, 1.6397771442002992e-02,
          -1.2532355177212851e-01, 6.5934733169248166e-02,
          1.7735315332989027e-02, 1.5060875896039144e-01,
          -1.5238301607204952e-02, 1.3788973545071306e-01,
          7.6244309893050852e-02, 4.7090223711186457e-02,
          -4.4918515779755842e-02, 1.9994971815613445e-02,
          2.0520020867325163e-02, -3.9407784753038952e-02,
          1.7203742074305795e-02, 4.5413743261193275e-02,
          4.0861977497106204e-02, -5.8629600833879726e-02,
          -1.1697543003110034e-01, -2.3420731515864636e-02,
          2.6492617008661412e-01, 1.6292474424686257e-01,
          -1.0410344267708388e-01, 1.2051014785664079e-02,
          -5.4640956755137741e-02, 1.8322530617067009e-02,
          1.4886438231252971e-01, -1.1643700425062671e-01,
          -5.5881765363590838e-02, 3.2921938623970401e-02,
          -8.3223413080850267e-03, 1.9355170578603850e-02,
          1.2127784385670151e-02, -2.1877611990305917e-01,
          1.6592760545014296e-01, -2.8734443384075558e-02,
          3.9940270146551216e-02, 9.6282983363166388e-02,
          -4.3952351565945937e-02, -1.8318539037830167e-01,
          5.3182150538988962e-02, -7.0181661945004723e-03,
          3.5367001914193300e-02, -1.0730110749522030e-01,
          -1.7665584503577523e-03, 1.1404284468024584e-01,
          -1.9114273028291297e-03, 1.0222251979081705e-01,
          9.5210340574543348e-02, -1.5225893174301383e-01,
          -2.9247732633043488e-02, -1.8831443892652425e-01,
          -6.1878331795502586e-03, 6.1903268662296340e-02,
          -1.1754372910876729e-01, -3.2285751827337970e-02,
          -5.4834146450271411e-02, 2.1255535254529990e-02,
          -4.7310458079088659e-02, 2.0697669160558575e-02,
          7.9670340092885067e-02, 1.6954303182193209e-01,
          -1.6711674248850916e-01, 6.5743629228910819e-02,
          -2.0423672903992024e-01, 6.7133759700032491e-02,
          -1.0008242284164787e-01, -3.2401702202110853e-02,
          3.4620513214893692e-02, -2.5106917418659190e-02,
          -1.3293177791738572e-01, -2.7052881014405755e-01,
          -1.3150930656287388e-01, 5.1889887377784660e-02,
          1.0955632564680326e-01, 4.5052158610801252e-02,
          1.8681277513751090e-02, 1.2037872357453731e-01,
          -7.5895637393280535e-02, 4.5632071455975559e-02,
          2.1583798800110227e-01, 1.1106494557879550e-01,
          -1.3916957353392234e-01, -5.4901062741887739e-02,
          1.7987056314231332e-03, -1.8332540190343658e-03,
          9.1200720291561621e-02, 1.0974471816921797e-02,
          -1.4085618820282914e-02, 9.9906610017091880e-03,
          -8.3665981428251657e-02, -1.3312497338630699e-01,
          -6.5780104548068374e-02, -1.2445376923440417e-01,
          -1.6799317684200676e-01, 9.0979962184966137e-02,
          3.7915368433114827e-02, -7.1839212018435739e-02,
          -6.0191206281941599e-02, -1.1309734509384162e-01,
          4.2910364187631035e-02, -6.2082943541499777e-02,
          2.6790537724530095e-02, 3.3396171918327472e-02,
          4.8510946479362577e-02, 1.9401183893554946e-01,
          7.3930650508226489e-02, 9.1504857041662904e-02,
          -7.5352971976739055e-02, -3.4023949563747345e-02,
          2.9310790393855944e-02, 4.0566861789449758e-02,
          7.6491633739367820e-02, -1.1762820022516872e-01,
          9.7402745103918192e-02, 3.3177405780964737e-02,
          1.0400344599653932e-01, -3.9198708538760021e-02,
          1.6555465088603658e-01, -1.8329762167986166e-01,
          -1.2789754145432561e-01, 3.5944105776969756e-02,
          1.3222619139062486e-01, 2.6161782692849689e-02,
          -1.6507101908004591e-02, -1.7915248996363556e-01,
          -5.2874493171898053e-03, -1.9041791710607356e-01,
          1.5582409449725840e-01, -1.0307493772191874e-01,
          2.4096994070046007e-02, -4.8193507152546743e-02,
          1.4173308272964404e-02, -1.0334907441086345e-02,
          1.1561060097818553e-01, -2.1843322864596271e-02,
          1.0639427665897248e-01, 1.8122242568697433e-01,
          -1.6811277731020285e-01, 3.3259622300346965e-02,
          1.4634918390878862e-01, -4.9907067875717408e-02,
          1.5785775310560174e-01, -2.0829034266689533e-01,
          -1.1146104858830980e-01, 1.9772355972508529e-01,
          -7.9412745082188277e-02, -1.3525336178057243e-01,
          -2.4483776676233499e-02, -1.6135274253494145e-01,
          -3.8910561818066458e-02, 1.7487939200951302e-02,
          -4.5257257682627443e-02, 2.4391523349682004e-01,
          -7.5977440239556104e-02, -1.4958003058791821e-02,
          1.3715799006274287e-01, 6.8358921959830982e-02,
          1.5080319667181935e-01, 1.4830951905616829e-01,
          -1.1843928743046504e-01, -8.1091694592827279e-02,
          -1.9150708295219393e-02, 1.2415061120178841e-02,
          -6.7700635626301076e-02, 1.7729400351840557e-01,
          8.6909142852304361e-02, 3.2923204826741367e-02,
          9.3421284536690276e-03, -8.4649543905557692e-02,
          8.4984552410734646e-02, 2.7133559255776940e-01,
          2.3928604014353465e-02, -9.5666413431583996e-02,
          2.8512968818483136e-01, -4.6717090810452951e-02,
          7.2089993969775931e-02, 5.9600458191926331e-02,
          1.2078570621674720e-01, 1.2220872510591396e-04,
          1.4044896434597026e-01, 2.0603944863321796e-01,
          -3.3527391420174885e-02, -3.7015235359392620e-02,
          2.2500429630764363e-02, -1.7663855328752989e-01,
          1.0767085207581119e-01, 5.4159051288958883e-03,
          6.1192218214345132e-02, -7.7248035596020628e-02,
          7.9612386511452402e-02, -9.1293497836533719e-02,
          5.6672595752489417e-02, 2.6579025933175726e-01,
          1.3012831435225491e-01, 1.3423931690095800e-01,
          -1.3181941097114191e-01, -1.6085668932862571e-01,
          -6.4891033262465744e-03, -1.3932959718599638e-01,
          9.8091418048268167e-02, -1.7186795451555600e-02,
          -9.0878673754461986e-02, -1.4536779072444078e-01,
          -1.8987088899997551e-01, 6.9308798169481531e-02,
          8.6698348588342397e-02, -2.1183472230903580e-01,
          7.1693289446057323e-02, -1.4728703358643425e-01,
          7.8984514024444563e-02, -6.2718751009165810e-02,
          -6.5473020995338568e-02, -1.6337546705912323e-02,
          6.6255722478380380e-02, -2.7623760492203792e-01,
          -7.6129345987947045e-02, 1.8421644683462254e-01,
          -1.0294786488759090e-01, 2.8795881257432454e-01,
          2.6968914933623911e-01, -1.5675934959780199e-01,
          3.2127290756801451e-02, 1.7406615030840275e-01,
          -1.2526124783405121e-01, -7.8211199741160017e-02,
          6.2062528172717076e-03, 9.7213315255287286e-02,
          3.3757037892433069e-02, -1.7153618629978849e-02,
          9.1615962470486104e-02, 6.1162606030495011e-02,
          -3.8713279767981758e-02, -4.7539913751973785e-02,
          2.0452351684367247e-02, -4.2727134823791887e-03,
          -1.7200076248604569e-02, -1.2370520636830213e-02,
          -2.1181993787210373e-02, -5.6125043408800292e-02,
          -1.1578231156770580e-02, 5.7366942820029666e-03,
          3.7635062029152691e-02, 2.7078130289686368e-02,
          1.6262593463542606e-02, -4.0176010735047682e-03,
          -2.1910144708253282e-02, -1.2537258928003642e-01,
          3.1472890760468941e-02, -7.9724469255952023e-03,
          -1.0503242374056624e-02, -2.9654317432427572e-02,
          -4.0233632343484316e-02, -2.0307455939517140e-02,
          1.5446346560959631e-02, 7.5275104144576768e-03,
          2.1565414452557115e-02, -1.2062950823761770e-02,
          3.0810646721789171e-02, -7.2857674134163587e-03,
          -3.2217102417814038e-02, 5.5404577077362424e-03,
          -7.8481084116186151e-02, -1.0229252438694872e-02,
          8.0326655407622505e-03, 4.7549348886860257e-02,
          1.5024962664235728e-02, 7.1072342670879139e-03,
          4.0034242232350158e-03, -2.0382330595285804e-02,
          -1.2636202912343828e-02, -7.9708601299542797e-03,
          1.8797298612958258e-02, 2.3322030474977894e-02,
          -1.0123789651951490e-03, -1.6170357268918786e-02,
          5.0824430058371138e-02, -1.5469587014030678e-02,
          -1.0928481032284528e-02, -2.5438742310887021e-02,
          7.2179561034610047e-03, 2.9809043647843828e-03,
          2.1600579725186485e-03, 2.3304871115612919e-03,
          5.5211777361093509e-03, 5.1387351894353877e-03,
          -2.8550847260644448e-02, -4.3895972236251751e-03,
          -1.1079276470773660e-02, 5.1354140731012573e-03,
          -8.0500147151227296e-03, 7.3097800182304967e-02,
          2.7761188832726796e-02, 7.9497148726909203e-02 ]
      - [ -1.6054084425075110e-01, 1.2402659834144118e-01,
          8.3532466189590426e-02, -1.5428299887223301e-02,
          5.5305184749625015e-02, -1.3803458301779209e-01,
          -2.0964016667901614e-01, -2.4612900933863105e-02,
          8.5635047074183301e-03, 2.6993810851765922e-02,
          -2.2777149943583565e-02, -1.5332201847434382e-01,
          -4.5958810548854860e-02, -5.2361210405609100e-02,
          7.8450269377397606e-03, -4.8280840141339029e-02,
          -2.4480344211479269e-01, -5.1451638546387478e-02,
          -1.1387001579656029e-01, 4.1865326976562662e-04,
          -7.8888930266485191e-02, 5.3611473095491705e-02,
          1.2531392711655151e-01, 2.0355251114948633e-01,
          5.4355798975926246e-02, 3.2748426960673926e-02,
          1.2773963693721024e-01, 8.6142078810000411e-02,
          2.1002889417653575e-01, 1.1608853727086571e-03,
          -8.5797298712978601e-02, -4.6351524883205215e-02,
          2.5965601256694115e-01, -3.5563705273955189e-03,
          -3.0084852849956014e-02, -1.3663689243282287e-01,
          -1.3082899498883735e-02, 3.5783715449904496e-02,
          6.6534447063096372e-02, 4.5097178630905191e-02,
          1.4749118234006143e-02, 7.0921749044546928e-02,
          -7.4218604497143556e-02, -6.2217049956770194e-02,
          -1.0051710960494104e-01, -1.3562144019958497e-01,
          -4.0242387761935200e-02, 1.1332855612663528e-01,
          2.2339133529502381e-01, 1.4425127173459829e-01,
          5.1613113568413334e-03, 7.4931725613013060e-03,
          -9.9298316083991540e-03, 2.8028022697995203e-02,
          9.2057709168842830e-02, -1.3260852870913303e-01,
          -1.1067866808323025e-01, -1.8747567805145940e-01,
          9.5001946264867965e-03, 2.5090162892092910e-01,
          3.0189776916695006e-02, 3.2775058324453751e-02,
          -6.6937813436096352e-02, 2.7714055143587047e-03,
          -6.3732922340871800e-02, 5.9840335647688002e-02,
          1.2629023827840978e-02, 1.1223191048956260e-01,
          4.9098622751404954e-02, 1.4861552111772314e-01,
          -1.4417053649528147e-01, -1.1183082014259309e-02,
          -1.5829386109714755e-02, -2.9799292917193874e-02,
          -5.1993235411331065e-02, 7.3646505736212217e-02,
          2.6583455499877732e-02, -4.8051879745348046e-02,
          -6.1982024852884857e-02, -1.4287606193387622e-01,
          -1.4473125599692339e-02, 4.2998789528345051e-02,
          -7.8118140929732710e-02, -1.3293963260761248e-04,
          -8.7065361022148333e-02, -1.0025681175705944e-01,
          -8.9055605930419710e-02, 7.7597736335163855e-02,
          6.1766848885275651e-02, 3.2821819009773670e-02,
          2.6683926709289629e-03, -5.1179426991517403e-03,
          -5.0127751605094466e-02, -3.7888241510198546e-02,
          1.3740951519333086e-01, 8.3670223132138344e-02,
          5.4098814401614015e-02, -4.8562088591171212e-02,
          -6.2376613795490643e-02, -3.6684401365797530e-02,
          -8.9298293200619884e-04, 2.4040098691774712e-03,
          2.6853748054028764e-02, -5.9255809000017846e-02,
          -2.3291456458994433e-01, -2.5083463538328736e-02,
          1.2517214804360846e-01, -1.1859060799897143e-01,
          -2.0519900957223014e-01, -4.1348340627672009e-02,
          -1.2520801888510918e-01, -4.4993729518329924e-02,
          -9.0605402677900251e-02, 1.0769953132153255e-01,
          5.1783384968885182e-02, 7.3200618421623162e-02,
          1.3906438481877015e-01, -1.7587607254470014e-01,
          -9.2676098951251090e-02, -6.1204555564359261e-02,
          1.5757641107108059e-01, -1.6102201098716476e-02,
          -1.4565228588375773e-01, 7.5953712675777024e-02,
          8.1183285382276427e-02, -3.3283348934841021e-02,
          2.1662841461886625e-02, 4.4957731057840712e-02,
          1.4727103099455274e-01, 2.0432608828633805e-01,
          -9.8439532730976262e-02, 8.8118890993793372e-02,
          2.4827488054854720e-02, -1.1282185638452684e-01,
          -1.3183392413664688e-01, -2.9444452890419009e-02,
          -2.9746100524331163e-02, -6.1283723476013227e-02,
          -1.4423974140629989e-01, 1.2271402726397403e-01,
          1.2774365259065501e-02, -1.0410908068979295e-01,
          -1.6819171388828661e-02, -1.0333134340501716e-01,
          -1.6526035362072328e-02, 3.7406561032923627e-02,
          1.0212843474356825e-01, -1.0673285422130073e-01,
          -1.4540548243017154e-01, -8.4717293198133412e-02,
          6.6485688035864896e-02, 8.2953359518547959e-02,
          4.6862541330280318e-02, -7.2724841958419065e-02,
          -2.0933846497054581e-02, 5.2738080408878181e-02,
          -1.0642834361413901e-01, -1.8923986438945110e-02,
          -2.2162958599474144e-02, -8.1818557653960372e-02,
          2.5994572245106113e-02, -6.7362851954967162e-02,
          1.0998448688483455e-01, 5.7089730650138233e-03,
          3.4658348956139819e-02, -3.2451534364447275e-02,
          4.4712549700045852e-02, -6.7205327622420000e-02,
          -1.0946914375815454e-01, 5.2012987189418484e-02,
          -6.0994628852310544e-02, -1.8420368562003676e-02,
          -2.5034039513038744e-02, 1.8459636312974346e-02,
          -1.0177550692907661e-01, 8.7018574107346841e-02,
          -3.3320278614154382e-02, -4.8852458918485928e-02,
          4.5841421706619805e-02, -9.5714542747493486e-04,
          -7.1952272939406606e-02, 7.4872249344873160e-02,
          1.2336776862270560e-01, -5.7984884063504508e-02,
          -1.0448039528540329e-02, -1.0718740578951226e-02,
          -3.5525469382403724e-02, -1.1941874017129049e-01,
          -1.3711327527590795e-02, -1.5259478633124025e-02,
          -3.2099492056453613e-02, 2.7213891356935721e-02,
          -1.5775857199289717e-01, -3.5921249301401580e-02,
          -6.4047009089489597e-03, -1.7484491160397186e-02,
          5.6888520373644072e-02, 5.7822579552416889e-02,
          -8.7503346490876877e-02, -1.6083859123601302e-01,
          9.7862522222505709e-03, -1.5884918351902200e-01,
          -1.2091480158689166e-02, 1.9313063310987841e-02,
          4.5832880740715627e-02, 7.4899375388665590e-02,
          1.2605798352076999e-02, -1.3086476969427857e-01,
          4.3786720924359673e-02, -1.0027557127877755e-01,
          3.5311895902273197e-02, 2.3036743369990644e-02,
          -2.1202728173782371e-02, 8.2696405533517578e-02,
          -1.9689283098607627e-02, 2.2904709940102796e-01,
          -2.5916427291059835e-02, 1.4882770360896852e-01,
          7.0710486277240053e-02, 1.0695984257602315e-01,
          4.0167237312623338e-02, 5.3242250971993685e-02,
          -8.4533171207277213e-03, -2.1203314199101497e-01,
          -1.5704089472879634e-01, 5.2457786839058780e-02,
          7.9741672271540665e-02, 5.0851117672880301e-02,
          2.1719975558483526e-02, -6.5042970917214366e-02,
          2.6162570381070348e-02, -6.9841244627964469e-02,
